{"learner":{"attributes":{"num_features":"1093"},"feature_names":[],"feature_types":[],"gradient_booster":{"model":{"gbtree_model_param":{"num_parallel_tree":"1","num_trees":"2250"},"iteration_indptr":[0,3,6,9,12,15,18,21,24,27,30,33,36,39,42,45,48,51,54,57,60,63,66,69,72,75,78,81,84,87,90,93,96,99,102,105,108,111,114,117,120,123,126,129,132,135,138,141,144,147,150,153,156,159,162,165,168,171,174,177,180,183,186,189,192,195,198,201,204,207,210,213,216,219,222,225,228,231,234,237,240,243,246,249,252,255,258,261,264,267,270,273,276,279,282,285,288,291,294,297,300,303,306,309,312,315,318,321,324,327,330,333,336,339,342,345,348,351,354,357,360,363,366,369,372,375,378,381,384,387,390,393,396,399,402,405,408,411,414,417,420,423,426,429,432,435,438,441,444,447,450,453,456,459,462,465,468,471,474,477,480,483,486,489,492,495,498,501,504,507,510,513,516,519,522,525,528,531,534,537,540,543,546,549,552,555,558,561,564,567,570,573,576,579,582,585,588,591,594,597,600,603,606,609,612,615,618,621,624,627,630,633,636,639,642,645,648,651,654,657,660,663,666,669,672,675,678,681,684,687,690,693,696,699,702,705,708,711,714,717,720,723,726,729,732,735,738,741,744,747,750,753,756,759,762,765,768,771,774,777,780,783,786,789,792,795,798,801,804,807,810,813,816,819,822,825,828,831,834,837,840,843,846,849,852,855,858,861,864,867,870,873,876,879,882,885,888,891,894,897,900,903,906,909,912,915,918,921,924,927,930,933,936,939,942,945,948,951,954,957,960,963,966,969,972,975,978,981,984,987,990,993,996,999,1002,1005,1008,1011,1014,1017,1020,1023,1026,1029,1032,1035,1038,1041,1044,1047,1050,1053,1056,1059,1062,1065,1068,1071,1074,1077,1080,1083,1086,1089,1092,1095,1098,1101,1104,1107,1110,1113,1116,1119,1122,1125,1128,1131,1134,1137,1140,1143,1146,1149,1152,1155,1158,1161,1164,1167,1170,1173,1176,1179,1182,1185,1188,1191,1194,1197,1200,1203,1206,1209,1212,1215,1218,1221,1224,1227,1230,1233,1236,1239,1242,1245,1248,1251,1254,1257,1260,1263,1266,1269,1272,1275,1278,1281,1284,1287,1290,1293,1296,1299,1302,1305,1308,1311,1314,1317,1320,1323,1326,1329,1332,1335,1338,1341,1344,1347,1350,1353,1356,1359,1362,1365,1368,1371,1374,1377,1380,1383,1386,1389,1392,1395,1398,1401,1404,1407,1410,1413,1416,1419,1422,1425,1428,1431,1434,1437,1440,1443,1446,1449,1452,1455,1458,1461,1464,1467,1470,1473,1476,1479,1482,1485,1488,1491,1494,1497,1500,1503,1506,1509,1512,1515,1518,1521,1524,1527,1530,1533,1536,1539,1542,1545,1548,1551,1554,1557,1560,1563,1566,1569,1572,1575,1578,1581,1584,1587,1590,1593,1596,1599,1602,1605,1608,1611,1614,1617,1620,1623,1626,1629,1632,1635,1638,1641,1644,1647,1650,1653,1656,1659,1662,1665,1668,1671,1674,1677,1680,1683,1686,1689,1692,1695,1698,1701,1704,1707,1710,1713,1716,1719,1722,1725,1728,1731,1734,1737,1740,1743,1746,1749,1752,1755,1758,1761,1764,1767,1770,1773,1776,1779,1782,1785,1788,1791,1794,1797,1800,1803,1806,1809,1812,1815,1818,1821,1824,1827,1830,1833,1836,1839,1842,1845,1848,1851,1854,1857,1860,1863,1866,1869,1872,1875,1878,1881,1884,1887,1890,1893,1896,1899,1902,1905,1908,1911,1914,1917,1920,1923,1926,1929,1932,1935,1938,1941,1944,1947,1950,1953,1956,1959,1962,1965,1968,1971,1974,1977,1980,1983,1986,1989,1992,1995,1998,2001,2004,2007,2010,2013,2016,2019,2022,2025,2028,2031,2034,2037,2040,2043,2046,2049,2052,2055,2058,2061,2064,2067,2070,2073,2076,2079,2082,2085,2088,2091,2094,2097,2100,2103,2106,2109,2112,2115,2118,2121,2124,2127,2130,2133,2136,2139,2142,2145,2148,2151,2154,2157,2160,2163,2166,2169,2172,2175,2178,2181,2184,2187,2190,2193,2196,2199,2202,2205,2208,2211,2214,2217,2220,2223,2226,2229,2232,2235,2238,2241,2244,2247,2250],"tree_info":[0,1,2,0,1,2,0,1,2,0,1,2,0,1,2,0,1,2,0,1,2,0,1,2,0,1,2,0,1,2,0,1,2,0,1,2,0,1,2,0,1,2,0,1,2,0,1,2,0,1,2,0,1,2,0,1,2,0,1,2,0,1,2,0,1,2,0,1,2,0,1,2,0,1,2,0,1,2,0,1,2,0,1,2,0,1,2,0,1,2,0,1,2,0,1,2,0,1,2,0,1,2,0,1,2,0,1,2,0,1,2,0,1,2,0,1,2,0,1,2,0,1,2,0,1,2,0,1,2,0,1,2,0,1,2,0,1,2,0,1,2,0,1,2,0,1,2,0,1,2,0,1,2,0,1,2,0,1,2,0,1,2,0,1,2,0,1,2,0,1,2,0,1,2,0,1,2,0,1,2,0,1,2,0,1,2,0,1,2,0,1,2,0,1,2,0,1,2,0,1,2,0,1,2,0,1,2,0,1,2,0,1,2,0,1,2,0,1,2,0,1,2,0,1,2,0,1,2,0,1,2,0,1,2,0,1,2,0,1,2,0,1,2,0,1,2,0,1,2,0,1,2,0,1,2,0,1,2,0,1,2,0,1,2,0,1,2,0,1,2,0,1,2,0,1,2,0,1,2,0,1,2,0,1,2,0,1,2,0,1,2,0,1,2,0,1,2,0,1,2,0,1,2,0,1,2,0,1,2,0,1,2,0,1,2,0,1,2,0,1,2,0,1,2,0,1,2,0,1,2,0,1,2,0,1,2,0,1,2,0,1,2,0,1,2,0,1,2,0,1,2,0,1,2,0,1,2,0,1,2,0,1,2,0,1,2,0,1,2,0,1,2,0,1,2,0,1,2,0,1,2,0,1,2,0,1,2,0,1,2,0,1,2,0,1,2,0,1,2,0,1,2,0,1,2,0,1,2,0,1,2,0,1,2,0,1,2,0,1,2,0,1,2,0,1,2,0,1,2,0,1,2,0,1,2,0,1,2,0,1,2,0,1,2,0,1,2,0,1,2,0,1,2,0,1,2,0,1,2,0,1,2,0,1,2,0,1,2,0,1,2,0,1,2,0,1,2,0,1,2,0,1,2,0,1,2,0,1,2,0,1,2,0,1,2,0,1,2,0,1,2,0,1,2,0,1,2,0,1,2,0,1,2,0,1,2,0,1,2,0,1,2,0,1,2,0,1,2,0,1,2,0,1,2,0,1,2,0,1,2,0,1,2,0,1,2,0,1,2,0,1,2,0,1,2,0,1,2,0,1,2,0,1,2,0,1,2,0,1,2,0,1,2,0,1,2,0,1,2,0,1,2,0,1,2,0,1,2,0,1,2,0,1,2,0,1,2,0,1,2,0,1,2,0,1,2,0,1,2,0,1,2,0,1,2,0,1,2,0,1,2,0,1,2,0,1,2,0,1,2,0,1,2,0,1,2,0,1,2,0,1,2,0,1,2,0,1,2,0,1,2,0,1,2,0,1,2,0,1,2,0,1,2,0,1,2,0,1,2,0,1,2,0,1,2,0,1,2,0,1,2,0,1,2,0,1,2,0,1,2,0,1,2,0,1,2,0,1,2,0,1,2,0,1,2,0,1,2,0,1,2,0,1,2,0,1,2,0,1,2,0,1,2,0,1,2,0,1,2,0,1,2,0,1,2,0,1,2,0,1,2,0,1,2,0,1,2,0,1,2,0,1,2,0,1,2,0,1,2,0,1,2,0,1,2,0,1,2,0,1,2,0,1,2,0,1,2,0,1,2,0,1,2,0,1,2,0,1,2,0,1,2,0,1,2,0,1,2,0,1,2,0,1,2,0,1,2,0,1,2,0,1,2,0,1,2,0,1,2,0,1,2,0,1,2,0,1,2,0,1,2,0,1,2,0,1,2,0,1,2,0,1,2,0,1,2,0,1,2,0,1,2,0,1,2,0,1,2,0,1,2,0,1,2,0,1,2,0,1,2,0,1,2,0,1,2,0,1,2,0,1,2,0,1,2,0,1,2,0,1,2,0,1,2,0,1,2,0,1,2,0,1,2,0,1,2,0,1,2,0,1,2,0,1,2,0,1,2,0,1,2,0,1,2,0,1,2,0,1,2,0,1,2,0,1,2,0,1,2,0,1,2,0,1,2,0,1,2,0,1,2,0,1,2,0,1,2,0,1,2,0,1,2,0,1,2,0,1,2,0,1,2,0,1,2,0,1,2,0,1,2,0,1,2,0,1,2,0,1,2,0,1,2,0,1,2,0,1,2,0,1,2,0,1,2,0,1,2,0,1,2,0,1,2,0,1,2,0,1,2,0,1,2,0,1,2,0,1,2,0,1,2,0,1,2,0,1,2,0,1,2,0,1,2,0,1,2,0,1,2,0,1,2,0,1,2,0,1,2,0,1,2,0,1,2,0,1,2,0,1,2,0,1,2,0,1,2,0,1,2,0,1,2,0,1,2,0,1,2,0,1,2,0,1,2,0,1,2,0,1,2,0,1,2,0,1,2,0,1,2,0,1,2,0,1,2,0,1,2,0,1,2,0,1,2,0,1,2,0,1,2,0,1,2,0,1,2,0,1,2,0,1,2,0,1,2,0,1,2,0,1,2,0,1,2,0,1,2,0,1,2,0,1,2,0,1,2,0,1,2,0,1,2,0,1,2,0,1,2,0,1,2,0,1,2,0,1,2,0,1,2,0,1,2,0,1,2,0,1,2,0,1,2,0,1,2,0,1,2,0,1,2,0,1,2,0,1,2,0,1,2,0,1,2,0,1,2,0,1,2,0,1,2,0,1,2,0,1,2,0,1,2,0,1,2,0,1,2,0,1,2,0,1,2,0,1,2,0,1,2,0,1,2,0,1,2,0,1,2,0,1,2,0,1,2,0,1,2,0,1,2,0,1,2,0,1,2,0,1,2,0,1,2,0,1,2,0,1,2,0,1,2,0,1,2,0,1,2,0,1,2,0,1,2,0,1,2,0,1,2,0,1,2,0,1,2,0,1,2,0,1,2,0,1,2,0,1,2,0,1,2,0,1,2,0,1,2,0,1,2,0,1,2,0,1,2,0,1,2,0,1,2,0,1,2,0,1,2,0,1,2,0,1,2,0,1,2,0,1,2,0,1,2,0,1,2,0,1,2,0,1,2,0,1,2,0,1,2,0,1,2,0,1,2,0,1,2,0,1,2,0,1,2,0,1,2,0,1,2,0,1,2,0,1,2,0,1,2,0,1,2,0,1,2,0,1,2,0,1,2,0,1,2,0,1,2,0,1,2,0,1,2,0,1,2,0,1,2,0,1,2,0,1,2,0,1,2,0,1,2,0,1,2,0,1,2,0,1,2,0,1,2,0,1,2,0,1,2,0,1,2,0,1,2,0,1,2,0,1,2,0,1,2,0,1,2,0,1,2,0,1,2,0,1,2,0,1,2,0,1,2,0,1,2,0,1,2,0,1,2,0,1,2,0,1,2,0,1,2,0,1,2,0,1,2,0,1,2,0,1,2,0,1,2,0,1,2,0,1,2,0,1,2,0,1,2,0,1,2,0,1,2,0,1,2,0,1,2,0,1,2,0,1,2,0,1,2,0,1,2,0,1,2,0,1,2,0,1,2,0,1,2,0,1,2,0,1,2,0,1,2,0,1,2,0,1,2,0,1,2,0,1,2,0,1,2,0,1,2,0,1,2,0,1,2,0,1,2,0,1,2,0,1,2,0,1,2,0,1,2,0,1,2,0,1,2,0,1,2,0,1,2,0,1,2,0,1,2,0,1,2,0,1,2,0,1,2,0,1,2,0,1,2,0,1,2,0,1,2,0,1,2,0,1,2,0,1,2,0,1,2,0,1,2,0,1,2,0,1,2,0,1,2,0,1,2,0,1,2,0,1,2,0,1,2,0,1,2,0,1,2,0,1,2,0,1,2,0,1,2,0,1,2,0,1,2,0,1,2,0,1,2,0,1,2,0,1,2,0,1,2,0,1,2,0,1,2,0,1,2,0,1,2,0,1,2,0,1,2,0,1,2,0,1,2,0,1,2,0,1,2,0,1,2,0,1,2,0,1,2,0,1,2,0,1,2,0,1,2,0,1,2,0,1,2,0,1,2,0,1,2,0,1,2,0,1,2,0,1,2,0,1,2,0,1,2,0,1,2,0,1,2,0,1,2,0,1,2,0,1,2,0,1,2,0,1,2,0,1,2,0,1,2,0,1,2,0,1,2,0,1,2,0,1,2,0,1,2,0,1,2,0,1,2,0,1,2,0,1,2,0,1,2,0,1,2,0,1,2,0,1,2,0,1,2,0,1,2,0,1,2,0,1,2,0,1,2,0,1,2,0,1,2,0,1,2,0,1,2,0,1,2,0,1,2,0,1,2,0,1,2,0,1,2,0,1,2,0,1,2,0,1,2,0,1,2,0,1,2,0,1,2,0,1,2,0,1,2,0,1,2,0,1,2,0,1,2,0,1,2,0,1,2,0,1,2,0,1,2,0,1,2,0,1,2,0,1,2,0,1,2,0,1,2,0,1,2,0,1,2,0,1,2,0,1,2,0,1,2,0,1,2,0,1,2,0,1,2,0,1,2,0,1,2,0,1,2,0,1,2,0,1,2,0,1,2,0,1,2,0,1,2,0,1,2,0,1,2,0,1,2,0,1,2,0,1,2,0,1,2,0,1,2,0,1,2,0,1,2,0,1,2,0,1,2,0,1,2,0,1,2,0,1,2,0,1,2,0,1,2,0,1,2,0,1,2,0,1,2,0,1,2,0,1,2,0,1,2,0,1,2,0,1,2,0,1,2,0,1,2,0,1,2,0,1,2,0,1,2,0,1,2,0,1,2,0,1,2,0,1,2,0,1,2,0,1,2,0,1,2,0,1,2,0,1,2,0,1,2,0,1,2,0,1,2,0,1,2,0,1,2,0,1,2,0,1,2,0,1,2,0,1,2,0,1,2,0,1,2,0,1,2,0,1,2,0,1,2,0,1,2,0,1,2,0,1,2,0,1,2,0,1,2,0,1,2,0,1,2,0,1,2,0,1,2,0,1,2,0,1,2,0,1,2,0,1,2,0,1,2],"trees":[{"base_weights":[3.6665136E-1,2.0375834E-1,3.8744012E-1,1.0928316E-1,4.064352E-1,4.0428048E-1,2.328576E-1,2.160945E-3,-1.33758E-3,5.2415207E-3,-1.3824889E-3,5.499587E-3,3.8063969E-3,5.26475E-3,1.4452945E-3],"categories":[],"categories_nodes":[],"categories_segments":[],"categories_sizes":[],"default_left":[0,0,0,0,0,0,0,0,0,0,0,0,0,0,0],"id":0,"left_children":[1,3,5,7,9,11,13,-1,-1,-1,-1,-1,-1,-1,-1],"loss_changes":[1.2241669E1,7.880699E0,8.302399E0,7.392764E0,8.486237E0,9.80304E0,8.202833E0,0E0,0E0,0E0,0E0,0E0,0E0,0E0,0E0],"parents":[2147483647,0,0,1,1,2,2,3,3,4,4,5,5,6,6],"right_children":[2,4,6,8,10,12,14,-1,-1,-1,-1,-1,-1,-1,-1],"split_conditions":[1.213E0,5.762E0,2.635E0,2.12E-1,2.88E-1,1.631E0,8.8E-2,2.160945E-3,-1.33758E-3,5.2415207E-3,-1.3824889E-3,5.499587E-3,3.8063969E-3,5.26475E-3,1.4452945E-3],"split_indices":[694,978,542,768,141,894,785,0,0,0,0,0,0,0,0],"split_type":[0,0,0,0,0,0,0,0,0,0,0,0,0,0,0],"sum_hessian":[3.637333E3,4.1288885E2,3.2244443E3,2.8266666E2,1.3022221E2,2.9062222E3,3.182222E2,1.9644443E2,8.622221E1,1.0711111E2,2.311111E1,4.0266666E2,2.5035554E3,7.244444E1,2.4577776E2],"tree_param":{"num_deleted":"0","num_feature":"1093","num_nodes":"15","size_leaf_vector":"1"}},{"base_weights":[3.556573E-1,5.0093955E-1,3.3690444E-1,5.992949E-1,2.8450462E-1,1.1351347E-1,3.5038173E-1,6.3766926E-3,-1.9200004E-3,2.041006E-3,1E-2,-5.902485E-4,5.1089106E-3,3.981079E-3,2.8847598E-3],"categories":[],"categories_nodes":[],"categories_segments":[],"categories_sizes":[],"default_left":[0,0,0,0,0,0,0,0,0,0,0,0,0,0,0],"id":1,"left_children":[1,3,5,7,9,11,13,-1,-1,-1,-1,-1,-1,-1,-1],"loss_changes":[9.743652E0,8.640167E0,9.671143E0,8.736076E0,7.344942E0,1.2714285E1,8.871155E0,0E0,0E0,0E0,0E0,0E0,0E0,0E0,0E0],"parents":[2147483647,0,0,1,1,2,2,3,3,4,4,5,5,6,6],"right_children":[2,4,6,8,10,12,14,-1,-1,-1,-1,-1,-1,-1,-1],"split_conditions":[1.213E0,5.762E0,1.383E0,8E0,1.0625E2,6E0,4E0,6.3766926E-3,-1.9200004E-3,2.041006E-3,1E-2,-5.902485E-4,5.1089106E-3,3.981079E-3,2.8847598E-3],"split_indices":[694,978,894,460,1061,486,507,0,0,0,0,0,0,0,0],"split_type":[0,0,0,0,0,0,0,0,0,0,0,0,0,0,0],"sum_hessian":[3.637333E3,4.1288885E2,3.2244443E3,2.8266666E2,1.3022221E2,1.8399998E2,3.0404443E3,2.6977777E2,1.2888888E1,1.1822221E2,1.1999999E1,1.2888889E2,5.5111107E1,1.7137777E3,1.3266666E3],"tree_param":{"num_deleted":"0","num_feature":"1093","num_nodes":"15","size_leaf_vector":"1"}},{"base_weights":[-7.223088E-1,-7.2283196E-1,-1.463415E-1,-7.233529E-1,-2.0000003E-1,-5.1724142E-3,4.285714E-3,-7.236186E-3,-2.5544847E-10,-5.4545454E-3,4.285714E-3],"categories":[],"categories_nodes":[],"categories_segments":[],"categories_sizes":[],"default_left":[0,0,0,0,0,0,0,0,0,0,0],"id":2,"left_children":[1,3,5,7,9,-1,-1,-1,-1,-1,-1],"loss_changes":[9.904785E-1,8.450928E-1,1.1930795E0,6.97876E-1,1.3194805E0,0E0,0E0,0E0,0E0,0E0,0E0],"parents":[2147483647,0,0,1,1,2,2,3,3,4,4],"right_children":[2,4,6,8,10,-1,-1,-1,-1,-1,-1],"split_conditions":[2.4E1,8E0,3.7E1,3.26E1,3E1,-5.1724142E-3,4.285714E-3,-7.236186E-3,-2.5544847E-10,-5.4545454E-3,4.285714E-3],"split_indices":[463,998,1,63,0,0,0,0,0,0,0],"split_type":[0,0,0,0,0,0,0,0,0,0,0],"sum_hessian":[3.637333E3,3.6337776E3,3.5555553E0,3.6297776E3,3.9999998E0,2.222222E0,1.3333333E0,3.6284443E3,1.3333333E0,2.6666665E0,1.3333333E0],"tree_param":{"num_deleted":"0","num_feature":"1093","num_nodes":"11","size_leaf_vector":"1"}},{"base_weights":[3.6324596E-1,2.0198706E-1,3.8380802E-1,1.0838271E-1,4.0249425E-1,4.0049174E-1,2.3056419E-1,2.1452622E-3,-1.3341627E-3,5.19139E-3,-1.384379E-3,5.4459996E-3,3.77089E-3,5.2186875E-3,1.4282754E-3],"categories":[],"categories_nodes":[],"categories_segments":[],"categories_sizes":[],"default_left":[0,0,0,0,0,0,0,0,0,0,0,0,0,0,0],"id":3,"left_children":[1,3,5,7,9,11,13,-1,-1,-1,-1,-1,-1,-1,-1],"loss_changes":[1.2008514E1,7.732439E0,8.169952E0,7.3131037E0,8.368664E0,9.618835E0,8.094955E0,0E0,0E0,0E0,0E0,0E0,0E0,0E0,0E0],"parents":[2147483647,0,0,1,1,2,2,3,3,4,4,5,5,6,6],"right_children":[2,4,6,8,10,12,14,-1,-1,-1,-1,-1,-1,-1,-1],"split_conditions":[1.213E0,5.762E0,2.635E0,2.12E-1,2.88E-1,1.631E0,8.8E-2,2.1452622E-3,-1.3341627E-3,5.19139E-3,-1.384379E-3,5.4459996E-3,3.77089E-3,5.2186875E-3,1.4282754E-3],"split_indices":[694,978,542,768,141,894,785,0,0,0,0,0,0,0,0],"split_type":[0,0,0,0,0,0,0,0,0,0,0,0,0,0,0],"sum_hessian":[3.6439617E3,4.1331805E2,3.2306436E3,2.828251E2,1.3049295E2,2.9119995E3,3.1864413E2,1.9662473E2,8.6200386E1,1.073785E2,2.3114445E1,4.037205E2,2.5082788E3,7.261119E1,2.4603294E2],"tree_param":{"num_deleted":"0","num_feature":"1093","num_nodes":"15","size_leaf_vector":"1"}},{"base_weights":[3.5237563E-1,4.95921E-1,3.3383152E-1,5.930013E-1,2.8195718E-1,1.12391666E-1,3.471774E-1,6.309938E-3,-1.9244145E-3,2.0211998E-3,9.906543E-3,-5.9198687E-4,5.0685112E-3,3.944821E-3,2.857938E-3],"categories":[],"categories_nodes":[],"categories_segments":[],"categories_sizes":[],"default_left":[0,0,0,0,0,0,0,0,0,0,0,0,0,0,0],"id":4,"left_children":[1,3,5,7,9,11,13,-1,-1,-1,-1,-1,-1,-1,-1],"loss_changes":[9.536499E0,8.451485E0,9.509125E0,8.611656E0,7.234953E0,1.2560493E1,8.73407E0,0E0,0E0,0E0,0E0,0E0,0E0,0E0,0E0],"parents":[2147483647,0,0,1,1,2,2,3,3,4,4,5,5,6,6],"right_children":[2,4,6,8,10,12,14,-1,-1,-1,-1,-1,-1,-1,-1],"split_conditions":[1.213E0,5.762E0,1.383E0,8E0,1.0625E2,6E0,4E0,6.309938E-3,-1.9244145E-3,2.0211998E-3,9.906543E-3,-5.9198687E-4,5.0685112E-3,3.944821E-3,2.857938E-3],"split_indices":[694,978,894,460,1061,486,507,0,0,0,0,0,0,0,0],"split_type":[0,0,0,0,0,0,0,0,0,0,0,0,0,0,0],"sum_hessian":[3.6437585E3,4.1392496E2,3.2298337E3,2.8351578E2,1.3040916E2,1.8412828E2,3.0457053E3,2.706222E2,1.2893572E1,1.18360634E2,1.2048534E1,1.2890456E2,5.522372E1,1.7170497E3,1.3286556E3],"tree_param":{"num_deleted":"0","num_feature":"1093","num_nodes":"15","size_leaf_vector":"1"}},{"base_weights":[-7.1951616E-1,-7.2003984E-1,-1.4448272E-1,-7.2056127E-1,-1.9793646E-1,-5.1567475E-3,4.2948793E-3,-7.20828E-3,3.262968E-5,-5.4373425E-3,4.2965896E-3],"categories":[],"categories_nodes":[],"categories_segments":[],"categories_sizes":[],"default_left":[0,0,0,0,0,0,0,0,0,0,0],"id":5,"left_children":[1,3,5,7,9,-1,-1,-1,-1,-1,-1],"loss_changes":[9.8742676E-1,8.433838E-1,1.1907123E0,7.0092773E-1,1.3169932E0,0E0,0E0,0E0,0E0,0E0,0E0],"parents":[2147483647,0,0,1,1,2,2,3,3,4,4],"right_children":[2,4,6,8,10,-1,-1,-1,-1,-1,-1],"split_conditions":[2.4E1,8E0,3.65E-1,1.6E1,3.7E-1,-5.1567475E-3,4.2948793E-3,-7.20828E-3,3.262968E-5,-5.4373425E-3,4.2965896E-3],"split_indices":[463,998,10,750,62,0,0,0,0,0,0],"split_type":[0,0,0,0,0,0,0,0,0,0,0],"sum_hessian":[3.6241326E3,3.6205835E3,3.5492659E0,3.6165913E3,3.9920151E0,2.2170472E0,1.3322186E0,3.6152632E3,1.3282299E0,2.6600056E0,1.3320093E0],"tree_param":{"num_deleted":"0","num_feature":"1093","num_nodes":"11","size_leaf_vector":"1"}},{"base_weights":[3.5988915E-1,2.0024133E-1,3.802281E-1,1.0749852E-1,3.9861068E-1,3.96758E-1,2.2830123E-1,2.1297894E-3,-1.3306449E-3,5.142016E-3,-1.3861438E-3,5.3933025E-3,3.7358862E-3,5.173319E-3,1.4114829E-3],"categories":[],"categories_nodes":[],"categories_segments":[],"categories_sizes":[],"default_left":[0,0,0,0,0,0,0,0,0,0,0,0,0,0,0],"id":6,"left_children":[1,3,5,7,9,11,13,-1,-1,-1,-1,-1,-1,-1,-1],"loss_changes":[1.1780487E1,7.5872364E0,8.040436E0,7.234248E0,8.253267E0,9.439789E0,7.989229E0,0E0,0E0,0E0,0E0,0E0,0E0,0E0,0E0],"parents":[2147483647,0,0,1,1,2,2,3,3,4,4,5,5,6,6],"right_children":[2,4,6,8,10,12,14,-1,-1,-1,-1,-1,-1,-1,-1],"split_conditions":[1.213E0,5.762E0,2.635E0,2.12E-1,2.88E-1,1.631E0,8.8E-2,2.1297894E-3,-1.3306449E-3,5.142016E-3,-1.3861438E-3,5.3933025E-3,3.7358862E-3,5.173319E-3,1.4114829E-3],"split_indices":[694,978,542,768,141,894,785,0,0,0,0,0,0,0,0],"split_type":[0,0,0,0,0,0,0,0,0,0,0,0,0,0,0],"sum_hessian":[3.650476E3,4.137388E2,3.2367373E3,2.8298016E2,1.3075865E2,2.917678E3,3.1905927E2,1.9680228E2,8.617787E1,1.07641136E2,2.3117523E1,4.047539E2,2.512924E3,7.2775024E1,2.4628426E2],"tree_param":{"num_deleted":"0","num_feature":"1093","num_nodes":"15","size_leaf_vector":"1"}},{"base_weights":[3.491406E-1,4.909767E-1,3.308025E-1,5.868065E-1,2.7944595E-1,1.1130228E-1,3.4401798E-1,6.2442515E-3,-1.928703E-3,1.1797614E-3,6.2049464E-3,-5.935888E-4,5.029156E-3,3.521625E-3,-5.050555E-5],"categories":[],"categories_nodes":[],"categories_segments":[],"categories_sizes":[],"default_left":[0,0,0,0,0,0,0,0,0,0,0,0,0,0,0],"id":7,"left_children":[1,3,5,7,9,11,13,-1,-1,-1,-1,-1,-1,-1,-1],"loss_changes":[9.334076E0,8.267555E0,9.349121E0,8.489822E0,7.173482E0,1.2410842E1,8.678253E0,0E0,0E0,0E0,0E0,0E0,0E0,0E0,0E0],"parents":[2147483647,0,0,1,1,2,2,3,3,4,4,5,5,6,6],"right_children":[2,4,6,8,10,12,14,-1,-1,-1,-1,-1,-1,-1,-1],"split_conditions":[1.213E0,5.762E0,1.383E0,8E0,2.54E-1,6E0,5.571E0,6.2442515E-3,-1.928703E-3,1.1797614E-3,6.2049464E-3,-5.935888E-4,5.029156E-3,3.521625E-3,-5.050555E-5],"split_indices":[694,978,894,460,141,486,589,0,0,0,0,0,0,0,0],"split_type":[0,0,0,0,0,0,0,0,0,0,0,0,0,0,0],"sum_hessian":[3.6500737E3,4.149415E2,3.2351323E3,2.8434882E2,1.3059268E2,1.8425212E2,3.0508801E3,2.714507E2,1.2898113E1,8.954395E1,4.1048733E1,1.2891896E2,5.5333164E1,2.9813108E3,6.956928E1],"tree_param":{"num_deleted":"0","num_feature":"1093","num_nodes":"15","size_leaf_vector":"1"}},{"base_weights":[-7.1676636E-1,-7.172905E-1,-1.426417E-1,-7.1781254E-1,-1.9589183E-1,4.3038856E-3,-5.1412415E-3,-7.1808025E-3,6.401803E-5,-5.419885E-3,4.305911E-3],"categories":[],"categories_nodes":[],"categories_segments":[],"categories_sizes":[],"default_left":[0,0,0,0,0,0,0,0,0,0,0],"id":8,"left_children":[1,3,5,7,9,-1,-1,-1,-1,-1,-1],"loss_changes":[9.8461914E-1,8.4143066E-1,1.1883421E0,7.034912E-1,1.3140328E0,0E0,0E0,0E0,0E0,0E0,0E0],"parents":[2147483647,0,0,1,1,2,2,3,3,4,4],"right_children":[2,4,6,8,10,-1,-1,-1,-1,-1,-1],"split_conditions":[2.4E1,8E0,8.4E1,5.52E0,2E1,4.3038856E-3,-5.1412415E-3,-7.1808025E-3,6.401803E-5,-5.419885E-3,4.305911E-3],"split_indices":[463,998,58,691,90,0,0,0,0,0,0],"split_type":[0,0,0,0,0,0,0,0,0,0,0],"sum_hessian":[3.610867E3,3.607324E3,3.542988E0,3.60334E3,3.9840376E0,1.3311116E0,2.2118764E0,3.6020168E3,1.3232701E0,2.6531773E0,1.3308604E0],"tree_param":{"num_deleted":"0","num_feature":"1093","num_nodes":"11","size_leaf_vector":"1"}},{"base_weights":[3.565805E-1,1.9852552E-1,3.7669933E-1,-2.7673244E-2,2.77935E-1,1.1505127E0,3.7334523E-1,5.670235E-3,-1.6839526E-3,2.1345709E-3,7.68155E-3,-1.2581766E-3,1.3559461E-2,3.8994476E-3,2.2066205E-3],"categories":[],"categories_nodes":[],"categories_segments":[],"categories_sizes":[],"default_left":[0,0,0,0,0,0,0,0,0,0,0,0,0,0,0],"id":9,"left_children":[1,3,5,7,9,11,13,-1,-1,-1,-1,-1,-1,-1,-1],"loss_changes":[1.1556885E1,7.464752E0,7.989319E0,9.199145E0,9.55142E0,3.7152576E0,8.103363E0,0E0,0E0,0E0,0E0,0E0,0E0,0E0,0E0],"parents":[2147483647,0,0,1,1,2,2,3,3,4,4,5,5,6,6],"right_children":[2,4,6,8,10,12,14,-1,-1,-1,-1,-1,-1,-1,-1],"split_conditions":[1.213E0,3.104E0,-5.53E1,1.57E-1,9.8E-2,1.013E0,2.635E0,5.670235E-3,-1.6839526E-3,2.1345709E-3,7.68155E-3,-1.2581766E-3,1.3559461E-2,3.8994476E-3,2.2066205E-3],"split_indices":[694,987,970,927,776,349,542,0,0,0,0,0,0,0,0],"split_type":[0,0,0,0,0,0,0,0,0,0,0,0,0,0,0],"sum_hessian":[3.6568782E3,4.1414996E2,3.242728E3,1.0778236E2,3.063676E2,1.2518851E1,3.2302092E3,2.004443E1,8.773793E1,2.720241E2,3.4343502E1,1.7893584E0,1.0729492E1,2.9120596E3,3.181497E2],"tree_param":{"num_deleted":"0","num_feature":"1093","num_nodes":"15","size_leaf_vector":"1"}},{"base_weights":[3.4595E-1,4.8610017E-1,3.278155E-1,5.8071196E-1,2.7694952E-1,1.1022297E-1,3.4090304E-1,6.179648E-3,-1.9328679E-3,1.9785794E-3,9.773004E-3,-5.9505727E-4,4.989939E-3,3.8767909E-3,2.8018148E-3],"categories":[],"categories_nodes":[],"categories_segments":[],"categories_sizes":[],"default_left":[0,0,0,0,0,0,0,0,0,0,0,0,0,0,0],"id":10,"left_children":[1,3,5,7,9,11,13,-1,-1,-1,-1,-1,-1,-1,-1],"loss_changes":[9.135803E0,8.089638E0,9.192993E0,8.370628E0,7.105871E0,1.2261713E1,8.574158E0,0E0,0E0,0E0,0E0,0E0,0E0,0E0,0E0],"parents":[2147483647,0,0,1,1,2,2,3,3,4,4,5,5,6,6],"right_children":[2,4,6,8,10,12,14,-1,-1,-1,-1,-1,-1,-1,-1],"split_conditions":[1.213E0,5.762E0,1.383E0,8E0,1.0625E2,6E0,4E0,6.179648E-3,-1.9328679E-3,1.9785794E-3,9.773004E-3,-5.9505727E-4,4.989939E-3,3.8767909E-3,2.8018148E-3],"split_indices":[694,978,894,460,1061,486,507,0,0,0,0,0,0,0,0],"split_type":[0,0,0,0,0,0,0,0,0,0,0,0,0,0,0],"sum_hessian":[3.656285E3,4.159401E2,3.240345E3,2.8516553E2,1.3077455E2,1.8437413E2,3.0559707E3,2.7226303E2,1.2902514E1,1.1865697E2,1.211758E1,1.2893216E2,5.5441967E1,1.723167E3,1.3328038E3],"tree_param":{"num_deleted":"0","num_feature":"1093","num_nodes":"15","size_leaf_vector":"1"}},{"base_weights":[-7.14058E-1,-7.145828E-1,-1.4082487E-1,-7.1510535E-1,-1.9380948E-1,-5.1258467E-3,4.312418E-3,-7.153741E-3,9.385122E-5,-5.4011405E-3,4.312102E-3],"categories":[],"categories_nodes":[],"categories_segments":[],"categories_sizes":[],"default_left":[0,0,0,0,0,0,0,0,0,0,0],"id":11,"left_children":[1,3,5,7,9,-1,-1,-1,-1,-1,-1],"loss_changes":[9.818115E-1,8.399658E-1,1.1858839E0,7.0581055E-1,1.3099109E0,0E0,0E0,0E0,0E0,0E0,0E0],"parents":[2147483647,0,0,1,1,2,2,3,3,4,4],"right_children":[2,4,6,8,10,-1,-1,-1,-1,-1,-1],"split_conditions":[2.4E1,8E0,2.01E1,2.97E-1,4E0,-5.1258467E-3,4.312418E-3,-7.153741E-3,9.385122E-5,-5.4011405E-3,4.312102E-3],"split_indices":[463,998,74,431,268,0,0,0,0,0,0],"split_type":[0,0,0,0,0,0,0,0,0,0,0],"sum_hessian":[3.597539E3,3.5940024E3,3.5367446E0,3.5900266E3,3.9758472E0,2.2066932E0,1.3300512E0,3.588708E3,1.318508E0,2.6457574E0,1.3300897E0],"tree_param":{"num_deleted":"0","num_feature":"1093","num_nodes":"11","size_leaf_vector":"1"}},{"base_weights":[3.5331923E-1,1.9684961E-1,3.732194E-1,3.844388E-1,1.0171861E-1,1.1397631E0,3.6989E-1,5.918141E-3,8.441267E-4,-1.7413441E-3,2.3236354E-3,-1.2633175E-3,1.3428702E-2,3.8633964E-3,2.1849333E-3],"categories":[],"categories_nodes":[],"categories_segments":[],"categories_sizes":[],"default_left":[0,0,0,0,0,0,0,0,0,0,0,0,0,0,0],"id":12,"left_children":[1,3,5,7,9,11,13,-1,-1,-1,-1,-1,-1,-1,-1],"loss_changes":[1.1335907E1,7.3766556E0,7.8718567E0,8.627415E0,1.0026279E1,3.659933E0,7.9772034E0,0E0,0E0,0E0,0E0,0E0,0E0,0E0,0E0],"parents":[2147483647,0,0,1,1,2,2,3,3,4,4,5,5,6,6],"right_children":[2,4,6,8,10,12,14,-1,-1,-1,-1,-1,-1,-1,-1],"split_conditions":[1.213E0,1.89E-1,-5.53E1,3.176E0,2.754E0,5E0,2.635E0,5.918141E-3,8.441267E-4,-1.7413441E-3,2.3236354E-3,-1.2633175E-3,1.3428702E-2,3.8633964E-3,2.1849333E-3],"split_indices":[694,927,970,786,986,90,542,0,0,0,0,0,0,0,0],"split_type":[0,0,0,0,0,0,0,0,0,0,0,0,0,0,0],"sum_hessian":[3.6631738E3,4.1455237E2,3.2486216E3,1.384672E2,2.7608517E2,1.2572809E1,3.2360486E3,8.13005E1,5.7166695E1,8.8624405E1,1.8746077E2,1.7903612E0,1.0782449E1,2.917503E3,3.1854584E2],"tree_param":{"num_deleted":"0","num_feature":"1093","num_nodes":"15","size_leaf_vector":"1"}},{"base_weights":[3.4280446E-1,4.8130223E-1,3.2487002E-1,5.7496536E-1,2.7403587E-1,1.0883162E-1,3.3785427E-1,6.11862E-3,-1.9351522E-3,1.1429759E-3,6.1073075E-3,-5.9956044E-4,4.9478556E-3,3.4592166E-3,-8.26811E-5],"categories":[],"categories_nodes":[],"categories_segments":[],"categories_sizes":[],"default_left":[0,0,0,0,0,0,0,0,0,0,0,0,0,0,0],"id":13,"left_children":[1,3,5,7,9,11,13,-1,-1,-1,-1,-1,-1,-1,-1],"loss_changes":[8.943085E0,7.955597E0,9.069855E0,8.254189E0,7.0288286E0,1.2115955E1,8.552734E0,0E0,0E0,0E0,0E0,0E0,0E0,0E0,0E0],"parents":[2147483647,0,0,1,1,2,2,3,3,4,4,5,5,6,6],"right_children":[2,4,6,8,10,12,14,-1,-1,-1,-1,-1,-1,-1,-1],"split_conditions":[1.213E0,5.762E0,1.383E0,8E0,2.54E-1,6E0,5.571E0,6.11862E-3,-1.9351522E-3,1.1429759E-3,6.1073075E-3,-5.9956044E-4,4.9478556E-3,3.4592166E-3,-8.26811E-5],"split_indices":[694,978,894,460,141,486,589,0,0,0,0,0,0,0,0],"split_type":[0,0,0,0,0,0,0,0,0,0,0,0,0,0,0],"sum_hessian":[3.6623909E3,4.1691916E2,3.2454717E3,2.859328E2,1.3098637E2,1.8453114E2,3.0609407E3,2.7302786E2,1.2904924E1,8.974709E1,4.1239273E1,1.2897269E2,5.5558445E1,2.991222E3,6.971867E1],"tree_param":{"num_deleted":"0","num_feature":"1093","num_nodes":"15","size_leaf_vector":"1"}},{"base_weights":[-7.1139127E-1,-7.119166E-1,-1.3905449E-1,-7.124398E-1,-1.9189335E-1,4.317526E-3,-5.1097143E-3,1.2000258E-4,-7.1270936E-3,-5.3847274E-3,4.3203156E-3],"categories":[],"categories_nodes":[],"categories_segments":[],"categories_sizes":[],"default_left":[0,0,0,0,0,0,0,0,0,0,0],"id":14,"left_children":[1,3,5,7,9,-1,-1,-1,-1,-1,-1],"loss_changes":[9.7888184E-1,8.376465E-1,1.1824285E0,7.0751953E-1,1.306966E0,0E0,0E0,0E0,0E0,0E0,0E0],"parents":[2147483647,0,0,1,1,2,2,3,3,4,4],"right_children":[2,4,6,8,10,-1,-1,-1,-1,-1,-1],"split_conditions":[2.4E1,8E0,5E0,2.5E1,1.4E1,4.317526E-3,-5.1097143E-3,1.2000258E-4,-7.1270936E-3,-5.3847274E-3,4.3203156E-3],"split_indices":[463,998,34,67,2,0,0,0,0,0,0],"split_type":[0,0,0,0,0,0,0,0,0,0,0],"sum_hessian":[3.5841577E3,3.5806272E3,3.5306063E0,3.576659E3,3.9682348E0,1.3293993E0,2.201207E0,1.3143017E0,3.5753445E3,2.6391768E0,1.3290579E0],"tree_param":{"num_deleted":"0","num_feature":"1093","num_nodes":"11","size_leaf_vector":"1"}},{"base_weights":[3.5010302E-1,1.9518855E-1,3.6978912E-1,6.8695074E-1,1.5891619E-1,1.129263E0,3.6648402E-1,-4.955246E-3,1.0143633E-2,-8.9497137E-4,2.450321E-3,-1.2752754E-3,1.3304459E-2,3.8280007E-3,2.1623878E-3],"categories":[],"categories_nodes":[],"categories_segments":[],"categories_sizes":[],"default_left":[0,0,0,0,0,0,0,0,0,0,0,0,0,0,0],"id":15,"left_children":[1,3,5,7,9,11,13,-1,-1,-1,-1,-1,-1,-1,-1],"loss_changes":[1.1121216E1,7.310276E0,7.7577515E0,1.1448319E1,8.336654E0,3.614746E0,7.8666077E0,0E0,0E0,0E0,0E0,0E0,0E0,0E0,0E0],"parents":[2147483647,0,0,1,1,2,2,3,3,4,4,5,5,6,6],"right_children":[2,4,6,8,10,12,14,-1,-1,-1,-1,-1,-1,-1,-1],"split_conditions":[1.213E0,6.79E-1,-5.53E1,4.38E-1,3.104E0,1.013E0,2.635E0,-4.955246E-3,1.0143633E-2,-8.9497137E-4,2.450321E-3,-1.2752754E-3,1.3304459E-2,3.8280007E-3,2.1623878E-3],"split_indices":[694,935,970,531,987,349,542,0,0,0,0,0,0,0,0],"split_type":[0,0,0,0,0,0,0,0,0,0,0,0,0,0,0],"sum_hessian":[3.6693643E3,4.149494E2,3.2544148E3,2.7271915E1,3.876775E2,1.2625276E1,3.2417896E3,5.802454E0,2.1469461E1,9.978745E1,2.8789E2,1.7926555E0,1.0832621E1,2.9228328E3,3.189568E2],"tree_param":{"num_deleted":"0","num_feature":"1093","num_nodes":"15","size_leaf_vector":"1"}},{"base_weights":[3.3970195E-1,4.7656786E-1,3.2196552E-1,5.692868E-1,2.7118143E-1,1.8971007E-1,3.429595E-1,6.0582706E-3,-1.9365959E-3,1.9279997E-3,9.639629E-3,1.0708127E-3,4.2249416E-3,3.294415E-3,5.5473605E-3],"categories":[],"categories_nodes":[],"categories_segments":[],"categories_sizes":[],"default_left":[0,0,0,0,0,0,0,0,0,0,0,0,0,0,0],"id":16,"left_children":[1,3,5,7,9,11,13,-1,-1,-1,-1,-1,-1,-1,-1],"loss_changes":[8.754089E0,7.822464E0,8.963013E0,8.13755E0,6.992405E0,8.565556E0,7.846924E0,0E0,0E0,0E0,0E0,0E0,0E0,0E0,0E0],"parents":[2147483647,0,0,1,1,2,2,3,3,4,4,5,5,6,6],"right_children":[2,4,6,8,10,12,14,-1,-1,-1,-1,-1,-1,-1,-1],"split_conditions":[1.213E0,5.762E0,1.631E0,8E0,1.0625E2,1.5E0,3E0,6.0582706E-3,-1.9365959E-3,1.9279997E-3,9.639629E-3,1.0708127E-3,4.2249416E-3,3.294415E-3,5.5473605E-3],"split_indices":[694,978,894,460,1061,542,1034,0,0,0,0,0,0,0,0],"split_type":[0,0,0,0,0,0,0,0,0,0,0,0,0,0,0],"sum_hessian":[3.668396E3,4.1788123E2,3.2505146E3,2.86688E2,1.3119325E2,4.466705E2,2.8038442E3,2.7378156E2,1.2906439E1,1.19007065E2,1.2186191E1,3.307336E2,1.1593686E2,2.638012E3,1.6583232E2],"tree_param":{"num_deleted":"0","num_feature":"1093","num_nodes":"15","size_leaf_vector":"1"}},{"base_weights":[-7.0876396E-1,-7.092899E-1,-1.3730346E-1,-7.098138E-1,-1.8986493E-1,-5.094424E-3,4.324308E-3,-7.100844E-3,1.5038751E-4,-5.3676493E-3,4.3297973E-3],"categories":[],"categories_nodes":[],"categories_segments":[],"categories_sizes":[],"default_left":[0,0,0,0,0,0,0,0,0,0,0],"id":17,"left_children":[1,3,5,7,9,-1,-1,-1,-1,-1,-1],"loss_changes":[9.7631836E-1,8.360596E-1,1.1795805E0,7.0983887E-1,1.3041155E0,0E0,0E0,0E0,0E0,0E0,0E0],"parents":[2147483647,0,0,1,1,2,2,3,3,4,4],"right_children":[2,4,6,8,10,-1,-1,-1,-1,-1,-1],"split_conditions":[2.4E1,8E0,5.15E-1,3.685E0,4.55E-1,-5.094424E-3,4.324308E-3,-7.100844E-3,1.5038751E-4,-5.3676493E-3,4.3297973E-3],"split_indices":[463,998,113,745,59,0,0,0,0,0,0],"split_type":[0,0,0,0,0,0,0,0,0,0,0],"sum_hessian":[3.5707205E3,3.567196E3,3.5244818E0,3.5632358E3,3.9601188E0,2.1959538E0,1.328528E0,3.5619265E3,1.3093745E0,2.6322587E0,1.3278604E0],"tree_param":{"num_deleted":"0","num_feature":"1093","num_nodes":"11","size_leaf_vector":"1"}},{"base_weights":[3.4693012E-1,1.9354904E-1,3.664056E-1,3.7897527E-1,9.938757E-2,1.118953E0,3.6312443E-1,5.843566E-3,8.139885E-4,-1.738241E-3,2.2847354E-3,-1.2775661E-3,1.3178203E-2,3.7929958E-3,2.1409364E-3],"categories":[],"categories_nodes":[],"categories_segments":[],"categories_sizes":[],"default_left":[0,0,0,0,0,0,0,0,0,0,0,0,0,0,0],"id":18,"left_children":[1,3,5,7,9,11,13,-1,-1,-1,-1,-1,-1,-1,-1],"loss_changes":[1.0911316E1,7.231635E0,7.646118E0,8.500355E0,9.825743E0,3.5591812E0,7.7494507E0,0E0,0E0,0E0,0E0,0E0,0E0,0E0,0E0],"parents":[2147483647,0,0,1,1,2,2,3,3,4,4,5,5,6,6],"right_children":[2,4,6,8,10,12,14,-1,-1,-1,-1,-1,-1,-1,-1],"split_conditions":[1.213E0,1.89E-1,-5.53E1,3.176E0,2.754E0,1.013E0,2.635E0,5.843566E-3,8.139885E-4,-1.738241E-3,2.2847354E-3,-1.2775661E-3,1.3178203E-2,3.7929958E-3,2.1409364E-3],"split_indices":[694,927,970,786,986,349,542,0,0,0,0,0,0,0,0],"split_type":[0,0,0,0,0,0,0,0,0,0,0,0,0,0,0],"sum_hessian":[3.6754534E3,4.1534018E2,3.2601133E3,1.3886243E2,2.7647775E2,1.2676547E1,3.2474368E3,8.1588165E1,5.727426E1,8.860271E1,1.8787505E2,1.7930979E0,1.088345E1,2.9280896E3,3.1934695E2],"tree_param":{"num_deleted":"0","num_feature":"1093","num_nodes":"15","size_leaf_vector":"1"}},{"base_weights":[3.366439E-1,4.719107E-1,3.19102E-1,5.6370175E-1,2.6837695E-1,1.05743185E-1,3.319097E-1,5.99899E-3,-1.9386747E-3,1.1010335E-3,6.015111E-3,-6.1915E-4,4.885059E-3,3.399004E-3,-1.1283595E-4],"categories":[],"categories_nodes":[],"categories_segments":[],"categories_sizes":[],"default_left":[0,0,0,0,0,0,0,0,0,0,0,0,0,0,0],"id":19,"left_children":[1,3,5,7,9,11,13,-1,-1,-1,-1,-1,-1,-1,-1],"loss_changes":[8.570282E0,7.692093E0,8.863647E0,8.025551E0,6.9145126E0,1.1958784E1,8.427307E0,0E0,0E0,0E0,0E0,0E0,0E0,0E0,0E0],"parents":[2147483647,0,0,1,1,2,2,3,3,4,4,5,5,6,6],"right_children":[2,4,6,8,10,12,14,-1,-1,-1,-1,-1,-1,-1,-1],"split_conditions":[1.213E0,5.762E0,1.383E0,8E0,2.54E-1,6E0,5.571E0,5.99899E-3,-1.9386747E-3,1.1010335E-3,6.015111E-3,-6.1915E-4,4.885059E-3,3.399004E-3,-1.1283595E-4],"split_indices":[694,978,894,460,141,486,589,0,0,0,0,0,0,0,0],"split_type":[0,0,0,0,0,0,0,0,0,0,0,0,0,0,0],"sum_hessian":[3.6742993E3,4.1882343E2,3.255476E3,2.8742773E2,1.3139569E2,1.8488008E2,3.070596E3,2.745191E2,1.2908613E1,8.997748E1,4.1418213E1,1.2914853E2,5.5731552E1,3.0007378E3,6.985801E1],"tree_param":{"num_deleted":"0","num_feature":"1093","num_nodes":"15","size_leaf_vector":"1"}},{"base_weights":[-7.0617574E-1,-7.067024E-1,-1.3551828E-1,-7.072269E-1,-1.8803954E-1,-5.0760084E-3,4.323166E-3,-7.074983E-3,1.7591492E-4,4.33887E-3,-5.3524827E-3],"categories":[],"categories_nodes":[],"categories_segments":[],"categories_sizes":[],"default_left":[0,0,0,0,0,0,0,0,0,0,0],"id":20,"left_children":[1,3,5,7,9,-1,-1,-1,-1,-1,-1],"loss_changes":[9.737549E-1,8.338623E-1,1.1740571E0,7.1118164E-1,1.3017273E0,0E0,0E0,0E0,0E0,0E0,0E0],"parents":[2147483647,0,0,1,1,2,2,3,3,4,4],"right_children":[2,4,6,8,10,-1,-1,-1,-1,-1,-1],"split_conditions":[2.4E1,8E0,2.01E1,3.98E1,1.85E1,-5.0760084E-3,4.323166E-3,-7.074983E-3,1.7591492E-4,4.33887E-3,-5.3524827E-3],"split_indices":[463,998,74,64,75,0,0,0,0,0,0],"split_type":[0,0,0,0,0,0,0,0,0,0,0],"sum_hessian":[3.5572356E3,3.5537173E3,3.5182047E0,3.5497646E3,3.9527574E0,2.189547E0,1.3286576E0,3.5484592E3,1.3051996E0,1.326702E0,2.6260555E0],"tree_param":{"num_deleted":"0","num_feature":"1093","num_nodes":"11","size_leaf_vector":"1"}},{"base_weights":[3.4380198E-1,1.9194023E-1,3.630691E-1,6.788603E-1,1.559627E-1,1.1089045E0,3.5981137E-1,-4.9488405E-3,1.00223655E-2,-8.957283E-4,2.4089194E-3,-1.288769E-3,1.305949E-2,3.75857E-3,2.1190073E-3],"categories":[],"categories_nodes":[],"categories_segments":[],"categories_sizes":[],"default_left":[0,0,0,0,0,0,0,0,0,0,0,0,0,0,0],"id":21,"left_children":[1,3,5,7,9,11,13,-1,-1,-1,-1,-1,-1,-1,-1],"loss_changes":[1.0704895E1,7.194318E0,7.5381775E0,1.1265614E1,8.140695E0,3.5161076E0,7.643097E0,0E0,0E0,0E0,0E0,0E0,0E0,0E0,0E0],"parents":[2147483647,0,0,1,1,2,2,3,3,4,4,5,5,6,6],"right_children":[2,4,6,8,10,12,14,-1,-1,-1,-1,-1,-1,-1,-1],"split_conditions":[1.213E0,6.79E-1,-5.53E1,4.38E-1,3.104E0,5E0,2.635E0,-4.9488405E-3,1.00223655E-2,-8.957283E-4,2.4089194E-3,-1.288769E-3,1.305949E-2,3.75857E-3,2.1190073E-3],"split_indices":[694,935,970,531,987,90,542,0,0,0,0,0,0,0,0],"split_type":[0,0,0,0,0,0,0,0,0,0,0,0,0,0,0],"sum_hessian":[3.6814365E3,4.1572116E2,3.2657153E3,2.7373878E1,3.883473E2,1.2726225E1,3.2529893E3,5.7981677E0,2.157571E1,9.979097E1,2.8855634E2,1.7952013E0,1.0931024E1,2.9332444E3,3.1974487E2],"tree_param":{"num_deleted":"0","num_feature":"1093","num_nodes":"15","size_leaf_vector":"1"}},{"base_weights":[3.3362624E-1,4.67317E-1,3.1627646E-1,5.582015E-1,2.6559943E-1,1.8566343E-1,3.3699384E-1,5.940565E-3,-1.9399013E-3,1.8790558E-3,9.511162E-3,1.037982E-3,4.160233E-3,3.499765E-3,1.2229044E-3],"categories":[],"categories_nodes":[],"categories_segments":[],"categories_sizes":[],"default_left":[0,0,0,0,0,0,0,0,0,0,0,0,0,0,0],"id":22,"left_children":[1,3,5,7,9,11,13,-1,-1,-1,-1,-1,-1,-1,-1],"loss_changes":[8.390533E0,7.5653152E0,8.762543E0,7.913643E0,6.8833723E0,8.418832E0,7.8000183E0,0E0,0E0,0E0,0E0,0E0,0E0,0E0,0E0],"parents":[2147483647,0,0,1,1,2,2,3,3,4,4,5,5,6,6],"right_children":[2,4,6,8,10,12,14,-1,-1,-1,-1,-1,-1,-1,-1],"split_conditions":[1.213E0,5.762E0,1.631E0,8E0,1.0625E2,1.5E0,1.597E0,5.940565E-3,-1.9399013E-3,1.8790558E-3,9.511162E-3,1.037982E-3,4.160233E-3,3.499765E-3,1.2229044E-3],"split_indices":[694,978,894,460,1061,542,647,0,0,0,0,0,0,0,0],"split_type":[0,0,0,0,0,0,0,0,0,0,0,0,0,0,0],"sum_hessian":[3.6801042E3,4.1974835E2,3.260356E3,2.881529E2,1.3159547E2,4.477117E2,2.8126443E3,2.75243E2,1.2909877E1,1.19343636E2,1.2251845E1,3.313922E2,1.1631949E2,2.651673E3,1.6097112E2],"tree_param":{"num_deleted":"0","num_feature":"1093","num_nodes":"15","size_leaf_vector":"1"}},{"base_weights":[-7.036256E-1,-7.0415294E-1,-1.3380189E-1,-7.046781E-1,-1.8604626E-1,4.3296716E-3,-5.0610737E-3,-7.049506E-3,2.0410873E-4,-5.334714E-3,4.3446133E-3],"categories":[],"categories_nodes":[],"categories_segments":[],"categories_sizes":[],"default_left":[0,0,0,0,0,0,0,0,0,0,0],"id":23,"left_children":[1,3,5,7,9,-1,-1,-1,-1,-1,-1],"loss_changes":[9.7094727E-1,8.3251953E-1,1.1712298E0,7.1325684E-1,1.2977427E0,0E0,0E0,0E0,0E0,0E0,0E0],"parents":[2147483647,0,0,1,1,2,2,3,3,4,4],"right_children":[2,4,6,8,10,-1,-1,-1,-1,-1,-1],"split_conditions":[2.4E1,8E0,8.4E1,3.685E0,3.7E-1,4.3296716E-3,-5.0610737E-3,-7.049506E-3,2.0410873E-4,-5.334714E-3,4.3446133E-3],"split_indices":[463,998,58,400,62,0,0,0,0,0,0],"split_type":[0,0,0,0,0,0,0,0,0,0,0],"sum_hessian":[3.5437007E3,3.5401887E3,3.512092E0,3.536244E3,3.944662E0,1.3278067E0,2.1842854E0,3.5349434E3,1.3005533E0,2.6187036E0,1.3259584E0],"tree_param":{"num_deleted":"0","num_feature":"1093","num_nodes":"11","size_leaf_vector":"1"}},{"base_weights":[3.407157E-1,1.9034982E-1,3.5977808E-1,6.7356956E-1,1.545925E-1,1.0990162E0,3.565436E-1,-4.935357E-3,9.9365385E-3,-8.945943E-4,2.389102E-3,-1.2927961E-3,1.293963E-2,3.7239506E-3,2.0752468E-3],"categories":[],"categories_nodes":[],"categories_segments":[],"categories_sizes":[],"default_left":[0,0,0,0,0,0,0,0,0,0,0,0,0,0,0],"id":24,"left_children":[1,3,5,7,9,11,13,-1,-1,-1,-1,-1,-1,-1,-1],"loss_changes":[1.0503479E1,7.1027374E0,7.43219E0,1.1114764E1,8.039691E0,3.4656944E0,7.6221313E0,0E0,0E0,0E0,0E0,0E0,0E0,0E0,0E0],"parents":[2147483647,0,0,1,1,2,2,3,3,4,4,5,5,6,6],"right_children":[2,4,6,8,10,12,14,-1,-1,-1,-1,-1,-1,-1,-1],"split_conditions":[1.213E0,6.79E-1,-5.53E1,4.38E-1,3.104E0,1.013E0,2.561E0,-4.935357E-3,9.9365385E-3,-8.945943E-4,2.389102E-3,-1.2927961E-3,1.293963E-2,3.7239506E-3,2.0752468E-3],"split_indices":[694,935,970,531,987,349,1034,0,0,0,0,0,0,0,0],"split_type":[0,0,0,0,0,0,0,0,0,0,0,0,0,0,0],"sum_hessian":[3.6873218E3,4.1609674E2,3.271225E3,2.7439926E1,3.886568E2,1.277481E1,3.2584504E3,5.7892E0,2.1650726E1,9.978239E1,2.8887442E2,1.7959523E0,1.0978858E1,2.9438113E3,3.1463904E2],"tree_param":{"num_deleted":"0","num_feature":"1093","num_nodes":"15","size_leaf_vector":"1"}},{"base_weights":[3.3065066E-1,4.627947E-1,3.1348988E-1,5.527868E-1,2.628698E-1,1.0275629E-1,3.261251E-1,5.8831214E-3,-1.9417636E-3,1.0602606E-3,5.925464E-3,-6.3798664E-4,4.824174E-3,3.7201482E-3,2.6652687E-3],"categories":[],"categories_nodes":[],"categories_segments":[],"categories_sizes":[],"default_left":[0,0,0,0,0,0,0,0,0,0,0,0,0,0,0],"id":25,"left_children":[1,3,5,7,9,11,13,-1,-1,-1,-1,-1,-1,-1,-1],"loss_changes":[8.215454E0,7.4409637E0,8.6631775E0,7.8060913E0,6.8034954E0,1.1806008E1,8.327057E0,0E0,0E0,0E0,0E0,0E0,0E0,0E0,0E0],"parents":[2147483647,0,0,1,1,2,2,3,3,4,4,5,5,6,6],"right_children":[2,4,6,8,10,12,14,-1,-1,-1,-1,-1,-1,-1,-1],"split_conditions":[1.213E0,5.762E0,1.383E0,8E0,2.54E-1,6E0,4E0,5.8831214E-3,-1.9417636E-3,1.0602606E-3,5.925464E-3,-6.3798664E-4,4.824174E-3,3.7201482E-3,2.6652687E-3],"split_indices":[694,978,894,460,141,486,507,0,0,0,0,0,0,0,0],"split_type":[0,0,0,0,0,0,0,0,0,0,0,0,0,0,0],"sum_hessian":[3.685813E3,4.2065457E2,3.2651584E3,2.8886353E2,1.3179102E2,1.8521547E2,3.0799429E3,2.7595175E2,1.2911797E1,9.019997E1,4.1591053E1,1.2931691E2,5.589856E1,1.7371337E3,1.3428092E3],"tree_param":{"num_deleted":"0","num_feature":"1093","num_nodes":"15","size_leaf_vector":"1"}},{"base_weights":[-7.011127E-1,-7.016408E-1,-1.3211064E-1,-7.021666E-1,-1.8422358E-1,-5.0466442E-3,4.3367757E-3,2.2978052E-4,-7.0244E-3,-5.3178263E-3,4.3475586E-3],"categories":[],"categories_nodes":[],"categories_segments":[],"categories_sizes":[],"default_left":[0,0,0,0,0,0,0,0,0,0,0],"id":26,"left_children":[1,3,5,7,9,-1,-1,-1,-1,-1,-1],"loss_changes":[9.683838E-1,8.3044434E-1,1.168672E0,7.1484375E-1,1.2933447E0,0E0,0E0,0E0,0E0,0E0,0E0],"parents":[2147483647,0,0,1,1,2,2,3,3,4,4],"right_children":[2,4,6,8,10,-1,-1,-1,-1,-1,-1],"split_conditions":[2.4E1,8E0,3.65E-1,5E0,2E1,-5.0466442E-3,4.3367757E-3,2.2978052E-4,-7.0244E-3,-5.3178263E-3,4.3475586E-3],"split_indices":[463,998,10,240,90,0,0,0,0,0,0],"split_type":[0,0,0,0,0,0,0,0,0,0,0],"sum_hessian":[3.5301245E3,3.5266184E3,3.5060291E0,3.5226812E3,3.9371998E0,2.1791563E0,1.3268731E0,1.2962937E0,3.5213848E3,2.6116319E0,1.325568E0],"tree_param":{"num_deleted":"0","num_feature":"1093","num_nodes":"11","size_leaf_vector":"1"}},{"base_weights":[3.3767137E-1,1.8878612E-1,3.565314E-1,3.7140074E-1,9.5896706E-2,3.721992E-1,2.1206407E-1,5.74598E-3,7.6604076E-4,-1.7359155E-3,2.2280659E-3,5.094665E-3,3.498566E-3,4.967486E-3,1.2619436E-3],"categories":[],"categories_nodes":[],"categories_segments":[],"categories_sizes":[],"default_left":[0,0,0,0,0,0,0,0,0,0,0,0,0,0,0],"id":27,"left_children":[1,3,5,7,9,11,13,-1,-1,-1,-1,-1,-1,-1,-1],"loss_changes":[1.0305664E1,7.045809E0,7.3399963E0,8.366489E0,9.548498E0,8.886414E0,7.8336153E0,0E0,0E0,0E0,0E0,0E0,0E0,0E0,0E0],"parents":[2147483647,0,0,1,1,2,2,3,3,4,4,5,5,6,6],"right_children":[2,4,6,8,10,12,14,-1,-1,-1,-1,-1,-1,-1,-1],"split_conditions":[1.213E0,1.89E-1,2.635E0,3.176E0,2.754E0,1.631E0,8.8E-2,5.74598E-3,7.6604076E-4,-1.7359155E-3,2.2280659E-3,5.094665E-3,3.498566E-3,4.967486E-3,1.2619436E-3],"split_indices":[694,927,542,786,986,894,785,0,0,0,0,0,0,0,0],"split_type":[0,0,0,0,0,0,0,0,0,0,0,0,0,0,0],"sum_hessian":[3.6931091E3,4.1646378E2,3.2766453E3,1.3940472E2,2.7705905E2,2.9546323E3,3.220129E2,8.1961334E1,5.7443394E1,8.85848E1,1.8847424E2,4.105447E2,2.5440876E3,7.351225E1,2.4850066E2],"tree_param":{"num_deleted":"0","num_feature":"1093","num_nodes":"15","size_leaf_vector":"1"}},{"base_weights":[3.2771495E-1,4.5833093E-1,3.1074128E-1,5.474544E-1,2.6015732E-1,1.8172549E-1,3.311902E-1,5.8265654E-3,-1.9435233E-3,1.8314299E-3,9.385376E-3,1.006049E-3,4.0973052E-3,3.4405678E-3,1.18279E-3],"categories":[],"categories_nodes":[],"categories_segments":[],"categories_sizes":[],"default_left":[0,0,0,0,0,0,0,0,0,0,0,0,0,0,0],"id":28,"left_children":[1,3,5,7,9,11,13,-1,-1,-1,-1,-1,-1,-1,-1],"loss_changes":[8.043793E0,7.3205185E0,8.569153E0,7.700691E0,6.775898E0,8.27674E0,7.69046E0,0E0,0E0,0E0,0E0,0E0,0E0,0E0,0E0],"parents":[2147483647,0,0,1,1,2,2,3,3,4,4,5,5,6,6],"right_children":[2,4,6,8,10,12,14,-1,-1,-1,-1,-1,-1,-1,-1],"split_conditions":[1.213E0,5.762E0,1.631E0,8E0,1.0625E2,1.5E0,1.597E0,5.8265654E-3,-1.9435233E-3,1.8314299E-3,9.385376E-3,1.006049E-3,4.0973052E-3,3.4405678E-3,1.18279E-3],"split_indices":[694,978,894,460,1061,542,647,0,0,0,0,0,0,0,0],"split_type":[0,0,0,0,0,0,0,0,0,0,0,0,0,0,0],"sum_hessian":[3.691424E3,4.2154453E2,3.2698794E3,2.895599E2,1.3198463E2,4.4871906E2,2.8211604E3,2.766463E2,1.291359E1,1.1966897E2,1.2315663E1,3.3202948E2,1.1668958E2,2.6598076E3,1.6135263E2],"tree_param":{"num_deleted":"0","num_feature":"1093","num_nodes":"15","size_leaf_vector":"1"}},{"base_weights":[-6.9863623E-1,-6.99165E-1,-1.3050841E-1,-6.9969153E-1,-1.82402E-1,-5.0320434E-3,4.340881E-3,-6.99966E-3,2.5910317E-4,4.3529933E-3,-5.3017456E-3],"categories":[],"categories_nodes":[],"categories_segments":[],"categories_sizes":[],"default_left":[0,0,0,0,0,0,0,0,0,0,0],"id":29,"left_children":[1,3,5,7,9,-1,-1,-1,-1,-1,-1],"loss_changes":[9.654541E-1,8.286133E-1,1.1653839E0,7.171631E-1,1.289774E0,0E0,0E0,0E0,0E0,0E0,0E0],"parents":[2147483647,0,0,1,1,2,2,3,3,4,4],"right_children":[2,4,6,8,10,-1,-1,-1,-1,-1,-1],"split_conditions":[2.4E1,8E0,3.7E1,5.52E0,1.85E1,-5.0320434E-3,4.340881E-3,-6.99966E-3,2.5910317E-4,4.3529933E-3,-5.3017456E-3],"split_indices":[463,998,1,691,75,0,0,0,0,0,0],"split_type":[0,0,0,0,0,0,0,0,0,0,0],"sum_hessian":[3.5165063E3,3.513006E3,3.5002203E0,3.5090764E3,3.9296684E0,2.1739259E0,1.3262944E0,3.507785E3,1.2914011E0,1.3248459E0,2.6048226E0],"tree_param":{"num_deleted":"0","num_feature":"1093","num_nodes":"11","size_leaf_vector":"1"}},{"base_weights":[3.3466756E-1,1.8724366E-1,3.533283E-1,6.6584533E-1,1.5177144E-1,1.0851427E0,3.5012245E-1,-4.9284897E-3,9.8211095E-3,-8.946517E-4,2.3493632E-3,-1.31663E-3,1.2780072E-2,3.6582225E-3,2.0246455E-3],"categories":[],"categories_nodes":[],"categories_segments":[],"categories_sizes":[],"default_left":[0,0,0,0,0,0,0,0,0,0,0,0,0,0,0],"id":30,"left_children":[1,3,5,7,9,11,13,-1,-1,-1,-1,-1,-1,-1,-1],"loss_changes":[1.0112091E1,6.9923697E0,7.3222046E0,1.094103E1,7.8511524E0,3.4168224E0,7.506775E0,0E0,0E0,0E0,0E0,0E0,0E0,0E0,0E0],"parents":[2147483647,0,0,1,1,2,2,3,3,4,4,5,5,6,6],"right_children":[2,4,6,8,10,12,14,-1,-1,-1,-1,-1,-1,-1,-1],"split_conditions":[1.213E0,6.79E-1,-5.53E1,4.38E-1,3.104E0,5E0,2.561E0,-4.9284897E-3,9.8211095E-3,-8.946517E-4,2.3493632E-3,-1.31663E-3,1.2780072E-2,3.6582225E-3,2.0246455E-3],"split_indices":[694,935,970,531,987,90,1034,0,0,0,0,0,0,0,0],"split_type":[0,0,0,0,0,0,0,0,0,0,0,0,0,0,0],"sum_hessian":[3.6987974E3,4.1682425E2,3.2819731E3,2.7535542E1,3.8928873E2,1.2842569E1,3.2691306E3,5.7845383E0,2.1751001E1,9.9780205E1,2.895085E2,1.8004763E0,1.1042093E1,2.9536086E3,3.155219E2],"tree_param":{"num_deleted":"0","num_feature":"1093","num_nodes":"15","size_leaf_vector":"1"}},{"base_weights":[3.2481897E-1,4.5393705E-1,3.0802917E-1,5.421965E-1,2.575089E-1,1.00175954E-1,3.2047477E-1,5.7707536E-3,-1.9444356E-3,1.0206166E-3,5.8382633E-3,-6.531827E-4,4.7683814E-3,3.283667E-3,-1.8748568E-4],"categories":[],"categories_nodes":[],"categories_segments":[],"categories_sizes":[],"default_left":[0,0,0,0,0,0,0,0,0,0,0,0,0,0,0],"id":31,"left_children":[1,3,5,7,9,11,13,-1,-1,-1,-1,-1,-1,-1,-1],"loss_changes":[7.8768005E0,7.2009964E0,8.441223E0,7.5951614E0,6.6956244E0,1.1656888E1,8.278534E0,0E0,0E0,0E0,0E0,0E0,0E0,0E0,0E0],"parents":[2147483647,0,0,1,1,2,2,3,3,4,4,5,5,6,6],"right_children":[2,4,6,8,10,12,14,-1,-1,-1,-1,-1,-1,-1,-1],"split_conditions":[1.213E0,5.762E0,1.383E0,8E0,2.54E-1,6E0,5.571E0,5.7707536E-3,-1.9444356E-3,1.0206166E-3,5.8382633E-3,-6.531827E-4,4.7683814E-3,3.283667E-3,-1.8748568E-4],"split_indices":[694,978,894,460,141,486,589,0,0,0,0,0,0,0,0],"split_type":[0,0,0,0,0,0,0,0,0,0,0,0,0,0,0],"sum_hessian":[3.6969417E3,4.2241583E2,3.274526E3,2.90243E2,1.321728E2,1.85503E2,3.089023E3,2.7732852E2,1.29144945E1,9.041483E1,4.1757973E1,1.2945215E2,5.6050858E1,3.018823E3,7.019998E1],"tree_param":{"num_deleted":"0","num_feature":"1093","num_nodes":"15","size_leaf_vector":"1"}},{"base_weights":[-6.9619507E-1,-6.9672453E-1,-1.2888184E-1,-6.972519E-1,-1.8051536E-1,-5.017549E-3,4.34581E-3,-6.9752727E-3,2.8391002E-4,-5.28604E-3,4.3615825E-3],"categories":[],"categories_nodes":[],"categories_segments":[],"categories_sizes":[],"default_left":[0,0,0,0,0,0,0,0,0,0,0],"id":32,"left_children":[1,3,5,7,9,-1,-1,-1,-1,-1,-1],"loss_changes":[9.6276855E-1,8.2714844E-1,1.1623063E0,7.183838E-1,1.2870585E0,0E0,0E0,0E0,0E0,0E0,0E0],"parents":[2147483647,0,0,1,1,2,2,3,3,4,4],"right_children":[2,4,6,8,10,-1,-1,-1,-1,-1,-1],"split_conditions":[2.4E1,8E0,5.15E-1,1.6E1,4.55E-1,-5.017549E-3,4.34581E-3,-6.9752727E-3,2.8391002E-4,-5.28604E-3,4.3615825E-3],"split_indices":[463,998,113,750,59,0,0,0,0,0,0],"split_type":[0,0,0,0,0,0,0,0,0,0,0],"sum_hessian":[3.5028513E3,3.4993572E3,3.4943008E0,3.4954353E3,3.9218206E0,2.168684E0,1.3256168E0,3.494148E3,1.287225E0,2.5981045E0,1.3237164E0],"tree_param":{"num_deleted":"0","num_feature":"1093","num_nodes":"11","size_leaf_vector":"1"}},{"base_weights":[3.3170453E-1,1.8572597E-1,3.5016838E-1,3.66287E-1,9.376472E-2,1.0758133E0,3.4698468E-1,5.6760865E-3,7.381284E-4,-1.7317849E-3,2.1918947E-3,-1.3256313E-3,1.2669646E-2,1.7765383E-3,3.605385E-3],"categories":[],"categories_nodes":[],"categories_segments":[],"categories_sizes":[],"default_left":[0,0,0,0,0,0,0,0,0,0,0,0,0,0,0],"id":33,"left_children":[1,3,5,7,9,11,13,-1,-1,-1,-1,-1,-1,-1,-1],"loss_changes":[9.922211E0,6.909322E0,7.223297E0,8.246696E0,9.359461E0,3.3757534E0,7.4530334E0,0E0,0E0,0E0,0E0,0E0,0E0,0E0,0E0],"parents":[2147483647,0,0,1,1,2,2,3,3,4,4,5,5,6,6],"right_children":[2,4,6,8,10,12,14,-1,-1,-1,-1,-1,-1,-1,-1],"split_conditions":[1.213E0,1.89E-1,-5.53E1,3.176E0,2.754E0,1.013E0,3.3E-2,5.6760865E-3,7.381284E-4,-1.7317849E-3,2.1918947E-3,-1.3256313E-3,1.2669646E-2,1.7765383E-3,3.605385E-3],"split_indices":[694,927,970,786,986,349,182,0,0,0,0,0,0,0,0],"split_type":[0,0,0,0,0,0,0,0,0,0,0,0,0,0,0],"sum_hessian":[3.7043923E3,4.1717694E2,3.2872153E3,1.3976761E2,2.7740933E2,1.2887617E1,3.2743276E3,8.222686E1,5.7540745E1,8.8555244E1,1.888541E2,1.8020891E0,1.1085527E1,2.4371027E2,3.0306174E3],"tree_param":{"num_deleted":"0","num_feature":"1093","num_nodes":"15","size_leaf_vector":"1"}},{"base_weights":[3.2196084E-1,3.165363E-1,7.200872E-1,3.6355323E-1,2.690355E-1,-5.9867827E-3,8.384508E-1,-4.8722997E-3,3.6972784E-3,2.7855267E-3,-2.2622186E-3,1.017299E-2,1.0823061E-3],"categories":[],"categories_nodes":[],"categories_segments":[],"categories_sizes":[],"default_left":[0,0,0,0,0,0,0,0,0,0,0,0,0],"id":34,"left_children":[1,3,5,7,9,-1,11,-1,-1,-1,-1,-1,-1],"loss_changes":[7.7700195E0,8.065918E0,8.149958E0,9.815659E0,8.651764E0,0E0,5.816107E0,0E0,0E0,0E0,0E0,0E0,0E0],"parents":[2147483647,0,0,1,1,2,2,3,3,4,4,6,6],"right_children":[2,4,6,8,10,-1,12,-1,-1,-1,-1,-1,-1],"split_conditions":[1.037E1,1.6E1,5E0,6.7E-2,6E0,-5.9867827E-3,1.57E1,-4.8722997E-3,3.6972784E-3,2.7855267E-3,-2.2622186E-3,1.017299E-2,1.0823061E-3],"split_indices":[890,84,87,948,1058,0,730,0,0,0,0,0,0],"split_type":[0,0,0,0,0,0,0,0,0,0,0,0,0],"sum_hessian":[3.7023687E3,3.6543723E3,4.7996124E1,1.833197E3,1.8211754E3,3.6187985E0,4.4377323E1,1.2647353E1,1.8205497E3,1.7872676E3,3.3907772E1,3.533083E1,9.046495E0],"tree_param":{"num_deleted":"0","num_feature":"1093","num_nodes":"13","size_leaf_vector":"1"}},{"base_weights":[-6.937889E-1,-6.943192E-1,-1.2729934E-1,-6.948474E-1,-1.7865562E-1,4.350853E-3,-5.0035436E-3,-6.9512366E-3,3.0790333E-4,-5.270626E-3,4.3701367E-3],"categories":[],"categories_nodes":[],"categories_segments":[],"categories_sizes":[],"default_left":[0,0,0,0,0,0,0,0,0,0,0],"id":35,"left_children":[1,3,5,7,9,-1,-1,-1,-1,-1,-1],"loss_changes":[9.5996094E-1,8.255615E-1,1.1593813E0,7.1984863E-1,1.2844102E0,0E0,0E0,0E0,0E0,0E0,0E0],"parents":[2147483647,0,0,1,1,2,2,3,3,4,4],"right_children":[2,4,6,8,10,-1,-1,-1,-1,-1,-1],"split_conditions":[2.4E1,8E0,5E0,3.98E1,1.4E1,4.350853E-3,-5.0035436E-3,-6.9512366E-3,3.0790333E-4,-5.270626E-3,4.3701367E-3],"split_indices":[463,998,34,64,2,0,0,0,0,0,0],"split_type":[0,0,0,0,0,0,0,0,0,0,0],"sum_hessian":[3.4891611E3,3.4856726E3,3.4884777E0,3.4817585E3,3.914031E0,1.3248997E0,2.163578E0,3.4804753E3,1.2831671E0,2.59145E0,1.3225812E0],"tree_param":{"num_deleted":"0","num_feature":"1093","num_nodes":"11","size_leaf_vector":"1"}},{"base_weights":[3.2878166E-1,1.8386923E-1,3.4710175E-1,6.578343E-1,1.4868735E-1,3.625839E-1,2.042958E-1,-4.9255723E-3,9.70493E-3,-8.986878E-4,2.3076686E-3,4.974432E-3,3.4061607E-3,4.8601693E-3,1.1925875E-3],"categories":[],"categories_nodes":[],"categories_segments":[],"categories_sizes":[],"default_left":[0,0,0,0,0,0,0,0,0,0,0,0,0,0,0],"id":36,"left_children":[1,3,5,7,9,11,13,-1,-1,-1,-1,-1,-1,-1,-1],"loss_changes":[9.787933E0,6.8825417E0,7.207184E0,1.0777074E1,7.67632E0,8.629028E0,7.713769E0,0E0,0E0,0E0,0E0,0E0,0E0,0E0,0E0],"parents":[2147483647,0,0,1,1,2,2,3,3,4,4,5,5,6,6],"right_children":[2,4,6,8,10,12,14,-1,-1,-1,-1,-1,-1,-1,-1],"split_conditions":[1.213E0,6.79E-1,2.635E0,4.38E-1,3.104E0,1.631E0,8.8E-2,-4.9255723E-3,9.70493E-3,-8.986878E-4,2.3076686E-3,4.974432E-3,3.4061607E-3,4.8601693E-3,1.1925875E-3],"split_indices":[694,935,542,531,987,894,785,0,0,0,0,0,0,0,0],"split_type":[0,0,0,0,0,0,0,0,0,0,0,0,0,0,0],"sum_hessian":[3.7099014E3,4.176124E2,3.2922888E3,2.7633936E1,3.8997845E2,2.9688818E3,3.2340707E2,5.7825027E0,2.1851433E1,9.980628E1,2.9017218E2,4.128394E2,2.5560425E3,7.389229E1,2.495148E2],"tree_param":{"num_deleted":"0","num_feature":"1093","num_nodes":"15","size_leaf_vector":"1"}},{"base_weights":[3.191361E-1,3.1375048E-1,7.1397215E-1,3.6041558E-1,2.6659212E-1,-5.9753386E-3,8.3123964E-1,-4.8599797E-3,3.6654237E-3,2.7604087E-3,-2.2585855E-3,1.0081278E-2,1.0709142E-3],"categories":[],"categories_nodes":[],"categories_segments":[],"categories_sizes":[],"default_left":[0,0,0,0,0,0,0,0,0,0,0,0,0],"id":37,"left_children":[1,3,5,7,9,-1,11,-1,-1,-1,-1,-1,-1],"loss_changes":[7.6624146E0,7.959656E0,8.051689E0,9.704926E0,8.551956E0,0E0,5.721506E0,0E0,0E0,0E0,0E0,0E0,0E0],"parents":[2147483647,0,0,1,1,2,2,3,3,4,4,6,6],"right_children":[2,4,6,8,10,-1,12,-1,-1,-1,-1,-1,-1],"split_conditions":[1.037E1,1.6E1,5E0,6.7E-2,6E0,-5.9753386E-3,1.57E1,-4.8599797E-3,3.6654237E-3,2.7604087E-3,-2.2585855E-3,1.0081278E-2,1.0709142E-3],"split_indices":[890,84,87,948,1058,0,730,0,0,0,0,0,0],"split_type":[0,0,0,0,0,0,0,0,0,0,0,0,0],"sum_hessian":[3.7077356E3,3.6596125E3,4.812314E1,1.8360879E3,1.8235247E3,3.6135993E0,4.450954E1,1.2632204E1,1.8234557E3,1.7896261E3,3.3898525E1,3.5456417E1,9.053121E0],"tree_param":{"num_deleted":"0","num_feature":"1093","num_nodes":"13","size_leaf_vector":"1"}},{"base_weights":[-6.9141614E-1,-6.919472E-1,-1.2572676E-1,-6.924762E-1,-1.7694482E-1,-4.987434E-3,4.349406E-3,-6.9275354E-3,3.36264E-4,-5.2561704E-3,4.377027E-3],"categories":[],"categories_nodes":[],"categories_segments":[],"categories_sizes":[],"default_left":[0,0,0,0,0,0,0,0,0,0,0],"id":38,"left_children":[1,3,5,7,9,-1,-1,-1,-1,-1,-1],"loss_changes":[9.5739746E-1,8.2373047E-1,1.1544253E0,7.219238E-1,1.2816417E0,0E0,0E0,0E0,0E0,0E0,0E0],"parents":[2147483647,0,0,1,1,2,2,3,3,4,4],"right_children":[2,4,6,8,10,-1,-1,-1,-1,-1,-1],"split_conditions":[2.4E1,8E0,3.65E-1,3.685E0,3E1,-4.987434E-3,4.349406E-3,-6.9275354E-3,3.36264E-4,-5.2561704E-3,4.377027E-3],"split_indices":[463,998,10,745,0,0,0,0,0,0,0],"split_type":[0,0,0,0,0,0,0,0,0,0,0],"sum_hessian":[3.475442E3,3.4719592E3,3.4826877E0,3.4680522E3,3.9067936E0,2.1576393E0,1.3250483E0,3.466774E3,1.2783402E0,2.5851555E0,1.3216381E0],"tree_param":{"num_deleted":"0","num_feature":"1093","num_nodes":"11","size_leaf_vector":"1"}},{"base_weights":[3.2589728E-1,1.8203509E-1,3.4407595E-1,9.435709E-2,3.6824268E-1,1.0623053E0,3.4092098E-1,1.9805871E-3,-1.4242947E-3,4.795636E-3,-1.5189591E-3,-1.3445474E-3,1.2512786E-2,3.5645005E-3,1.9481714E-3],"categories":[],"categories_nodes":[],"categories_segments":[],"categories_sizes":[],"default_left":[0,0,0,0,0,0,0,0,0,0,0,0,0,0,0],"id":39,"left_children":[1,3,5,7,9,11,13,-1,-1,-1,-1,-1,-1,-1,-1],"loss_changes":[9.656311E0,6.8066416E0,7.111725E0,7.0568576E0,7.820259E0,3.323657E0,7.3844604E0,0E0,0E0,0E0,0E0,0E0,0E0,0E0,0E0],"parents":[2147483647,0,0,1,1,2,2,3,3,4,4,5,5,6,6],"right_children":[2,4,6,8,10,12,14,-1,-1,-1,-1,-1,-1,-1,-1],"split_conditions":[1.213E0,5.762E0,-5.53E1,2.12E-1,2.88E-1,5E0,2.561E0,1.9805871E-3,-1.4242947E-3,4.795636E-3,-1.5189591E-3,-1.3445474E-3,1.2512786E-2,3.5645005E-3,1.9481714E-3],"split_indices":[694,978,970,768,141,90,1034,0,0,0,0,0,0,0,0],"split_type":[0,0,0,0,0,0,0,0,0,0,0,0,0,0,0],"sum_hessian":[3.715315E3,4.1804074E2,3.2972742E3,2.8523923E2,1.3280148E2,1.2952423E1,3.2843218E3,1.984784E2,8.676085E1,1.0945397E2,2.334751E1,1.8056719E0,1.1146751E1,2.9674756E3,3.168463E2],"tree_param":{"num_deleted":"0","num_feature":"1093","num_nodes":"15","size_leaf_vector":"1"}},{"base_weights":[3.163488E-1,4.4260836E-1,2.999142E-1,5.29603E-1,2.4886242E-1,9.445487E-2,3.122079E-1,5.6404686E-3,-1.9889968E-3,1.7281579E-3,9.181855E-3,-6.963502E-4,4.6744156E-3,3.2001664E-3,-2.3728686E-4],"categories":[],"categories_nodes":[],"categories_segments":[],"categories_sizes":[],"default_left":[0,0,0,0,0,0,0,0,0,0,0,0,0,0,0],"id":40,"left_children":[1,3,5,7,9,11,13,-1,-1,-1,-1,-1,-1,-1,-1],"loss_changes":[7.573883E0,7.042534E0,8.278961E0,7.460945E0,6.651001E0,1.1486209E1,8.148102E0,0E0,0E0,0E0,0E0,0E0,0E0,0E0,0E0],"parents":[2147483647,0,0,1,1,2,2,3,3,4,4,5,5,6,6],"right_children":[2,4,6,8,10,12,14,-1,-1,-1,-1,-1,-1,-1,-1],"split_conditions":[1.213E0,5.762E0,1.383E0,8E0,1.0625E2,6E0,5.571E0,5.6404686E-3,-1.9889968E-3,1.7281579E-3,9.181855E-3,-6.963502E-4,4.6744156E-3,3.2001664E-3,-2.3728686E-4],"split_indices":[694,978,894,460,1061,486,589,0,0,0,0,0,0,0,0],"split_type":[0,0,0,0,0,0,0,0,0,0,0,0,0,0,0],"sum_hessian":[3.7130115E3,4.246534E2,3.2883582E3,2.9186737E2,1.3278603E2,1.8614105E2,3.102217E3,2.7890634E2,1.2961046E1,1.2036831E2,1.241772E1,1.2983528E2,5.630577E1,3.0317913E3,7.042585E1],"tree_param":{"num_deleted":"0","num_feature":"1093","num_nodes":"15","size_leaf_vector":"1"}},{"base_weights":[-6.890765E-1,-6.896084E-1,-1.2419183E-1,-6.9013816E-1,-1.752425E-1,4.3554995E-3,-4.974385E-3,-6.904165E-3,3.622594E-4,-5.2417517E-3,4.383585E-3],"categories":[],"categories_nodes":[],"categories_segments":[],"categories_sizes":[],"default_left":[0,0,0,0,0,0,0,0,0,0,0],"id":41,"left_children":[1,3,5,7,9,-1,-1,-1,-1,-1,-1],"loss_changes":[9.54834E-1,8.215332E-1,1.1519995E0,7.237549E-1,1.2787985E0,0E0,0E0,0E0,0E0,0E0,0E0],"parents":[2147483647,0,0,1,1,2,2,3,3,4,4],"right_children":[2,4,6,8,10,-1,-1,-1,-1,-1,-1],"split_conditions":[2.4E1,8E0,8.4E1,2.97E-1,3.7E-1,4.3554995E-3,-4.974385E-3,-6.904165E-3,3.622594E-4,-5.2417517E-3,4.383585E-3],"split_indices":[463,998,58,431,62,0,0,0,0,0,0],"split_type":[0,0,0,0,0,0,0,0,0,0,0],"sum_hessian":[3.4616926E3,3.4582156E3,3.4769878E0,3.4543162E3,3.8995583E0,1.324208E0,2.15278E0,3.4530422E3,1.2738692E0,2.5788176E0,1.3207407E0],"tree_param":{"num_deleted":"0","num_feature":"1093","num_nodes":"11","size_leaf_vector":"1"}},{"base_weights":[3.2304877E-1,1.80584E-1,3.4103793E-1,6.505104E-1,1.4565949E-1,3.5637358E-1,1.9953048E-1,-4.9219416E-3,9.598454E-3,-9.0961665E-4,2.2697363E-3,4.896359E-3,3.3465468E-3,4.787652E-3,1.1517142E-3],"categories":[],"categories_nodes":[],"categories_segments":[],"categories_sizes":[],"default_left":[0,0,0,0,0,0,0,0,0,0,0,0,0,0,0],"id":42,"left_children":[1,3,5,7,9,11,13,-1,-1,-1,-1,-1,-1,-1,-1],"loss_changes":[9.476288E0,6.7879915E0,7.097351E0,1.0625357E1,7.5562677E0,8.458282E0,7.6065617E0,0E0,0E0,0E0,0E0,0E0,0E0,0E0,0E0],"parents":[2147483647,0,0,1,1,2,2,3,3,4,4,5,5,6,6],"right_children":[2,4,6,8,10,12,14,-1,-1,-1,-1,-1,-1,-1,-1],"split_conditions":[1.213E0,6.79E-1,2.635E0,4.38E-1,3.104E0,1.631E0,8.8E-2,-4.9219416E-3,9.598454E-3,-9.0961665E-4,2.2697363E-3,4.896359E-3,3.3465468E-3,4.787652E-3,1.1517142E-3],"split_indices":[694,935,542,531,987,894,785,0,0,0,0,0,0,0,0],"split_type":[0,0,0,0,0,0,0,0,0,0,0,0,0,0,0],"sum_hessian":[3.7206384E3,4.1837408E2,3.3022644E3,2.7722885E1,3.9065118E2,2.9780093E3,3.2425507E2,5.7800093E0,2.1942877E1,9.9881386E1,2.907698E2,4.1431552E2,2.5636938E3,7.414715E1,2.5010791E2],"tree_param":{"num_deleted":"0","num_feature":"1093","num_nodes":"15","size_leaf_vector":"1"}},{"base_weights":[3.136025E-1,3.082652E-1,7.0451194E-1,3.5450125E-1,2.6152852E-1,-5.9754294E-3,8.2053375E-1,-4.861591E-3,3.6057108E-3,2.708963E-3,-2.2738047E-3,9.95252E-3,1.0367783E-3],"categories":[],"categories_nodes":[],"categories_segments":[],"categories_sizes":[],"default_left":[0,0,0,0,0,0,0,0,0,0,0,0,0],"id":43,"left_children":[1,3,5,7,9,-1,11,-1,-1,-1,-1,-1,-1],"loss_changes":[7.542572E0,7.8396606E0,7.940613E0,9.576981E0,8.44001E0,0E0,5.621191E0,0E0,0E0,0E0,0E0,0E0,0E0],"parents":[2147483647,0,0,1,1,2,2,3,3,4,4,6,6],"right_children":[2,4,6,8,10,-1,12,-1,-1,-1,-1,-1,-1],"split_conditions":[1.037E1,1.6E1,5E0,6.7E-2,6E0,-5.9754294E-3,1.57E1,-4.861591E-3,3.6057108E-3,2.708963E-3,-2.2738047E-3,9.95252E-3,1.0367783E-3],"split_indices":[890,84,87,948,1058,0,730,0,0,0,0,0,0],"split_type":[0,0,0,0,0,0,0,0,0,0,0,0,0],"sum_hessian":[3.7181726E3,3.6698545E3,4.8317997E1,1.8414979E3,1.8283567E3,3.6136403E0,4.4704357E1,1.2633915E1,1.8288639E3,1.7944205E3,3.3936134E1,3.5631565E1,9.072789E0],"tree_param":{"num_deleted":"0","num_feature":"1093","num_nodes":"13","size_leaf_vector":"1"}},{"base_weights":[-6.8676984E-1,-6.873026E-1,-1.2257884E-1,-6.8783337E-1,-1.7336635E-1,4.3607554E-3,-4.960301E-3,-6.8811276E-3,3.8887473E-4,-5.223985E-3,4.384254E-3],"categories":[],"categories_nodes":[],"categories_segments":[],"categories_sizes":[],"default_left":[0,0,0,0,0,0,0,0,0,0,0],"id":44,"left_children":[1,3,5,7,9,-1,-1,-1,-1,-1,-1],"loss_changes":[9.523926E-1,8.2055664E-1,1.1490848E0,7.25708E-1,1.273549E0,0E0,0E0,0E0,0E0,0E0,0E0],"parents":[2147483647,0,0,1,1,2,2,3,3,4,4],"right_children":[2,4,6,8,10,-1,-1,-1,-1,-1,-1],"split_conditions":[2.4E1,8E0,5E0,5.52E0,2E1,4.3607554E-3,-4.960301E-3,-6.8811276E-3,3.8887473E-4,-5.223985E-3,4.384254E-3],"split_indices":[463,998,34,691,90,0,0,0,0,0,0],"split_type":[0,0,0,0,0,0,0,0,0,0,0],"sum_hessian":[3.4479177E3,3.4444468E3,3.470965E0,3.4405552E3,3.8915462E0,1.3234679E0,2.147497E0,3.439286E3,1.2693065E0,2.5709283E0,1.320618E0],"tree_param":{"num_deleted":"0","num_feature":"1093","num_nodes":"11","size_leaf_vector":"1"}},{"base_weights":[3.202391E-1,1.7879839E-1,3.3809078E-1,3.5647494E-1,8.817929E-2,4.213136E-1,3.1212285E-1,5.555475E-3,6.6991773E-4,-1.74749E-3,2.1134915E-3,1.415942E-3,4.7458997E-3,2.8132172E-3,4.3656453E-3],"categories":[],"categories_nodes":[],"categories_segments":[],"categories_sizes":[],"default_left":[0,0,0,0,0,0,0,0,0,0,0,0,0,0,0],"id":45,"left_children":[1,3,5,7,9,11,13,-1,-1,-1,-1,-1,-1,-1,-1],"loss_changes":[9.349762E0,6.7275267E0,7.0176697E0,8.114761E0,9.082983E0,1.1614456E1,9.556183E0,0E0,0E0,0E0,0E0,0E0,0E0,0E0,0E0],"parents":[2147483647,0,0,1,1,2,2,3,3,4,4,5,5,6,6],"right_children":[2,4,6,8,10,12,14,-1,-1,-1,-1,-1,-1,-1,-1],"split_conditions":[1.213E0,1.89E-1,1.258E0,3.176E0,2.754E0,3E0,1.881E0,5.555475E-3,6.6991773E-4,-1.74749E-3,2.1134915E-3,1.415942E-3,4.7458997E-3,2.8132172E-3,4.3656453E-3],"split_indices":[694,927,792,786,986,201,297,0,0,0,0,0,0,0,0],"split_type":[0,0,0,0,0,0,0,0,0,0,0,0,0,0,0],"sum_hessian":[3.7258745E3,4.1878796E2,3.3070864E3,1.4045824E2,2.7832974E2,7.8287573E2,2.5242107E3,8.268091E1,5.7777332E1,8.8656876E1,1.8967285E2,1.25838425E2,6.570373E2,2.0260057E3,4.9820502E2],"tree_param":{"num_deleted":"0","num_feature":"1093","num_nodes":"15","size_leaf_vector":"1"}},{"base_weights":[3.108872E-1,3.0558836E-1,6.985695E-1,3.5148475E-1,2.5918284E-1,-5.964113E-3,8.1354237E-1,-4.8501394E-3,3.5750968E-3,2.6848475E-3,-2.2700438E-3,9.864296E-3,1.0247607E-3],"categories":[],"categories_nodes":[],"categories_segments":[],"categories_sizes":[],"default_left":[0,0,0,0,0,0,0,0,0,0,0,0,0],"id":46,"left_children":[1,3,5,7,9,-1,11,-1,-1,-1,-1,-1,-1],"loss_changes":[7.4371643E0,7.7378845E0,7.8460903E0,9.47316E0,8.344246E0,0E0,5.533087E0,0E0,0E0,0E0,0E0,0E0,0E0],"parents":[2147483647,0,0,1,1,2,2,3,3,4,4,6,6],"right_children":[2,4,6,8,10,-1,12,-1,-1,-1,-1,-1,-1],"split_conditions":[1.037E1,1.6E1,5E0,6.7E-2,6E0,-5.964113E-3,1.57E1,-4.8501394E-3,3.5750968E-3,2.6848475E-3,-2.2700438E-3,9.864296E-3,1.0247607E-3],"split_indices":[890,84,87,948,1058,0,730,0,0,0,0,0,0],"split_type":[0,0,0,0,0,0,0,0,0,0,0,0,0],"sum_hessian":[3.7232773E3,3.6748381E3,4.8439205E1,1.8442488E3,1.8305892E3,3.6084557E0,4.483075E1,1.2619832E1,1.831629E3,1.7966626E3,3.392659E1,3.5751053E1,9.079695E0],"tree_param":{"num_deleted":"0","num_feature":"1093","num_nodes":"13","size_leaf_vector":"1"}},{"base_weights":[-6.8449473E-1,-6.850284E-1,-1.210724E-1,-6.8556E-1,-1.7169458E-1,-4.9478076E-3,4.36749E-3,4.1807804E-4,-6.858405E-3,4.3899566E-3,-5.209702E-3],"categories":[],"categories_nodes":[],"categories_segments":[],"categories_sizes":[],"default_left":[0,0,0,0,0,0,0,0,0,0,0],"id":47,"left_children":[1,3,5,7,9,-1,-1,-1,-1,-1,-1],"loss_changes":[9.499512E-1,8.1884766E-1,1.1469426E0,7.281494E-1,1.2705286E0,0E0,0E0,0E0,0E0,0E0,0E0],"parents":[2147483647,0,0,1,1,2,2,3,3,4,4],"right_children":[2,4,6,8,10,-1,-1,-1,-1,-1,-1],"split_conditions":[2.4E1,8E0,2.01E1,2.5E1,1.85E1,-4.9478076E-3,4.36749E-3,4.1807804E-4,-6.858405E-3,4.3899566E-3,-5.209702E-3],"split_indices":[463,998,74,67,75,0,0,0,0,0,0],"split_type":[0,0,0,0,0,0,0,0,0,0,0],"sum_hessian":[3.4341194E3,3.430654E3,3.465299E0,3.4267698E3,3.884335E0,2.1427748E0,1.3225243E0,1.2642373E0,3.4255056E3,1.3198216E0,2.5645134E0],"tree_param":{"num_deleted":"0","num_feature":"1093","num_nodes":"11","size_leaf_vector":"1"}},{"base_weights":[3.1746477E-1,1.7703734E-1,3.3518052E-1,6.4253163E-1,1.4239664E-1,1.0453941E0,3.3205873E-1,-4.9215117E-3,9.4853835E-3,-9.169528E-4,2.2270137E-3,-1.3894812E-3,1.2325909E-2,1.6509531E-3,3.454186E-3],"categories":[],"categories_nodes":[],"categories_segments":[],"categories_sizes":[],"default_left":[0,0,0,0,0,0,0,0,0,0,0,0,0,0,0],"id":48,"left_children":[1,3,5,7,9,11,13,-1,-1,-1,-1,-1,-1,-1,-1],"loss_changes":[9.225067E0,6.68417E0,6.997925E0,1.0473414E1,7.396573E0,3.282364E0,7.303528E0,0E0,0E0,0E0,0E0,0E0,0E0,0E0,0E0],"parents":[2147483647,0,0,1,1,2,2,3,3,4,4,5,5,6,6],"right_children":[2,4,6,8,10,12,14,-1,-1,-1,-1,-1,-1,-1,-1],"split_conditions":[1.213E0,6.79E-1,-5.53E1,4.38E-1,3.104E0,1.013E0,3.3E-2,-4.9215117E-3,9.4853835E-3,-9.169528E-4,2.2270137E-3,-1.3894812E-3,1.2325909E-2,1.6509531E-3,3.454186E-3],"split_indices":[694,935,970,531,987,349,182,0,0,0,0,0,0,0,0],"split_type":[0,0,0,0,0,0,0,0,0,0,0,0,0,0,0],"sum_hessian":[3.7310342E3,4.1919507E2,3.3118394E3,2.7819118E1,3.9137595E2,1.3032594E1,3.2988066E3,5.779658E0,2.2039461E1,9.9930916E1,2.9144504E2,1.8139548E0,1.1218639E1,2.4539279E2,3.0534138E3],"tree_param":{"num_deleted":"0","num_feature":"1093","num_nodes":"15","size_leaf_vector":"1"}},{"base_weights":[3.0820698E-1,3.02945E-1,6.9282526E-1,3.4850585E-1,2.5686687E-1,-5.952899E-3,8.0678564E-1,-4.8384634E-3,3.5448617E-3,2.661029E-3,-2.2659234E-3,9.778693E-3,1.014289E-3],"categories":[],"categories_nodes":[],"categories_segments":[],"categories_sizes":[],"default_left":[0,0,0,0,0,0,0,0,0,0,0,0,0],"id":49,"left_children":[1,3,5,7,9,-1,11,-1,-1,-1,-1,-1,-1],"loss_changes":[7.3377075E0,7.637665E0,7.754719E0,9.370148E0,8.248604E0,0E0,5.446087E0,0E0,0E0,0E0,0E0,0E0,0E0],"parents":[2147483647,0,0,1,1,2,2,3,3,4,4,6,6],"right_children":[2,4,6,8,10,-1,12,-1,-1,-1,-1,-1,-1],"split_conditions":[1.037E1,1.6E1,5E0,6.7E-2,6E0,-5.952899E-3,1.57E1,-4.8384634E-3,3.5448617E-3,2.661029E-3,-2.2659234E-3,9.778693E-3,1.014289E-3],"split_indices":[890,84,87,948,1058,0,730,0,0,0,0,0,0],"split_type":[0,0,0,0,0,0,0,0,0,0,0,0,0],"sum_hessian":[3.7283015E3,3.679746E3,4.8555412E1,1.8469574E3,1.8327887E3,3.603276E0,4.4952133E1,1.2605401E1,1.834352E3,1.7988726E3,3.391616E1,3.586642E1,9.085714E0],"tree_param":{"num_deleted":"0","num_feature":"1093","num_nodes":"13","size_leaf_vector":"1"}},{"base_weights":[-6.8225086E-1,-6.827854E-1,-1.1955051E-1,-6.833179E-1,-1.7005002E-1,-4.934449E-3,4.3721083E-3,-6.8359952E-3,4.4409407E-4,-5.195929E-3,4.396435E-3],"categories":[],"categories_nodes":[],"categories_segments":[],"categories_sizes":[],"default_left":[0,0,0,0,0,0,0,0,0,0,0],"id":50,"left_children":[1,3,5,7,9,-1,-1,-1,-1,-1,-1],"loss_changes":[9.4750977E-1,8.170166E-1,1.1440804E0,7.3010254E-1,1.2678316E0,0E0,0E0,0E0,0E0,0E0,0E0],"parents":[2147483647,0,0,1,1,2,2,3,3,4,4],"right_children":[2,4,6,8,10,-1,-1,-1,-1,-1,-1],"split_conditions":[2.4E1,8E0,3.7E1,1.6E1,3.7E-1,-4.934449E-3,4.3721083E-3,-6.8359952E-3,4.4409407E-4,-5.195929E-3,4.396435E-3],"split_indices":[463,998,1,750,62,0,0,0,0,0,0],"split_type":[0,0,0,0,0,0,0,0,0,0,0],"sum_hessian":[3.420302E3,3.4168425E3,3.4595335E0,3.4129653E3,3.8771808E0,2.1376872E0,1.3218462E0,3.4117056E3,1.2597065E0,2.5582771E0,1.3189037E0],"tree_param":{"num_deleted":"0","num_feature":"1093","num_nodes":"11","size_leaf_vector":"1"}},{"base_weights":[3.1472674E-1,1.7529936E-1,3.323085E-1,3.5120443E-1,8.549887E-2,3.4747124E-1,1.9235204E-1,5.484782E-3,6.3989416E-4,-1.7501777E-3,2.0730265E-3,4.7926954E-3,3.2598546E-3,4.686275E-3,1.0882257E-3],"categories":[],"categories_nodes":[],"categories_segments":[],"categories_sizes":[],"default_left":[0,0,0,0,0,0,0,0,0,0,0,0,0,0,0],"id":51,"left_children":[1,3,5,7,9,11,13,-1,-1,-1,-1,-1,-1,-1,-1],"loss_changes":[9.102753E0,6.6138353E0,6.9733276E0,8.000793E0,8.913853E0,8.316467E0,7.4842205E0,0E0,0E0,0E0,0E0,0E0,0E0,0E0,0E0],"parents":[2147483647,0,0,1,1,2,2,3,3,4,4,5,5,6,6],"right_children":[2,4,6,8,10,12,14,-1,-1,-1,-1,-1,-1,-1,-1],"split_conditions":[1.213E0,1.89E-1,2.635E0,3.176E0,2.754E0,1.631E0,8.8E-2,5.484782E-3,6.3989416E-4,-1.7501777E-3,2.0730265E-3,4.7926954E-3,3.2598546E-3,4.686275E-3,1.0882257E-3],"split_indices":[694,927,542,786,986,894,785,0,0,0,0,0,0,0,0],"split_type":[0,0,0,0,0,0,0,0,0,0,0,0,0,0,0],"sum_hessian":[3.7361042E3,4.1959445E2,3.3165098E3,1.408265E2,2.7876794E2,2.9909868E3,3.25523E2,8.294562E1,5.788089E1,8.867372E1,1.9009422E2,4.162592E2,2.5747275E3,7.450054E1,2.5102246E2],"tree_param":{"num_deleted":"0","num_feature":"1093","num_nodes":"15","size_leaf_vector":"1"}},{"base_weights":[3.0556107E-1,-1.8319952E-1,3.0949783E-1,8.579492E-1,-4.2148912E-1,3.5402578E-1,2.6447964E-1,1.1255112E-2,-2.630931E-4,-6.3230037E-3,4.4751065E-3,2.7386665E-3,4.0830574E-3,2.7624436E-3,-1.1562401E-3],"categories":[],"categories_nodes":[],"categories_segments":[],"categories_sizes":[],"default_left":[0,0,0,0,0,0,0,0,0,0,0,0,0,0,0],"id":52,"left_children":[1,3,5,7,9,11,13,-1,-1,-1,-1,-1,-1,-1,-1],"loss_changes":[7.2418823E0,7.919964E0,7.3328247E0,1.4500041E0,4.9474783E0,7.9792786E0,8.287827E0,0E0,0E0,0E0,0E0,0E0,0E0,0E0,0E0],"parents":[2147483647,0,0,1,1,2,2,3,3,4,4,5,5,6,6],"right_children":[2,4,6,8,10,12,14,-1,-1,-1,-1,-1,-1,-1,-1],"split_conditions":[6.7E-2,3.94E-1,1.6E1,6E0,2.58E-1,1.9E0,8.59E-1,1.1255112E-2,-2.630931E-4,-6.3230037E-3,4.4751065E-3,2.7386665E-3,4.0830574E-3,2.7624436E-3,-1.1562401E-3],"split_indices":[948,980,84,170,719,845,139,0,0,0,0,0,0,0,0],"split_type":[0,0,0,0,0,0,0,0,0,0,0,0,0,0,0],"sum_hessian":[3.7332424E3,2.9465548E1,3.7037769E3,5.0035033E0,2.4462044E1,1.8585758E3,1.8452012E3,3.631762E0,1.3717415E0,1.990553E1,4.5565143E0,7.5284314E2,1.1057327E3,1.7900693E3,5.51319E1],"tree_param":{"num_deleted":"0","num_feature":"1093","num_nodes":"15","size_leaf_vector":"1"}},{"base_weights":[-6.800378E-1,-6.8057334E-1,-1.1804555E-1,-6.811067E-1,-1.6847578E-1,-4.9199276E-3,4.372743E-3,-6.813895E-3,4.728426E-4,-5.182516E-3,4.4017737E-3],"categories":[],"categories_nodes":[],"categories_segments":[],"categories_sizes":[],"default_left":[0,0,0,0,0,0,0,0,0,0,0],"id":53,"left_children":[1,3,5,7,9,-1,-1,-1,-1,-1,-1],"loss_changes":[9.451904E-1,8.149414E-1,1.1400146E0,7.324219E-1,1.2649665E0,0E0,0E0,0E0,0E0,0E0,0E0],"parents":[2147483647,0,0,1,1,2,2,3,3,4,4],"right_children":[2,4,6,8,10,-1,-1,-1,-1,-1,-1],"split_conditions":[2.4E1,8E0,3.65E-1,3.685E0,1.4E1,-4.9199276E-3,4.372743E-3,-6.813895E-3,4.728426E-4,-5.182516E-3,4.4017737E-3],"split_indices":[463,998,10,400,2,0,0,0,0,0,0],"split_type":[0,0,0,0,0,0,0,0,0,0,0],"sum_hessian":[3.406466E3,3.4030122E3,3.4538066E0,3.3991418E3,3.8702781E0,2.1321046E0,1.3217021E0,3.3978872E3,1.2546672E0,2.5521543E0,1.3181238E0],"tree_param":{"num_deleted":"0","num_feature":"1093","num_nodes":"11","size_leaf_vector":"1"}},{"base_weights":[3.120225E-1,1.7356353E-1,3.2947478E-1,4.0750626E-1,1.0627973E-1,3.4444684E-1,1.8885292E-1,6.4460156E-3,-7.64168E-4,4.401242E-3,3.5173693E-4,3.1996747E-3,4.501125E-3,1.7376586E-4,3.3915865E-3],"categories":[],"categories_nodes":[],"categories_segments":[],"categories_sizes":[],"default_left":[0,0,0,0,0,0,0,0,0,0,0,0,0,0,0],"id":54,"left_children":[1,3,5,7,9,11,13,-1,-1,-1,-1,-1,-1,-1,-1],"loss_changes":[8.985321E0,6.5833454E0,6.929291E0,1.079802E1,7.778055E0,7.618988E0,8.290297E0,0E0,0E0,0E0,0E0,0E0,0E0,0E0,0E0],"parents":[2147483647,0,0,1,1,2,2,3,3,4,4,5,5,6,6],"right_children":[2,4,6,8,10,12,14,-1,-1,-1,-1,-1,-1,-1,-1],"split_conditions":[1.213E0,4E0,2.561E0,2.13E-1,1.58E-1,1.881E0,4.9E0,6.4460156E-3,-7.64168E-4,4.401242E-3,3.5173693E-4,3.1996747E-3,4.501125E-3,1.7376586E-4,3.3915865E-3],"split_indices":[694,454,1034,829,927,297,72,0,0,0,0,0,0,0,0],"split_type":[0,0,0,0,0,0,0,0,0,0,0,0,0,0,0],"sum_hessian":[3.7410903E3,4.1999252E2,3.3210977E3,9.268263E1,3.2730988E2,3.000214E3,3.2088367E2,6.1982586E1,3.0700045E1,5.6561707E1,2.7074817E2,2.4391653E3,5.610488E2,1.5040718E2,1.7047647E2],"tree_param":{"num_deleted":"0","num_feature":"1093","num_nodes":"15","size_leaf_vector":"1"}},{"base_weights":[3.0295044E-1,2.9773197E-1,6.841037E-1,3.426455E-1,2.5228655E-1,-5.9521035E-3,7.969298E-1,-4.818215E-3,3.485419E-3,2.6144485E-3,-2.2776406E-3,8.918517E-3,-3.5756272E-3],"categories":[],"categories_nodes":[],"categories_segments":[],"categories_sizes":[],"default_left":[0,0,0,0,0,0,0,0,0,0,0,0,0],"id":55,"left_children":[1,3,5,7,9,-1,11,-1,-1,-1,-1,-1,-1],"loss_changes":[7.2335815E0,7.445984E0,7.652525E0,9.177383E0,8.140732E0,0E0,5.373934E0,0E0,0E0,0E0,0E0,0E0,0E0],"parents":[2147483647,0,0,1,1,2,2,3,3,4,4,6,6],"right_children":[2,4,6,8,10,-1,12,-1,-1,-1,-1,-1,-1],"split_conditions":[1.037E1,1.6E1,5E0,6.7E-2,6E0,-5.9521035E-3,1.561E0,-4.818215E-3,3.485419E-3,2.6144485E-3,-2.2776406E-3,8.918517E-3,-3.5756272E-3],"split_indices":[890,84,87,948,1058,0,302,0,0,0,0,0,0],"split_type":[0,0,0,0,0,0,0,0,0,0,0,0,0],"sum_hessian":[3.7381028E3,3.6893716E3,4.873109E1,1.8522554E3,1.8371163E3,3.6029074E0,4.5128185E1,1.2579759E1,1.8396757E3,1.8031711E3,3.3945118E1,4.1909863E1,3.2183206E0],"tree_param":{"num_deleted":"0","num_feature":"1093","num_nodes":"13","size_leaf_vector":"1"}},{"base_weights":[-6.7785466E-1,-6.7839116E-1,-1.16568536E-1,-6.789255E-1,-1.6678989E-1,4.374429E-3,-4.90601E-3,-6.792091E-3,4.884693E-4,-5.1684463E-3,4.408343E-3],"categories":[],"categories_nodes":[],"categories_segments":[],"categories_sizes":[],"default_left":[0,0,0,0,0,0,0,0,0,0,0],"id":56,"left_children":[1,3,5,7,9,-1,-1,-1,-1,-1,-1],"loss_changes":[9.4299316E-1,8.133545E-1,1.1363305E0,7.3205566E-1,1.2621819E0,0E0,0E0,0E0,0E0,0E0,0E0],"parents":[2147483647,0,0,1,1,2,2,3,3,4,4],"right_children":[2,4,6,8,10,-1,-1,-1,-1,-1,-1],"split_conditions":[2.4E1,8E0,5E0,5.52E0,3E1,4.374429E-3,-4.90601E-3,-6.792091E-3,4.884693E-4,-5.1684463E-3,4.408343E-3],"split_indices":[463,998,34,691,0,0,0,0,0,0,0],"split_type":[0,0,0,0,0,0,0,0,0,0,0],"sum_hessian":[3.3926172E3,3.389169E3,3.4480658E0,3.3853062E3,3.8628614E0,1.3213577E0,2.126708E0,3.3840542E3,1.2519275E0,2.5456839E0,1.3171775E0],"tree_param":{"num_deleted":"0","num_feature":"1093","num_nodes":"11","size_leaf_vector":"1"}},{"base_weights":[3.09353E-1,1.7187245E-1,3.2667473E-1,8.595833E-2,3.5402322E-1,4.0890098E-1,3.010133E-1,1.8847027E-3,-1.4830818E-3,4.6359226E-3,-1.5880209E-3,1.3260237E-3,4.6148007E-3,2.7069568E-3,4.234215E-3],"categories":[],"categories_nodes":[],"categories_segments":[],"categories_sizes":[],"default_left":[0,0,0,0,0,0,0,0,0,0,0,0,0,0,0],"id":57,"left_children":[1,3,5,7,9,11,13,-1,-1,-1,-1,-1,-1,-1,-1],"loss_changes":[8.867004E0,6.56396E0,6.8962708E0,6.9359674E0,7.64419E0,1.1393158E1,9.308502E0,0E0,0E0,0E0,0E0,0E0,0E0,0E0,0E0],"parents":[2147483647,0,0,1,1,2,2,3,3,4,4,5,5,6,6],"right_children":[2,4,6,8,10,12,14,-1,-1,-1,-1,-1,-1,-1,-1],"split_conditions":[1.213E0,5.762E0,1.258E0,2.12E-1,2.88E-1,3E0,1.881E0,1.8847027E-3,-1.4830818E-3,4.6359226E-3,-1.5880209E-3,1.3260237E-3,4.6148007E-3,2.7069568E-3,4.234215E-3],"split_indices":[694,978,792,768,141,201,297,0,0,0,0,0,0,0,0],"split_type":[0,0,0,0,0,0,0,0,0,0,0,0,0,0,0],"sum_hessian":[3.7460063E3,4.2038498E2,3.3256213E3,2.866528E2,1.3373216E2,7.8745825E2,2.538163E3,1.9953458E2,8.711822E1,1.1026847E2,2.3463696E1,1.2645748E2,6.610008E2,2.0368864E3,5.012766E2],"tree_param":{"num_deleted":"0","num_feature":"1093","num_nodes":"15","size_leaf_vector":"1"}},{"base_weights":[3.0037007E-1,2.2180705E-1,3.248853E-1,3.0181324E-1,9.281793E-2,2.9885975E-1,4.3802497E-1,5.26817E-3,2.383234E-3,4.7901976E-3,2.4278178E-4,2.186127E-3,3.483571E-3,5.898712E-3,3.1571318E-3],"categories":[],"categories_nodes":[],"categories_segments":[],"categories_sizes":[],"default_left":[0,0,0,0,0,0,0,0,0,0,0,0,0,0,0],"id":58,"left_children":[1,3,5,7,9,11,13,-1,-1,-1,-1,-1,-1,-1,-1],"loss_changes":[7.1386414E0,9.193539E0,8.264862E0,7.746498E0,9.081234E0,9.14386E0,9.677368E0,0E0,0E0,0E0,0E0,0E0,0E0,0E0,0E0],"parents":[2147483647,0,0,1,1,2,2,3,3,4,4,5,5,6,6],"right_children":[2,4,6,8,10,12,14,-1,-1,-1,-1,-1,-1,-1,-1],"split_conditions":[1.258E0,1.85E1,5.768E0,2.542E0,1.43E-1,1.2E1,4.56E-1,5.26817E-3,2.383234E-3,4.7901976E-3,2.4278178E-4,2.186127E-3,3.483571E-3,5.898712E-3,3.1571318E-3],"split_indices":[792,818,737,692,547,36,59,0,0,0,0,0,0,0,0],"split_type":[0,0,0,0,0,0,0,0,0,0,0,0,0,0,0],"sum_hessian":[3.7428909E3,8.9256714E2,2.8503237E3,5.500536E2,3.4251352E2,2.3202395E3,5.3008417E2,1.1944627E2,4.3060733E2,5.0721798E1,2.9179172E2,8.872354E2,1.433004E3,2.347842E2,2.9529996E2],"tree_param":{"num_deleted":"0","num_feature":"1093","num_nodes":"15","size_leaf_vector":"1"}},{"base_weights":[-6.7570025E-1,-6.762376E-1,-1.1527319E-1,-6.7677295E-1,-1.6510122E-1,-4.8939805E-3,4.3764124E-3,5.141907E-4,-6.770577E-3,-5.154171E-3,4.4141547E-3],"categories":[],"categories_nodes":[],"categories_segments":[],"categories_sizes":[],"default_left":[0,0,0,0,0,0,0,0,0,0,0],"id":59,"left_children":[1,3,5,7,9,-1,-1,-1,-1,-1,-1],"loss_changes":[9.400635E-1,8.121338E-1,1.1332501E0,7.340088E-1,1.2591517E0,0E0,0E0,0E0,0E0,0E0,0E0],"parents":[2147483647,0,0,1,1,2,2,3,3,4,4],"right_children":[2,4,6,8,10,-1,-1,-1,-1,-1,-1],"split_conditions":[2.4E1,8E0,2.01E1,5E0,4.55E-1,-4.8939805E-3,4.3764124E-3,5.141907E-4,-6.770577E-3,-5.154171E-3,4.4141547E-3],"split_indices":[463,998,74,240,59,0,0,0,0,0,0],"split_type":[0,0,0,0,0,0,0,0,0,0,0],"sum_hessian":[3.3787537E3,3.3753105E3,3.4429734E0,3.371455E3,3.8554003E0,2.1220095E0,1.3209641E0,1.2473717E0,3.3702078E3,2.5390694E0,1.3163309E0],"tree_param":{"num_deleted":"0","num_feature":"1093","num_nodes":"11","size_leaf_vector":"1"}},{"base_weights":[3.0671382E-1,1.7021291E-1,3.2390478E-1,6.2972915E-1,1.35973E-1,1.0257242E0,3.208196E-1,-4.935821E-3,9.31524E-3,-9.484982E-4,2.15018E-3,-1.4382545E-3,1.21073825E-2,1.5577829E-3,3.3402129E-3],"categories":[],"categories_nodes":[],"categories_segments":[],"categories_sizes":[],"default_left":[0,0,0,0,0,0,0,0,0,0,0,0,0,0,0],"id":60,"left_children":[1,3,5,7,9,11,13,-1,-1,-1,-1,-1,-1,-1,-1],"loss_changes":[8.748901E0,6.550331E0,6.883545E0,1.0281642E1,7.205291E0,3.2303753E0,7.177185E0,0E0,0E0,0E0,0E0,0E0,0E0,0E0,0E0],"parents":[2147483647,0,0,1,1,2,2,3,3,4,4,5,5,6,6],"right_children":[2,4,6,8,10,12,14,-1,-1,-1,-1,-1,-1,-1,-1],"split_conditions":[1.213E0,6.79E-1,-5.53E1,4.38E-1,3.104E0,1.013E0,3.3E-2,-4.935821E-3,9.31524E-3,-9.484982E-4,2.15018E-3,-1.4382545E-3,1.21073825E-2,1.5577829E-3,3.3402129E-3],"split_indices":[694,935,970,531,987,349,182,0,0,0,0,0,0,0,0],"split_type":[0,0,0,0,0,0,0,0,0,0,0,0,0,0,0],"sum_hessian":[3.7508462E3,4.207646E2,3.3300815E3,2.797221E1,3.927924E2,1.3124198E1,3.3169573E3,5.7891016E0,2.218311E1,1.0014744E2,2.9264496E2,1.8229862E0,1.1301211E1,2.4662076E2,3.0703367E3],"tree_param":{"num_deleted":"0","num_feature":"1093","num_nodes":"15","size_leaf_vector":"1"}},{"base_weights":[2.9782608E-1,2.9265147E-1,6.754873E-1,3.3719078E-1,2.4757591E-1,-5.951207E-3,7.872012E-1,-4.818634E-3,3.4303486E-3,2.1666798E-3,3.9127255E-3,9.556833E-3,9.203533E-4],"categories":[],"categories_nodes":[],"categories_segments":[],"categories_sizes":[],"default_left":[0,0,0,0,0,0,0,0,0,0,0,0,0],"id":61,"left_children":[1,3,5,7,9,-1,11,-1,-1,-1,-1,-1,-1],"loss_changes":[7.1280212E0,7.3441467E0,7.552021E0,9.059586E0,8.098625E0,0E0,5.334961E0,0E0,0E0,0E0,0E0,0E0,0E0],"parents":[2147483647,0,0,1,1,2,2,3,3,4,4,6,6],"right_children":[2,4,6,8,10,-1,12,-1,-1,-1,-1,-1,-1],"split_conditions":[1.037E1,1.6E1,5E0,6.7E-2,1.206E2,-5.951207E-3,1.57E1,-4.818634E-3,3.4303486E-3,2.1666798E-3,3.9127255E-3,9.556833E-3,9.203533E-4],"split_indices":[890,84,87,948,971,0,730,0,0,0,0,0,0],"split_type":[0,0,0,0,0,0,0,0,0,0,0,0,0],"sum_hessian":[3.7475996E3,3.698696E3,4.890355E1,1.8571548E3,1.8415414E3,3.6024902E0,4.530106E1,1.2580188E1,1.8445746E3,1.5176218E3,3.2391956E2,3.6162E1,9.139061E0],"tree_param":{"num_deleted":"0","num_feature":"1093","num_nodes":"13","size_leaf_vector":"1"}},{"base_weights":[-6.735743E-1,-6.7411286E-1,-1.1361362E-1,-6.746495E-1,-1.632155E-1,4.3836045E-3,-4.880363E-3,-6.7493534E-3,5.4314116E-4,-5.1366026E-3,4.4148806E-3],"categories":[],"categories_nodes":[],"categories_segments":[],"categories_sizes":[],"default_left":[0,0,0,0,0,0,0,0,0,0,0],"id":62,"left_children":[1,3,5,7,9,-1,-1,-1,-1,-1,-1],"loss_changes":[9.382324E-1,8.1188965E-1,1.1308584E0,7.3657227E-1,1.2539278E0,0E0,0E0,0E0,0E0,0E0,0E0],"parents":[2147483647,0,0,1,1,2,2,3,3,4,4],"right_children":[2,4,6,8,10,-1,-1,-1,-1,-1,-1],"split_conditions":[2.4E1,8E0,8.4E1,3.98E1,2E1,4.3836045E-3,-4.880363E-3,-6.7493534E-3,5.4314116E-4,-5.1366026E-3,4.4148806E-3],"split_indices":[463,998,58,64,90,0,0,0,0,0,0],"split_type":[0,0,0,0,0,0,0,0,0,0,0],"sum_hessian":[3.364885E3,3.3614485E3,3.436616E0,3.3576013E3,3.8470004E0,1.3199626E0,2.1166534E0,3.3563591E3,1.2422428E0,2.530851E0,1.3161492E0],"tree_param":{"num_deleted":"0","num_feature":"1093","num_nodes":"11","size_leaf_vector":"1"}},{"base_weights":[3.0411068E-1,1.6856977E-1,3.2117358E-1,9.7723916E-2,3.8789406E-1,3.3615947E-1,1.8282889E-1,1.878616E-3,-1.8627079E-3,-1.8307667E-4,5.7312665E-3,4.6637915E-3,3.1492778E-3,4.5587397E-3,1.0023015E-3],"categories":[],"categories_nodes":[],"categories_segments":[],"categories_sizes":[],"default_left":[0,0,0,0,0,0,0,0,0,0,0,0,0,0,0],"id":63,"left_children":[1,3,5,7,9,11,13,-1,-1,-1,-1,-1,-1,-1,-1],"loss_changes":[8.63382E0,6.5213413E0,6.8536987E0,8.236984E0,7.7400103E0,8.170319E0,7.3559427E0,0E0,0E0,0E0,0E0,0E0,0E0,0E0,0E0],"parents":[2147483647,0,0,1,1,2,2,3,3,4,4,5,5,6,6],"right_children":[2,4,6,8,10,12,14,-1,-1,-1,-1,-1,-1,-1,-1],"split_conditions":[1.213E0,5.6E0,2.635E0,5E0,2.8E1,1.631E0,8.8E-2,1.878616E-3,-1.8627079E-3,-1.8307667E-4,5.7312665E-3,4.6637915E-3,3.1492778E-3,4.5587397E-3,1.0023015E-3],"split_indices":[694,20,542,760,749,894,785,0,0,0,0,0,0,0,0],"split_type":[0,0,0,0,0,0,0,0,0,0,0,0,0,0,0],"sum_hessian":[3.7555952E3,4.2113647E2,3.3344587E3,3.1940744E2,1.01729034E2,3.0072727E3,3.2718588E2,2.4271127E2,7.669615E1,3.2142975E1,6.958606E1,4.1864447E2,2.5886284E3,7.493976E1,2.5224612E2],"tree_param":{"num_deleted":"0","num_feature":"1093","num_nodes":"15","size_leaf_vector":"1"}},{"base_weights":[2.953117E-1,2.901723E-1,6.7008376E-1,3.3440125E-1,2.454007E-1,-5.9395162E-3,7.808461E-1,-4.8061553E-3,3.4020229E-3,2.5446878E-3,-2.3052345E-3,8.744738E-3,-3.604887E-3],"categories":[],"categories_nodes":[],"categories_segments":[],"categories_sizes":[],"default_left":[0,0,0,0,0,0,0,0,0,0,0,0,0],"id":64,"left_children":[1,3,5,7,9,-1,11,-1,-1,-1,-1,-1,-1],"loss_changes":[7.0346375E0,7.2530518E0,7.4654675E0,8.960541E0,8.019363E0,0E0,5.274885E0,0E0,0E0,0E0,0E0,0E0,0E0],"parents":[2147483647,0,0,1,1,2,2,3,3,4,4,6,6],"right_children":[2,4,6,8,10,-1,12,-1,-1,-1,-1,-1,-1],"split_conditions":[1.037E1,1.6E1,5E0,6.7E-2,6E0,-5.9395162E-3,1.561E0,-4.8061553E-3,3.4020229E-3,2.5446878E-3,-2.3052345E-3,8.744738E-3,-3.604887E-3],"split_indices":[890,84,87,948,1058,0,302,0,0,0,0,0,0],"split_type":[0,0,0,0,0,0,0,0,0,0,0,0,0],"sum_hessian":[3.7522292E3,3.70322E3,4.900934E1,1.8596454E3,1.8435746E3,3.597037E0,4.54123E1,1.2564414E1,1.847081E3,1.809561E3,3.401348E1,4.218549E1,3.2268105E0],"tree_param":{"num_deleted":"0","num_feature":"1093","num_nodes":"13","size_leaf_vector":"1"}},{"base_weights":[-6.7147726E-1,-6.720169E-1,-1.1201962E-1,-6.725545E-1,-1.6170152E-1,-4.865816E-3,4.3862974E-3,5.6924945E-4,-6.7284154E-3,-5.1239464E-3,4.4204104E-3],"categories":[],"categories_nodes":[],"categories_segments":[],"categories_sizes":[],"default_left":[0,0,0,0,0,0,0,0,0,0,0],"id":65,"left_children":[1,3,5,7,9,-1,-1,-1,-1,-1,-1],"loss_changes":[9.366455E-1,8.0981445E-1,1.1272085E0,7.385254E-1,1.2513005E0,0E0,0E0,0E0,0E0,0E0,0E0],"parents":[2147483647,0,0,1,1,2,2,3,3,4,4],"right_children":[2,4,6,8,10,-1,-1,-1,-1,-1,-1],"split_conditions":[2.4E1,8E0,3.7E1,2.5E1,3.7E-1,-4.865816E-3,4.3862974E-3,5.6924945E-4,-6.7284154E-3,-5.1239464E-3,4.4204104E-3],"split_indices":[463,998,1,67,62,0,0,0,0,0,0],"split_type":[0,0,0,0,0,0,0,0,0,0,0],"sum_hessian":[3.351002E3,3.3475715E3,3.4303951E0,3.3437314E3,3.8401687E0,2.1108828E0,1.3195124E0,1.2375914E0,3.342494E3,2.524865E0,1.3153038E0],"tree_param":{"num_deleted":"0","num_feature":"1093","num_nodes":"11","size_leaf_vector":"1"}},{"base_weights":[3.0154026E-1,1.6693774E-1,3.1847855E-1,3.9868835E-1,1.0024491E-1,3.3328184E-1,1.7941126E-1,6.3283485E-3,-8.030526E-4,4.297106E-3,2.997153E-4,3.0921139E-3,4.371232E-3,9.732125E-5,3.280394E-3],"categories":[],"categories_nodes":[],"categories_segments":[],"categories_sizes":[],"default_left":[0,0,0,0,0,0,0,0,0,0,0,0,0,0,0],"id":66,"left_children":[1,3,5,7,9,11,13,-1,-1,-1,-1,-1,-1,-1,-1],"loss_changes":[8.522278E0,6.49043E0,6.815613E0,1.0602612E1,7.6143026E0,7.406555E0,8.154448E0,0E0,0E0,0E0,0E0,0E0,0E0,0E0,0E0],"parents":[2147483647,0,0,1,1,2,2,3,3,4,4,5,5,6,6],"right_children":[2,4,6,8,10,12,14,-1,-1,-1,-1,-1,-1,-1,-1],"split_conditions":[1.213E0,4E0,2.561E0,2.13E-1,1.58E-1,1.881E0,4.9E0,6.3283485E-3,-8.030526E-4,4.297106E-3,2.997153E-4,3.0921139E-3,4.371232E-3,9.732125E-5,3.280394E-3],"split_indices":[694,454,1034,829,927,297,72,0,0,0,0,0,0,0,0],"split_type":[0,0,0,0,0,0,0,0,0,0,0,0,0,0,0],"sum_hessian":[3.7602676E3,4.215124E2,3.3387551E3,9.3082504E1,3.284299E2,3.0162844E3,3.224708E2,6.2304844E1,3.0777658E1,5.683818E1,2.715917E2,2.4519092E3,5.6437506E2,1.5106973E2,1.7140106E2],"tree_param":{"num_deleted":"0","num_feature":"1093","num_nodes":"15","size_leaf_vector":"1"}},{"base_weights":[2.9282677E-1,2.1522565E-1,3.1703284E-1,2.944782E-1,8.738602E-2,2.9126036E-1,4.2903894E-1,5.1703006E-3,2.3163524E-3,4.7026733E-3,1.9372786E-4,2.1177141E-3,3.402757E-3,5.7903216E-3,3.081259E-3],"categories":[],"categories_nodes":[],"categories_segments":[],"categories_sizes":[],"default_left":[0,0,0,0,0,0,0,0,0,0,0,0,0,0,0],"id":67,"left_children":[1,3,5,7,9,11,13,-1,-1,-1,-1,-1,-1,-1,-1],"loss_changes":[6.990448E0,9.0580635E0,8.137329E0,7.6150055E0,8.962948E0,9.005707E0,9.493271E0,0E0,0E0,0E0,0E0,0E0,0E0,0E0,0E0],"parents":[2147483647,0,0,1,1,2,2,3,3,4,4,5,5,6,6],"right_children":[2,4,6,8,10,12,14,-1,-1,-1,-1,-1,-1,-1,-1],"split_conditions":[1.258E0,1.85E1,5.768E0,2.542E0,1.43E-1,1.2E1,4.56E-1,5.1703006E-3,2.3163524E-3,4.7026733E-3,1.9372786E-4,2.1177141E-3,3.402757E-3,5.7903216E-3,3.081259E-3],"split_indices":[792,818,737,692,547,36,59,0,0,0,0,0,0,0,0],"split_type":[0,0,0,0,0,0,0,0,0,0,0,0,0,0,0],"sum_hessian":[3.7567854E3,8.955795E2,2.8612058E3,5.5204364E2,3.4353592E2,2.328923E3,5.322826E2,1.1996667E2,4.3207697E2,5.0927063E1,2.9260886E2,8.9035E2,1.4385732E3,2.3588152E2,2.964011E2],"tree_param":{"num_deleted":"0","num_feature":"1093","num_nodes":"15","size_leaf_vector":"1"}},{"base_weights":[-6.694068E-1,-6.699475E-1,-1.1061468E-1,-6.7048615E-1,-1.6013055E-1,-4.8532607E-3,4.389392E-3,-6.7077433E-3,5.966669E-4,4.426722E-3,-5.1110354E-3],"categories":[],"categories_nodes":[],"categories_segments":[],"categories_sizes":[],"default_left":[0,0,0,0,0,0,0,0,0,0,0],"id":68,"left_children":[1,3,5,7,9,-1,-1,-1,-1,-1,-1],"loss_changes":[9.346924E-1,8.0822754E-1,1.1242143E0,7.409668E-1,1.2487744E0,0E0,0E0,0E0,0E0,0E0,0E0],"parents":[2147483647,0,0,1,1,2,2,3,3,4,4],"right_children":[2,4,6,8,10,-1,-1,-1,-1,-1,-1],"split_conditions":[2.4E1,8E0,3.65E-1,3.685E0,1.85E1,-4.8532607E-3,4.389392E-3,-6.7077433E-3,5.966669E-4,4.426722E-3,-5.1110354E-3],"split_indices":[463,998,10,400,75,0,0,0,0,0,0],"split_type":[0,0,0,0,0,0,0,0,0,0,0],"sum_hessian":[3.3371104E3,3.3336855E3,3.4248617E0,3.3298525E3,3.8330822E0,2.1058607E0,1.319001E0,3.3286199E3,1.232677E0,1.3143647E0,2.5187175E0],"tree_param":{"num_deleted":"0","num_feature":"1093","num_nodes":"11","size_leaf_vector":"1"}},{"base_weights":[2.989984E-1,1.6534966E-1,3.1580994E-1,8.0379285E-2,3.453774E-1,1.0105481E0,3.1275472E-1,-1.3580789E-4,3.343463E-3,4.5358324E-3,-1.6200785E-3,-1.4741918E-3,1.1938101E-2,1.4925402E-3,3.2582884E-3],"categories":[],"categories_nodes":[],"categories_segments":[],"categories_sizes":[],"default_left":[0,0,0,0,0,0,0,0,0,0,0,0,0,0,0],"id":69,"left_children":[1,3,5,7,9,11,13,-1,-1,-1,-1,-1,-1,-1,-1],"loss_changes":[8.409119E0,6.440982E0,6.7818604E0,6.8910003E0,7.501173E0,3.1879416E0,7.0713806E0,0E0,0E0,0E0,0E0,0E0,0E0,0E0,0E0],"parents":[2147483647,0,0,1,1,2,2,3,3,4,4,5,5,6,6],"right_children":[2,4,6,8,10,12,14,-1,-1,-1,-1,-1,-1,-1,-1],"split_conditions":[1.213E0,5.762E0,-5.53E1,2.3E1,2.88E-1,5E0,3.3E-2,-1.3580789E-4,3.343463E-3,4.5358324E-3,-1.6200785E-3,-1.4741918E-3,1.1938101E-2,1.4925402E-3,3.2582884E-3],"split_indices":[694,978,970,94,141,90,182,0,0,0,0,0,0,0,0],"split_type":[0,0,0,0,0,0,0,0,0,0,0,0,0,0,0],"sum_hessian":[3.7648794E3,4.218759E2,3.3430037E3,2.8758606E2,1.3428981E2,1.319317E1,3.3298103E3,2.106124E2,7.6973656E1,1.1077235E2,2.3517464E1,1.8294036E0,1.1363767E1,2.4746895E2,3.0823416E3],"tree_param":{"num_deleted":"0","num_feature":"1093","num_nodes":"15","size_leaf_vector":"1"}},{"base_weights":[2.90376E-1,2.8527975E-1,6.617416E-1,3.2913935E-1,2.4087358E-1,-5.938105E-3,7.714371E-1,-4.8062E-3,3.348901E-3,2.1025275E-3,3.8317847E-3,9.376475E-3,8.49535E-4],"categories":[],"categories_nodes":[],"categories_segments":[],"categories_sizes":[],"default_left":[0,0,0,0,0,0,0,0,0,0,0,0,0],"id":70,"left_children":[1,3,5,7,9,-1,11,-1,-1,-1,-1,-1,-1],"loss_changes":[6.9315796E0,7.1524963E0,7.3683357E0,8.847214E0,7.9754944E0,0E0,5.234768E0,0E0,0E0,0E0,0E0,0E0,0E0],"parents":[2147483647,0,0,1,1,2,2,3,3,4,4,6,6],"right_children":[2,4,6,8,10,-1,12,-1,-1,-1,-1,-1,-1],"split_conditions":[1.037E1,1.6E1,5E0,6.7E-2,1.206E2,-5.938105E-3,1.57E1,-4.8062E-3,3.348901E-3,2.1025275E-3,3.8317847E-3,9.376475E-3,8.49535E-4],"split_indices":[890,84,87,948,971,0,730,0,0,0,0,0,0],"split_type":[0,0,0,0,0,0,0,0,0,0,0,0,0],"sum_hessian":[3.7612744E3,3.7121016E3,4.9173E1,1.8643182E3,1.8477832E3,3.5963738E0,4.5576626E1,1.2564337E1,1.8517539E3,1.5226259E3,3.2515738E2,3.63981E1,9.178524E0],"tree_param":{"num_deleted":"0","num_feature":"1093","num_nodes":"13","size_leaf_vector":"1"}},{"base_weights":[-6.673637E-1,-6.6790545E-1,-1.0924248E-1,-6.6844547E-1,-1.5819135E-1,4.3909936E-3,-4.840496E-3,-6.687348E-3,6.205679E-4,-5.093765E-3,4.429703E-3],"categories":[],"categories_nodes":[],"categories_segments":[],"categories_sizes":[],"default_left":[0,0,0,0,0,0,0,0,0,0,0],"id":71,"left_children":[1,3,5,7,9,-1,-1,-1,-1,-1,-1],"loss_changes":[9.32251E-1,8.083496E-1,1.1208254E0,7.4243164E-1,1.2441429E0,0E0,0E0,0E0,0E0,0E0,0E0],"parents":[2147483647,0,0,1,1,2,2,3,3,4,4],"right_children":[2,4,6,8,10,-1,-1,-1,-1,-1,-1],"split_conditions":[2.4E1,8E0,5E0,7.37E-1,1.4E1,4.3909936E-3,-4.840496E-3,-6.687348E-3,6.205679E-4,-5.093765E-3,4.429703E-3],"split_indices":[463,998,34,472,2,0,0,0,0,0,0],"split_type":[0,0,0,0,0,0,0,0,0,0,0],"sum_hessian":[3.3232236E3,3.3198042E3,3.419369E0,3.31598E3,3.824312E0,1.3186514E0,2.1007175E0,3.3147517E3,1.2282162E0,2.5104456E0,1.3138663E0],"tree_param":{"num_deleted":"0","num_feature":"1093","num_nodes":"11","size_leaf_vector":"1"}},{"base_weights":[2.9649007E-1,1.6376902E-1,3.1317842E-1,6.1771375E-1,1.2990677E-1,3.2801536E-1,1.7617875E-1,-4.947616E-3,9.155138E-3,-9.863236E-4,2.0810433E-3,4.568893E-3,3.0699857E-3,4.4657695E-3,9.4330776E-4],"categories":[],"categories_nodes":[],"categories_segments":[],"categories_sizes":[],"default_left":[0,0,0,0,0,0,0,0,0,0,0,0,0,0,0],"id":72,"left_children":[1,3,5,7,9,11,13,-1,-1,-1,-1,-1,-1,-1,-1],"loss_changes":[8.299805E0,6.4255257E0,6.747864E0,1.0098101E1,7.0817957E0,8.039001E0,7.2464886E0,0E0,0E0,0E0,0E0,0E0,0E0,0E0,0E0],"parents":[2147483647,0,0,1,1,2,2,3,3,4,4,5,5,6,6],"right_children":[2,4,6,8,10,12,14,-1,-1,-1,-1,-1,-1,-1,-1],"split_conditions":[1.213E0,6.79E-1,2.635E0,4.38E-1,3.104E0,1.631E0,8.8E-2,-4.947616E-3,9.155138E-3,-9.863236E-4,2.0810433E-3,4.568893E-3,3.0699857E-3,4.4657695E-3,9.4330776E-4],"split_indices":[694,935,542,531,987,894,785,0,0,0,0,0,0,0,0],"split_type":[0,0,0,0,0,0,0,0,0,0,0,0,0,0,0],"sum_hessian":[3.769405E3,4.2223346E2,3.3471716E3,2.8113428E1,3.9412003E2,3.01884E3,3.2833154E2,5.7968965E0,2.2316532E1,1.0040792E2,2.9371213E2,4.203754E2,2.5984646E3,7.525572E1,2.530758E2],"tree_param":{"num_deleted":"0","num_feature":"1093","num_nodes":"15","size_leaf_vector":"1"}},{"base_weights":[2.8795305E-1,2.1093273E-1,3.1197295E-1,2.8954223E-1,8.4062934E-2,2.864176E-1,4.2299783E-1,7.2044955E-4,3.5237873E-3,4.640131E-3,1.6500225E-4,3.3218747E-3,2.0229036E-3,5.7148007E-3,3.0321495E-3],"categories":[],"categories_nodes":[],"categories_segments":[],"categories_sizes":[],"default_left":[0,0,0,0,0,0,0,0,0,0,0,0,0,0,0],"id":73,"left_children":[1,3,5,7,9,11,13,-1,-1,-1,-1,-1,-1,-1,-1],"loss_changes":[6.902649E0,8.936821E0,8.01944E0,7.551079E0,8.852643E0,8.925293E0,9.337532E0,0E0,0E0,0E0,0E0,0E0,0E0,0E0,0E0],"parents":[2147483647,0,0,1,1,2,2,3,3,4,4,5,5,6,6],"right_children":[2,4,6,8,10,12,14,-1,-1,-1,-1,-1,-1,-1,-1],"split_conditions":[1.258E0,1.85E1,5.768E0,1.0846E1,1.43E-1,5.23E0,4.56E-1,7.2044955E-4,3.5237873E-3,4.640131E-3,1.6500225E-4,3.3218747E-3,2.0229036E-3,5.7148007E-3,3.0321495E-3],"split_indices":[792,818,737,944,547,299,59,0,0,0,0,0,0,0,0],"split_type":[0,0,0,0,0,0,0,0,0,0,0,0,0,0,0],"sum_hessian":[3.7656843E3,8.9752673E2,2.8681577E3,5.5337134E2,3.441554E2,2.3344106E3,5.337471E2,1.24518715E2,4.2885263E2,5.107254E1,2.9308286E2,1.5099602E3,8.244504E2,2.3663924E2,2.9710782E2],"tree_param":{"num_deleted":"0","num_feature":"1093","num_nodes":"15","size_leaf_vector":"1"}},{"base_weights":[-6.653466E-1,-6.658897E-1,-1.0763142E-1,-6.664308E-1,-1.5666778E-1,-4.827082E-3,4.397087E-3,-6.6672135E-3,6.479989E-4,-5.0804717E-3,4.432978E-3],"categories":[],"categories_nodes":[],"categories_segments":[],"categories_sizes":[],"default_left":[0,0,0,0,0,0,0,0,0,0,0],"id":74,"left_children":[1,3,5,7,9,-1,-1,-1,-1,-1,-1],"loss_changes":[9.3078613E-1,8.0688477E-1,1.1182209E0,7.449951E-1,1.2407804E0,0E0,0E0,0E0,0E0,0E0,0E0],"parents":[2147483647,0,0,1,1,2,2,3,3,4,4],"right_children":[2,4,6,8,10,-1,-1,-1,-1,-1,-1],"split_conditions":[2.4E1,8E0,2.01E1,1.6E1,3E1,-4.827082E-3,4.397087E-3,-6.6672135E-3,6.479989E-4,-5.0804717E-3,4.432978E-3],"split_indices":[463,998,74,750,0,0,0,0,0,0,0],"split_type":[0,0,0,0,0,0,0,0,0,0,0],"sum_hessian":[3.3093284E3,3.3059155E3,3.4130247E0,3.3020981E3,3.817312E0,2.0952752E0,1.3177496E0,3.3008748E3,1.223412E0,2.5040069E0,1.3133051E0],"tree_param":{"num_deleted":"0","num_feature":"1093","num_nodes":"11","size_leaf_vector":"1"}},{"base_weights":[2.9401112E-1,1.6219792E-1,3.1057894E-1,9.207571E-2,3.791076E-1,3.252433E-1,1.7278264E-1,1.8126253E-3,-1.8926967E-3,-2.278328E-4,5.6205424E-3,3.0143543E-3,4.2792046E-3,4.514944E-5,3.2008095E-3],"categories":[],"categories_nodes":[],"categories_segments":[],"categories_sizes":[],"default_left":[0,0,0,0,0,0,0,0,0,0,0,0,0,0,0],"id":75,"left_children":[1,3,5,7,9,11,13,-1,-1,-1,-1,-1,-1,-1,-1],"loss_changes":[8.193359E0,6.40788E0,6.7177124E0,8.099537E0,7.597687E0,7.274719E0,8.043188E0,0E0,0E0,0E0,0E0,0E0,0E0,0E0,0E0],"parents":[2147483647,0,0,1,1,2,2,3,3,4,4,5,5,6,6],"right_children":[2,4,6,8,10,12,14,-1,-1,-1,-1,-1,-1,-1,-1],"split_conditions":[1.213E0,5.6E0,2.561E0,5E0,2.8E1,1.881E0,4.9E0,1.8126253E-3,-1.8926967E-3,-2.278328E-4,5.6205424E-3,3.0143543E-3,4.2792046E-3,4.514944E-5,3.2008095E-3],"split_indices":[694,20,1034,760,749,297,72,0,0,0,0,0,0,0,0],"split_type":[0,0,0,0,0,0,0,0,0,0,0,0,0,0,0],"sum_hessian":[3.773852E3,4.2258362E2,3.3512686E3,3.2042245E2,1.0216115E2,3.027699E3,3.2356946E2,2.4356712E2,7.685533E1,3.2231525E1,6.992963E1,2.4609998E3,5.666992E2,1.5151523E2,1.7205424E2],"tree_param":{"num_deleted":"0","num_feature":"1093","num_nodes":"15","size_leaf_vector":"1"}},{"base_weights":[2.855616E-1,-1.8876883E-1,2.8936094E-1,8.404063E-1,-4.2506552E-1,2.830655E-1,5.9456545E-1,1.1047199E-2,-3.1475112E-4,-6.340656E-3,4.333398E-3,3.1933184E-3,2.244158E-3,8.5063E-3,1.9530272E-3],"categories":[],"categories_nodes":[],"categories_segments":[],"categories_sizes":[],"default_left":[0,0,0,0,0,0,0,0,0,0,0,0,0,0,0],"id":76,"left_children":[1,3,5,7,9,11,13,-1,-1,-1,-1,-1,-1,-1,-1],"loss_changes":[6.8505554E0,7.7917695E0,7.020569E0,1.4276748E0,4.8544073E0,7.7296753E0,7.471657E0,0E0,0E0,0E0,0E0,0E0,0E0,0E0,0E0],"parents":[2147483647,0,0,1,1,2,2,3,3,4,4,5,5,6,6],"right_children":[2,4,6,8,10,12,14,-1,-1,-1,-1,-1,-1,-1,-1],"split_conditions":[6.7E-2,3.94E-1,1.6854E1,6E0,2.58E-1,2.244E0,3.952E0,1.1047199E-2,-3.1475112E-4,-6.340656E-3,4.333398E-3,3.1933184E-3,2.244158E-3,8.5063E-3,1.9530272E-3],"split_indices":[948,980,1077,170,719,1081,445,0,0,0,0,0,0,0,0],"split_type":[0,0,0,0,0,0,0,0,0,0,0,0,0,0,0],"sum_hessian":[3.7700256E3,2.9570837E1,3.7404548E3,5.0442696E0,2.4526567E1,3.666748E3,7.3706604E1,3.6658897E0,1.3783796E0,1.993439E1,4.592179E0,2.2629785E3,1.4037695E3,4.421749E1,2.9489113E1],"tree_param":{"num_deleted":"0","num_feature":"1093","num_nodes":"15","size_leaf_vector":"1"}},{"base_weights":[-6.633556E-1,-6.638999E-1,-1.0613844E-1,-6.644423E-1,-1.5483163E-1,4.403542E-3,-4.8149615E-3,-6.64734E-3,6.703724E-4,-5.0652907E-3,4.439523E-3],"categories":[],"categories_nodes":[],"categories_segments":[],"categories_sizes":[],"default_left":[0,0,0,0,0,0,0,0,0,0,0],"id":77,"left_children":[1,3,5,7,9,-1,-1,-1,-1,-1,-1],"loss_changes":[9.2944336E-1,8.062744E-1,1.1160631E0,7.463379E-1,1.2375884E0,0E0,0E0,0E0,0E0,0E0,0E0],"parents":[2147483647,0,0,1,1,2,2,3,3,4,4],"right_children":[2,4,6,8,10,-1,-1,-1,-1,-1,-1],"split_conditions":[2.4E1,8E0,8.4E1,3.685E0,4.55E-1,4.403542E-3,-4.8149615E-3,-6.64734E-3,6.703724E-4,-5.0652907E-3,4.439523E-3],"split_indices":[463,998,58,745,59,0,0,0,0,0,0],"split_type":[0,0,0,0,0,0,0,0,0,0,0],"sum_hessian":[3.2954348E3,3.2920276E3,3.4071243E0,3.2882188E3,3.8089168E0,1.3168014E0,2.0903227E0,3.2869993E3,1.2193614E0,2.496601E0,1.3123156E0],"tree_param":{"num_deleted":"0","num_feature":"1093","num_nodes":"11","size_leaf_vector":"1"}},{"base_weights":[2.915603E-1,1.6062795E-1,3.0801168E-1,3.9023003E-1,9.4514444E-2,9.959479E-1,3.0498552E-1,6.216328E-3,-8.4119994E-4,4.195788E-3,2.5079606E-4,-1.5103068E-3,1.1776009E-2,1.4296229E-3,3.179376E-3],"categories":[],"categories_nodes":[],"categories_segments":[],"categories_sizes":[],"default_left":[0,0,0,0,0,0,0,0,0,0,0,0,0,0,0],"id":78,"left_children":[1,3,5,7,9,11,13,-1,-1,-1,-1,-1,-1,-1,-1],"loss_changes":[8.091095E0,6.398452E0,6.6834106E0,1.0420927E1,7.448657E0,3.1485415E0,6.970093E0,0E0,0E0,0E0,0E0,0E0,0E0,0E0,0E0],"parents":[2147483647,0,0,1,1,2,2,3,3,4,4,5,5,6,6],"right_children":[2,4,6,8,10,12,14,-1,-1,-1,-1,-1,-1,-1,-1],"split_conditions":[1.213E0,4E0,-5.53E1,2.13E-1,1.58E-1,1.013E0,3.3E-2,6.216328E-3,-8.4119994E-4,4.195788E-3,2.5079606E-4,-1.5103068E-3,1.1776009E-2,1.4296229E-3,3.179376E-3],"split_indices":[694,454,970,829,927,349,182,0,0,0,0,0,0,0,0],"split_type":[0,0,0,0,0,0,0,0,0,0,0,0,0,0,0],"sum_hessian":[3.778248E3,4.2294064E2,3.3553076E3,9.3461334E1,3.294793E2,1.3258018E1,3.3420496E3,6.260847E1,3.0852863E1,5.7103275E1,2.7237604E2,1.835708E0,1.142231E1,2.4827753E2,3.093772E3],"tree_param":{"num_deleted":"0","num_feature":"1093","num_nodes":"15","size_leaf_vector":"1"}},{"base_weights":[2.831991E-1,2.7815068E-1,6.509266E-1,3.2160038E-1,2.3415357E-1,-5.946141E-3,7.594882E-1,-4.7977236E-3,3.272684E-3,2.4311133E-3,-2.3642832E-3,8.516063E-3,-3.6538015E-3],"categories":[],"categories_nodes":[],"categories_segments":[],"categories_sizes":[],"default_left":[0,0,0,0,0,0,0,0,0,0,0,0,0],"id":79,"left_children":[1,3,5,7,9,-1,11,-1,-1,-1,-1,-1,-1],"loss_changes":[6.827606E0,7.0473633E0,7.264162E0,8.659851E0,7.876877E0,0E0,5.158741E0,0E0,0E0,0E0,0E0,0E0,0E0],"parents":[2147483647,0,0,1,1,2,2,3,3,4,4,6,6],"right_children":[2,4,6,8,10,-1,12,-1,-1,-1,-1,-1,-1],"split_conditions":[1.037E1,1.6E1,5E0,6.7E-2,6E0,-5.946141E-3,1.561E0,-4.7977236E-3,3.272684E-3,2.4311133E-3,-2.3642832E-3,8.516063E-3,-3.6538015E-3],"split_indices":[890,84,87,948,1058,0,302,0,0,0,0,0,0],"split_type":[0,0,0,0,0,0,0,0,0,0,0,0,0],"sum_hessian":[3.7743064E3,3.7249243E3,4.938208E1,1.8709469E3,1.8539774E3,3.6001322E0,4.5781948E1,1.2552705E1,1.8583942E3,1.8198196E3,3.4157818E1,4.254109E1,3.2408607E0],"tree_param":{"num_deleted":"0","num_feature":"1093","num_nodes":"13","size_leaf_vector":"1"}},{"base_weights":[-6.613897E-1,-6.6193515E-1,-1.0478184E-1,-6.624786E-1,-1.5337154E-1,-4.80184E-3,4.4034272E-3,-6.627715E-3,6.958555E-4,-5.052995E-3,4.4439863E-3],"categories":[],"categories_nodes":[],"categories_segments":[],"categories_sizes":[],"default_left":[0,0,0,0,0,0,0,0,0,0,0],"id":80,"left_children":[1,3,5,7,9,-1,-1,-1,-1,-1,-1],"loss_changes":[9.272461E-1,8.048096E-1,1.1121906E0,7.484131E-1,1.2347876E0,0E0,0E0,0E0,0E0,0E0,0E0],"parents":[2147483647,0,0,1,1,2,2,3,3,4,4],"right_children":[2,4,6,8,10,-1,-1,-1,-1,-1,-1],"split_conditions":[2.4E1,8E0,5.15E-1,5.52E0,3.7E-1,-4.80184E-3,4.4034272E-3,-6.627715E-3,6.958555E-4,-5.052995E-3,4.4439863E-3],"split_indices":[463,998,113,691,62,0,0,0,0,0,0],"split_type":[0,0,0,0,0,0,0,0,0,0,0],"sum_hessian":[3.281546E3,3.2781443E3,3.4015872E0,3.2743423E3,3.8021264E0,2.0849252E0,1.3166621E0,3.2731274E3,1.2147437E0,2.4905474E0,1.3115789E0],"tree_param":{"num_deleted":"0","num_feature":"1093","num_nodes":"11","size_leaf_vector":"1"}},{"base_weights":[2.8914326E-1,1.5910432E-1,3.0547655E-1,8.946297E-2,3.7437832E-1,3.201755E-1,1.697274E-1,1.7795356E-3,-1.9001056E-3,-2.4501383E-4,5.5566775E-3,4.4773486E-3,2.9936885E-3,4.3764315E-3,8.858882E-4],"categories":[],"categories_nodes":[],"categories_segments":[],"categories_sizes":[],"default_left":[0,0,0,0,0,0,0,0,0,0,0,0,0,0,0],"id":81,"left_children":[1,3,5,7,9,11,13,-1,-1,-1,-1,-1,-1,-1,-1],"loss_changes":[7.9875183E0,6.327364E0,6.6506653E0,7.9944344E0,7.490243E0,7.910095E0,7.1442347E0,0E0,0E0,0E0,0E0,0E0,0E0,0E0,0E0],"parents":[2147483647,0,0,1,1,2,2,3,3,4,4,5,5,6,6],"right_children":[2,4,6,8,10,12,14,-1,-1,-1,-1,-1,-1,-1,-1],"split_conditions":[1.213E0,5.6E0,2.635E0,5E0,2.8E1,1.631E0,8.8E-2,1.7795356E-3,-1.9001056E-3,-2.4501383E-4,5.5566775E-3,4.4773486E-3,2.9936885E-3,4.3764315E-3,8.858882E-4],