{"learner":{"attributes":{"num_features":"1681"},"feature_names":[],"feature_types":[],"gradient_booster":{"model":{"gbtree_model_param":{"num_parallel_tree":"1","num_trees":"1500"},"iteration_indptr":[0,2,4,6,8,10,12,14,16,18,20,22,24,26,28,30,32,34,36,38,40,42,44,46,48,50,52,54,56,58,60,62,64,66,68,70,72,74,76,78,80,82,84,86,88,90,92,94,96,98,100,102,104,106,108,110,112,114,116,118,120,122,124,126,128,130,132,134,136,138,140,142,144,146,148,150,152,154,156,158,160,162,164,166,168,170,172,174,176,178,180,182,184,186,188,190,192,194,196,198,200,202,204,206,208,210,212,214,216,218,220,222,224,226,228,230,232,234,236,238,240,242,244,246,248,250,252,254,256,258,260,262,264,266,268,270,272,274,276,278,280,282,284,286,288,290,292,294,296,298,300,302,304,306,308,310,312,314,316,318,320,322,324,326,328,330,332,334,336,338,340,342,344,346,348,350,352,354,356,358,360,362,364,366,368,370,372,374,376,378,380,382,384,386,388,390,392,394,396,398,400,402,404,406,408,410,412,414,416,418,420,422,424,426,428,430,432,434,436,438,440,442,444,446,448,450,452,454,456,458,460,462,464,466,468,470,472,474,476,478,480,482,484,486,488,490,492,494,496,498,500,502,504,506,508,510,512,514,516,518,520,522,524,526,528,530,532,534,536,538,540,542,544,546,548,550,552,554,556,558,560,562,564,566,568,570,572,574,576,578,580,582,584,586,588,590,592,594,596,598,600,602,604,606,608,610,612,614,616,618,620,622,624,626,628,630,632,634,636,638,640,642,644,646,648,650,652,654,656,658,660,662,664,666,668,670,672,674,676,678,680,682,684,686,688,690,692,694,696,698,700,702,704,706,708,710,712,714,716,718,720,722,724,726,728,730,732,734,736,738,740,742,744,746,748,750,752,754,756,758,760,762,764,766,768,770,772,774,776,778,780,782,784,786,788,790,792,794,796,798,800,802,804,806,808,810,812,814,816,818,820,822,824,826,828,830,832,834,836,838,840,842,844,846,848,850,852,854,856,858,860,862,864,866,868,870,872,874,876,878,880,882,884,886,888,890,892,894,896,898,900,902,904,906,908,910,912,914,916,918,920,922,924,926,928,930,932,934,936,938,940,942,944,946,948,950,952,954,956,958,960,962,964,966,968,970,972,974,976,978,980,982,984,986,988,990,992,994,996,998,1000,1002,1004,1006,1008,1010,1012,1014,1016,1018,1020,1022,1024,1026,1028,1030,1032,1034,1036,1038,1040,1042,1044,1046,1048,1050,1052,1054,1056,1058,1060,1062,1064,1066,1068,1070,1072,1074,1076,1078,1080,1082,1084,1086,1088,1090,1092,1094,1096,1098,1100,1102,1104,1106,1108,1110,1112,1114,1116,1118,1120,1122,1124,1126,1128,1130,1132,1134,1136,1138,1140,1142,1144,1146,1148,1150,1152,1154,1156,1158,1160,1162,1164,1166,1168,1170,1172,1174,1176,1178,1180,1182,1184,1186,1188,1190,1192,1194,1196,1198,1200,1202,1204,1206,1208,1210,1212,1214,1216,1218,1220,1222,1224,1226,1228,1230,1232,1234,1236,1238,1240,1242,1244,1246,1248,1250,1252,1254,1256,1258,1260,1262,1264,1266,1268,1270,1272,1274,1276,1278,1280,1282,1284,1286,1288,1290,1292,1294,1296,1298,1300,1302,1304,1306,1308,1310,1312,1314,1316,1318,1320,1322,1324,1326,1328,1330,1332,1334,1336,1338,1340,1342,1344,1346,1348,1350,1352,1354,1356,1358,1360,1362,1364,1366,1368,1370,1372,1374,1376,1378,1380,1382,1384,1386,1388,1390,1392,1394,1396,1398,1400,1402,1404,1406,1408,1410,1412,1414,1416,1418,1420,1422,1424,1426,1428,1430,1432,1434,1436,1438,1440,1442,1444,1446,1448,1450,1452,1454,1456,1458,1460,1462,1464,1466,1468,1470,1472,1474,1476,1478,1480,1482,1484,1486,1488,1490,1492,1494,1496,1498,1500],"tree_info":[0,1,0,1,0,1,0,1,0,1,0,1,0,1,0,1,0,1,0,1,0,1,0,1,0,1,0,1,0,1,0,1,0,1,0,1,0,1,0,1,0,1,0,1,0,1,0,1,0,1,0,1,0,1,0,1,0,1,0,1,0,1,0,1,0,1,0,1,0,1,0,1,0,1,0,1,0,1,0,1,0,1,0,1,0,1,0,1,0,1,0,1,0,1,0,1,0,1,0,1,0,1,0,1,0,1,0,1,0,1,0,1,0,1,0,1,0,1,0,1,0,1,0,1,0,1,0,1,0,1,0,1,0,1,0,1,0,1,0,1,0,1,0,1,0,1,0,1,0,1,0,1,0,1,0,1,0,1,0,1,0,1,0,1,0,1,0,1,0,1,0,1,0,1,0,1,0,1,0,1,0,1,0,1,0,1,0,1,0,1,0,1,0,1,0,1,0,1,0,1,0,1,0,1,0,1,0,1,0,1,0,1,0,1,0,1,0,1,0,1,0,1,0,1,0,1,0,1,0,1,0,1,0,1,0,1,0,1,0,1,0,1,0,1,0,1,0,1,0,1,0,1,0,1,0,1,0,1,0,1,0,1,0,1,0,1,0,1,0,1,0,1,0,1,0,1,0,1,0,1,0,1,0,1,0,1,0,1,0,1,0,1,0,1,0,1,0,1,0,1,0,1,0,1,0,1,0,1,0,1,0,1,0,1,0,1,0,1,0,1,0,1,0,1,0,1,0,1,0,1,0,1,0,1,0,1,0,1,0,1,0,1,0,1,0,1,0,1,0,1,0,1,0,1,0,1,0,1,0,1,0,1,0,1,0,1,0,1,0,1,0,1,0,1,0,1,0,1,0,1,0,1,0,1,0,1,0,1,0,1,0,1,0,1,0,1,0,1,0,1,0,1,0,1,0,1,0,1,0,1,0,1,0,1,0,1,0,1,0,1,0,1,0,1,0,1,0,1,0,1,0,1,0,1,0,1,0,1,0,1,0,1,0,1,0,1,0,1,0,1,0,1,0,1,0,1,0,1,0,1,0,1,0,1,0,1,0,1,0,1,0,1,0,1,0,1,0,1,0,1,0,1,0,1,0,1,0,1,0,1,0,1,0,1,0,1,0,1,0,1,0,1,0,1,0,1,0,1,0,1,0,1,0,1,0,1,0,1,0,1,0,1,0,1,0,1,0,1,0,1,0,1,0,1,0,1,0,1,0,1,0,1,0,1,0,1,0,1,0,1,0,1,0,1,0,1,0,1,0,1,0,1,0,1,0,1,0,1,0,1,0,1,0,1,0,1,0,1,0,1,0,1,0,1,0,1,0,1,0,1,0,1,0,1,0,1,0,1,0,1,0,1,0,1,0,1,0,1,0,1,0,1,0,1,0,1,0,1,0,1,0,1,0,1,0,1,0,1,0,1,0,1,0,1,0,1,0,1,0,1,0,1,0,1,0,1,0,1,0,1,0,1,0,1,0,1,0,1,0,1,0,1,0,1,0,1,0,1,0,1,0,1,0,1,0,1,0,1,0,1,0,1,0,1,0,1,0,1,0,1,0,1,0,1,0,1,0,1,0,1,0,1,0,1,0,1,0,1,0,1,0,1,0,1,0,1,0,1,0,1,0,1,0,1,0,1,0,1,0,1,0,1,0,1,0,1,0,1,0,1,0,1,0,1,0,1,0,1,0,1,0,1,0,1,0,1,0,1,0,1,0,1,0,1,0,1,0,1,0,1,0,1,0,1,0,1,0,1,0,1,0,1,0,1,0,1,0,1,0,1,0,1,0,1,0,1,0,1,0,1,0,1,0,1,0,1,0,1,0,1,0,1,0,1,0,1,0,1,0,1,0,1,0,1,0,1,0,1,0,1,0,1,0,1,0,1,0,1,0,1,0,1,0,1,0,1,0,1,0,1,0,1,0,1,0,1,0,1,0,1,0,1,0,1,0,1,0,1,0,1,0,1,0,1,0,1,0,1,0,1,0,1,0,1,0,1,0,1,0,1,0,1,0,1,0,1,0,1,0,1,0,1,0,1,0,1,0,1,0,1,0,1,0,1,0,1,0,1,0,1,0,1,0,1,0,1,0,1,0,1,0,1,0,1,0,1,0,1,0,1,0,1,0,1,0,1,0,1,0,1,0,1,0,1,0,1,0,1,0,1,0,1,0,1,0,1,0,1,0,1,0,1,0,1,0,1,0,1,0,1,0,1,0,1,0,1,0,1,0,1,0,1,0,1,0,1,0,1,0,1,0,1,0,1,0,1,0,1,0,1,0,1,0,1,0,1,0,1,0,1,0,1,0,1,0,1,0,1,0,1,0,1,0,1,0,1,0,1,0,1,0,1,0,1,0,1,0,1,0,1,0,1,0,1,0,1,0,1,0,1,0,1,0,1,0,1,0,1,0,1,0,1,0,1,0,1,0,1,0,1,0,1,0,1,0,1,0,1,0,1,0,1,0,1,0,1,0,1,0,1,0,1,0,1,0,1,0,1,0,1,0,1,0,1,0,1,0,1,0,1,0,1,0,1,0,1,0,1,0,1,0,1,0,1,0,1,0,1,0,1,0,1,0,1,0,1,0,1,0,1,0,1,0,1,0,1,0,1,0,1,0,1,0,1,0,1,0,1,0,1,0,1,0,1,0,1,0,1,0,1,0,1,0,1,0,1,0,1,0,1,0,1,0,1,0,1,0,1,0,1,0,1,0,1,0,1,0,1,0,1,0,1,0,1,0,1,0,1,0,1,0,1,0,1,0,1,0,1,0,1,0,1,0,1,0,1,0,1,0,1,0,1,0,1,0,1,0,1,0,1,0,1,0,1,0,1,0,1,0,1,0,1,0,1,0,1,0,1,0,1,0,1,0,1,0,1,0,1,0,1,0,1,0,1,0,1,0,1,0,1,0,1,0,1,0,1,0,1,0,1,0,1,0,1,0,1,0,1,0,1,0,1,0,1,0,1,0,1,0,1,0,1,0,1,0,1,0,1,0,1,0,1,0,1,0,1,0,1,0,1,0,1,0,1,0,1,0,1,0,1,0,1,0,1,0,1,0,1,0,1,0,1,0,1,0,1,0,1,0,1,0,1,0,1,0,1,0,1,0,1,0,1,0,1,0,1,0,1,0,1,0,1,0,1,0,1,0,1,0,1,0,1,0,1,0,1,0,1,0,1,0,1,0,1,0,1,0,1,0,1,0,1,0,1,0,1,0,1,0,1,0,1,0,1,0,1,0,1,0,1,0,1,0,1,0,1,0,1,0,1,0,1,0,1,0,1,0,1,0,1,0,1,0,1,0,1,0,1,0,1,0,1,0,1,0,1,0,1,0,1,0,1,0,1,0,1,0,1,0,1,0,1,0,1,0,1,0,1,0,1],"trees":[{"base_weights":[-1.7467164E-1,-4.344978E-1,-1.177454E-1,-2.6929674E-1,-7.1940297E-1,-7.797538E-2,-3.895131E-1,-2.020202E-4,-3.9534885E-3,-7.9333335E-3,-8.108108E-4,-2.4727273E-3,-4.7956227E-4,-2.079208E-3,-6.223176E-3],"categories":[],"categories_nodes":[],"categories_segments":[],"categories_sizes":[],"default_left":[0,0,0,0,0,0,0,0,0,0,0,0,0,0,0],"id":0,"left_children":[1,3,5,7,9,11,13,-1,-1,-1,-1,-1,-1,-1,-1],"loss_changes":[3.7673088E1,2.1362785E1,2.2596615E1,9.144796E0,7.840233E0,9.275792E0,1.1158165E1,0E0,0E0,0E0,0E0,0E0,0E0,0E0,0E0],"parents":[2147483647,0,0,1,1,2,2,3,3,4,4,5,5,6,6],"right_children":[2,4,6,8,10,12,14,-1,-1,-1,-1,-1,-1,-1,-1],"split_conditions":[-5E0,6E0,6.9E0,2.795E0,2.2E1,9.173E1,5E0,-2.020202E-4,-3.9534885E-3,-7.9333335E-3,-8.108108E-4,-2.4727273E-3,-4.7956227E-4,-2.079208E-3,-6.223176E-3],"split_indices":[25,1680,77,1326,80,471,1680,0,0,0,0,0,0,0,0],"split_type":[0,0,0,0,0,0,0,0,0,0,0,0,0,0,0],"sum_hessian":[2.5495E3,4.57E2,2.0925E3,2.905E2,1.665E2,1.8265E3,2.66E2,9.8E1,1.925E2,1.49E2,1.75E1,2.74E2,1.5525E3,1.505E2,1.155E2],"tree_param":{"num_deleted":"0","num_feature":"1681","num_nodes":"15","size_leaf_vector":"1"}},{"base_weights":[1.7467164E-1,4.344978E-1,1.177454E-1,2.6929674E-1,7.1940297E-1,7.797538E-2,3.895131E-1,2.020202E-4,3.9534885E-3,7.9333335E-3,8.108108E-4,2.4727273E-3,4.7956227E-4,2.079208E-3,6.223176E-3],"categories":[],"categories_nodes":[],"categories_segments":[],"categories_sizes":[],"default_left":[0,0,0,0,0,0,0,0,0,0,0,0,0,0,0],"id":1,"left_children":[1,3,5,7,9,11,13,-1,-1,-1,-1,-1,-1,-1,-1],"loss_changes":[3.7673088E1,2.1362785E1,2.2596615E1,9.144796E0,7.840233E0,9.275792E0,1.1158165E1,0E0,0E0,0E0,0E0,0E0,0E0,0E0,0E0],"parents":[2147483647,0,0,1,1,2,2,3,3,4,4,5,5,6,6],"right_children":[2,4,6,8,10,12,14,-1,-1,-1,-1,-1,-1,-1,-1],"split_conditions":[-5E0,6E0,6.9E0,2.795E0,2.2E1,9.173E1,5E0,2.020202E-4,3.9534885E-3,7.9333335E-3,8.108108E-4,2.4727273E-3,4.7956227E-4,2.079208E-3,6.223176E-3],"split_indices":[25,1680,77,1326,80,471,1680,0,0,0,0,0,0,0,0],"split_type":[0,0,0,0,0,0,0,0,0,0,0,0,0,0,0],"sum_hessian":[2.5495E3,4.57E2,2.0925E3,2.905E2,1.665E2,1.8265E3,2.66E2,9.8E1,1.925E2,1.49E2,1.75E1,2.74E2,1.5525E3,1.505E2,1.155E2],"tree_param":{"num_deleted":"0","num_feature":"1681","num_nodes":"15","size_leaf_vector":"1"}},{"base_weights":[-1.7293572E-1,-4.301927E-1,-1.1657372E-1,-2.6662078E-1,-7.1230125E-1,-7.719732E-2,-3.8565648E-1,-2.0002002E-4,-3.914219E-3,-7.855021E-3,-8.031412E-4,-2.4481055E-3,-4.7476968E-4,-2.0585617E-3,-6.1617144E-3],"categories":[],"categories_nodes":[],"categories_segments":[],"categories_sizes":[],"default_left":[0,0,0,0,0,0,0,0,0,0,0,0,0,0,0],"id":2,"left_children":[1,3,5,7,9,11,13,-1,-1,-1,-1,-1,-1,-1,-1],"loss_changes":[3.6930595E1,2.094394E1,2.2151857E1,8.963951E0,7.685364E0,9.092102E0,1.0939201E1,0E0,0E0,0E0,0E0,0E0,0E0,0E0,0E0],"parents":[2147483647,0,0,1,1,2,2,3,3,4,4,5,5,6,6],"right_children":[2,4,6,8,10,12,14,-1,-1,-1,-1,-1,-1,-1,-1],"split_conditions":[-5E0,6E0,6.9E0,2.795E0,2.2E1,9.173E1,5E0,-2.0002002E-4,-3.914219E-3,-7.855021E-3,-8.031412E-4,-2.4481055E-3,-4.7476968E-4,-2.0585617E-3,-6.1617144E-3],"split_indices":[25,1680,77,1326,80,471,1680,0,0,0,0,0,0,0,0],"split_type":[0,0,0,0,0,0,0,0,0,0,0,0,0,0,0],"sum_hessian":[2.5494805E3,4.5698758E2,2.092493E3,2.9049698E2,1.664906E2,1.8264979E3,2.6599487E2,9.799999E1,1.92497E2,1.4899062E2,1.749999E1,2.739983E2,1.5524996E3,1.5049936E2,1.1549553E2],"tree_param":{"num_deleted":"0","num_feature":"1681","num_nodes":"15","size_leaf_vector":"1"}},{"base_weights":[1.7293572E-1,4.3019274E-1,1.1657371E-1,2.6662084E-1,7.1230125E-1,7.7197306E-2,3.856565E-1,2.0002121E-4,3.914219E-3,7.855021E-3,8.03141E-4,2.4481046E-3,4.7476968E-4,2.0585617E-3,6.161716E-3],"categories":[],"categories_nodes":[],"categories_segments":[],"categories_sizes":[],"default_left":[0,0,0,0,0,0,0,0,0,0,0,0,0,0,0],"id":3,"left_children":[1,3,5,7,9,11,13,-1,-1,-1,-1,-1,-1,-1,-1],"loss_changes":[3.6930595E1,2.094394E1,2.2151863E1,8.9639435E0,7.685379E0,9.092094E0,1.0939209E1,0E0,0E0,0E0,0E0,0E0,0E0,0E0,0E0],"parents":[2147483647,0,0,1,1,2,2,3,3,4,4,5,5,6,6],"right_children":[2,4,6,8,10,12,14,-1,-1,-1,-1,-1,-1,-1,-1],"split_conditions":[-5E0,6E0,6.9E0,2.795E0,2.2E1,9.173E1,5E0,2.0002121E-4,3.914219E-3,7.855021E-3,8.03141E-4,2.4481046E-3,4.7476968E-4,2.0585617E-3,6.161716E-3],"split_indices":[25,1680,77,1326,80,471,1680,0,0,0,0,0,0,0,0],"split_type":[0,0,0,0,0,0,0,0,0,0,0,0,0,0,0],"sum_hessian":[2.5494805E3,4.569876E2,2.092493E3,2.9049698E2,1.6649062E2,1.8264979E3,2.6599487E2,9.799999E1,1.92497E2,1.4899062E2,1.7499989E1,2.7399832E2,1.5524996E3,1.5049934E2,1.1549552E2],"tree_param":{"num_deleted":"0","num_feature":"1681","num_nodes":"15","size_leaf_vector":"1"}},{"base_weights":[-1.7121974E-1,-4.2595306E-1,-1.1541455E-1,-2.639768E-1,-7.0534754E-1,-7.642726E-2,-3.818526E-1,-1.9803991E-4,-3.875458E-3,-7.778441E-3,-7.955463E-4,-2.4237572E-3,-4.7002613E-4,-2.038138E-3,-6.101324E-3],"categories":[],"categories_nodes":[],"categories_segments":[],"categories_sizes":[],"default_left":[0,0,0,0,0,0,0,0,0,0,0,0,0,0,0],"id":4,"left_children":[1,3,5,7,9,11,13,-1,-1,-1,-1,-1,-1,-1,-1],"loss_changes":[3.6206223E1,2.0538506E1,2.1717165E1,8.787159E0,7.5355377E0,8.912205E0,1.0726418E1,0E0,0E0,0E0,0E0,0E0,0E0,0E0,0E0],"parents":[2147483647,0,0,1,1,2,2,3,3,4,4,5,5,6,6],"right_children":[2,4,6,8,10,12,14,-1,-1,-1,-1,-1,-1,-1,-1],"split_conditions":[-5E0,6E0,6.9E0,2.795E0,2.2E1,9.173E1,5E0,-1.9803991E-4,-3.875458E-3,-7.778441E-3,-7.955463E-4,-2.4237572E-3,-4.7002613E-4,-2.038138E-3,-6.101324E-3],"split_indices":[25,1680,77,1326,80,471,1680,0,0,0,0,0,0,0,0],"split_type":[0,0,0,0,0,0,0,0,0,0,0,0,0,0,0],"sum_hessian":[2.5494226E3,4.569509E2,2.0924717E3,2.904881E2,1.6646281E2,1.826492E3,2.659797E2,9.7999985E1,1.924881E2,1.4896288E2,1.7499952E1,2.7399335E2,1.5524987E3,1.5049742E2,1.1548228E2],"tree_param":{"num_deleted":"0","num_feature":"1681","num_nodes":"15","size_leaf_vector":"1"}},{"base_weights":[1.7121966E-1,4.2595306E-1,1.1541446E-1,2.6397684E-1,7.0534754E-1,7.642717E-2,3.8185254E-1,1.980411E-4,3.8754574E-3,7.778441E-3,7.955454E-4,2.4237575E-3,4.7002494E-4,2.038138E-3,6.1013238E-3],"categories":[],"categories_nodes":[],"categories_segments":[],"categories_sizes":[],"default_left":[0,0,0,0,0,0,0,0,0,0,0,0,0,0,0],"id":5,"left_children":[1,3,5,7,9,11,13,-1,-1,-1,-1,-1,-1,-1,-1],"loss_changes":[3.6206245E1,2.0538483E1,2.1717176E1,8.787151E0,7.535553E0,8.912218E0,1.072641E1,0E0,0E0,0E0,0E0,0E0,0E0,0E0,0E0],"parents":[2147483647,0,0,1,1,2,2,3,3,4,4,5,5,6,6],"right_children":[2,4,6,8,10,12,14,-1,-1,-1,-1,-1,-1,-1,-1],"split_conditions":[-5E0,6E0,6.9E0,2.795E0,2.2E1,9.173E1,5E0,1.980411E-4,3.8754574E-3,7.778441E-3,7.955454E-4,2.4237575E-3,4.7002494E-4,2.038138E-3,6.1013238E-3],"split_indices":[25,1680,77,1326,80,471,1680,0,0,0,0,0,0,0,0],"split_type":[0,0,0,0,0,0,0,0,0,0,0,0,0,0,0],"sum_hessian":[2.5494226E3,4.569509E2,2.0924717E3,2.9048807E2,1.6646283E2,1.826492E3,2.659797E2,9.7999985E1,1.9248808E2,1.4896288E2,1.7499954E1,2.7399338E2,1.5524987E3,1.5049742E2,1.15482285E2],"tree_param":{"num_deleted":"0","num_feature":"1681","num_nodes":"15","size_leaf_vector":"1"}},{"base_weights":[-1.6952322E-1,-4.217771E-1,-1.1426758E-1,-2.6136425E-1,-6.9853663E-1,-7.5664945E-2,-3.781001E-1,-1.9607988E-4,-3.8371952E-3,-7.703528E-3,-7.8802294E-4,-2.3996786E-3,-4.6532898E-4,-2.017934E-3,-6.041968E-3],"categories":[],"categories_nodes":[],"categories_segments":[],"categories_sizes":[],"default_left":[0,0,0,0,0,0,0,0,0,0,0,0,0,0,0],"id":6,"left_children":[1,3,5,7,9,11,13,-1,-1,-1,-1,-1,-1,-1,-1],"loss_changes":[3.549942E1,2.0145844E1,2.1292269E1,8.614307E0,7.390518E0,8.736042E0,1.0519524E1,0E0,0E0,0E0,0E0,0E0,0E0,0E0,0E0],"parents":[2147483647,0,0,1,1,2,2,3,3,4,4,5,5,6,6],"right_children":[2,4,6,8,10,12,14,-1,-1,-1,-1,-1,-1,-1,-1],"split_conditions":[-5E0,6E0,6.9E0,2.795E0,2.2E1,9.173E1,5E0,-1.9607988E-4,-3.8371952E-3,-7.703528E-3,-7.8802294E-4,-2.3996786E-3,-4.6532898E-4,-2.017934E-3,-6.041968E-3],"split_indices":[25,1680,77,1326,80,471,1680,0,0,0,0,0,0,0,0],"split_type":[0,0,0,0,0,0,0,0,0,0,0,0,0,0,0],"sum_hessian":[2.5493274E3,4.568906E2,2.0924368E3,2.9047342E2,1.6641719E2,1.826482E3,2.659548E2,9.799996E1,1.9247345E2,1.489173E2,1.7499899E1,2.7398523E2,1.5524967E3,1.5049425E2,1.1546055E2],"tree_param":{"num_deleted":"0","num_feature":"1681","num_nodes":"15","size_leaf_vector":"1"}},{"base_weights":[1.6952324E-1,4.217771E-1,1.14267595E-1,2.6136428E-1,6.9853663E-1,7.566497E-2,3.781001E-1,1.9607988E-4,3.8371955E-3,7.7035283E-3,7.8802294E-4,2.3996786E-3,4.6532924E-4,2.0179343E-3,6.041968E-3],"categories":[],"categories_nodes":[],"categories_segments":[],"categories_sizes":[],"default_left":[0,0,0,0,0,0,0,0,0,0,0,0,0,0,0],"id":7,"left_children":[1,3,5,7,9,11,13,-1,-1,-1,-1,-1,-1,-1,-1],"loss_changes":[3.5499413E1,2.0145844E1,2.1292269E1,8.614304E0,7.3905334E0,8.736035E0,1.0519524E1,0E0,0E0,0E0,0E0,0E0,0E0,0E0,0E0],"parents":[2147483647,0,0,1,1,2,2,3,3,4,4,5,5,6,6],"right_children":[2,4,6,8,10,12,14,-1,-1,-1,-1,-1,-1,-1,-1],"split_conditions":[-5E0,6E0,6.9E0,2.795E0,2.2E1,9.173E1,5E0,1.9607988E-4,3.8371955E-3,7.7035283E-3,7.8802294E-4,2.3996786E-3,4.6532924E-4,2.0179343E-3,6.041968E-3],"split_indices":[25,1680,77,1326,80,471,1680,0,0,0,0,0,0,0,0],"split_type":[0,0,0,0,0,0,0,0,0,0,0,0,0,0,0],"sum_hessian":[2.5493274E3,4.568906E2,2.0924368E3,2.9047342E2,1.6641718E2,1.826482E3,2.659548E2,9.799996E1,1.9247346E2,1.4891727E2,1.7499899E1,2.7398523E2,1.5524968E3,1.5049426E2,1.1546054E2],"tree_param":{"num_deleted":"0","num_feature":"1681","num_nodes":"15","size_leaf_vector":"1"}},{"base_weights":[-1.6784593E-1,-4.1766304E-1,-1.1313274E-1,-2.5878245E-1,-6.918635E-1,-7.4910395E-2,-3.743978E-1,-1.9413877E-4,-3.7994187E-3,-7.6302215E-3,-7.805721E-4,-2.3758668E-3,-4.6067903E-4,-1.9979458E-3,-5.9836158E-3],"categories":[],"categories_nodes":[],"categories_segments":[],"categories_sizes":[],"default_left":[0,0,0,0,0,0,0,0,0,0,0,0,0,0,0],"id":8,"left_children":[1,3,5,7,9,11,13,-1,-1,-1,-1,-1,-1,-1,-1],"loss_changes":[3.4809586E1,1.9765396E1,2.0876879E1,8.445278E0,7.2500763E0,8.563517E0,1.0318321E1,0E0,0E0,0E0,0E0,0E0,0E0,0E0,0E0],"parents":[2147483647,0,0,1,1,2,2,3,3,4,4,5,5,6,6],"right_children":[2,4,6,8,10,12,14,-1,-1,-1,-1,-1,-1,-1,-1],"split_conditions":[-5E0,6E0,6.9E0,2.795E0,2.2E1,9.173E1,5E0,-1.9413877E-4,-3.7994187E-3,-7.6302215E-3,-7.805721E-4,-2.3758668E-3,-4.6067903E-4,-1.9979458E-3,-5.9836158E-3],"split_indices":[25,1680,77,1326,80,471,1680,0,0,0,0,0,0,0,0],"split_type":[0,0,0,0,0,0,0,0,0,0,0,0,0,0,0],"sum_hessian":[2.5491963E3,4.5680743E2,2.092389E3,2.9045322E2,1.6635422E2,1.8264684E3,2.6592044E2,9.799994E1,1.924533E2,1.488544E2,1.7499819E1,2.7397397E2,1.5524945E3,1.504899E2,1.1543054E2],"tree_param":{"num_deleted":"0","num_feature":"1681","num_nodes":"15","size_leaf_vector":"1"}},{"base_weights":[1.6784593E-1,4.1766313E-1,1.1313273E-1,2.587825E-1,6.918636E-1,7.49104E-2,3.7439772E-1,1.9413877E-4,3.7994196E-3,7.6302225E-3,7.8057236E-4,2.375867E-3,4.6067903E-4,1.9979447E-3,5.9836158E-3],"categories":[],"categories_nodes":[],"categories_segments":[],"categories_sizes":[],"default_left":[0,0,0,0,0,0,0,0,0,0,0,0,0,0,0],"id":9,"left_children":[1,3,5,7,9,11,13,-1,-1,-1,-1,-1,-1,-1,-1],"loss_changes":[3.4809586E1,1.9765404E1,2.0876863E1,8.445288E0,7.2500687E0,8.563521E0,1.0318329E1,0E0,0E0,0E0,0E0,0E0,0E0,0E0,0E0],"parents":[2147483647,0,0,1,1,2,2,3,3,4,4,5,5,6,6],"right_children":[2,4,6,8,10,12,14,-1,-1,-1,-1,-1,-1,-1,-1],"split_conditions":[-5E0,6E0,6.9E0,2.795E0,2.2E1,9.173E1,5E0,1.9413877E-4,3.7994196E-3,7.6302225E-3,7.8057236E-4,2.375867E-3,4.6067903E-4,1.9979447E-3,5.9836158E-3],"split_indices":[25,1680,77,1326,80,471,1680,0,0,0,0,0,0,0,0],"split_type":[0,0,0,0,0,0,0,0,0,0,0,0,0,0,0],"sum_hessian":[2.5491963E3,4.5680743E2,2.092389E3,2.9045322E2,1.6635422E2,1.8264684E3,2.6592044E2,9.799994E1,1.9245328E2,1.488544E2,1.749982E1,2.7397397E2,1.5524945E3,1.504899E2,1.15430534E2],"tree_param":{"num_deleted":"0","num_feature":"1681","num_nodes":"15","size_leaf_vector":"1"}},{"base_weights":[-1.6618761E-1,-4.1360945E-1,-1.1200993E-1,-2.5623098E-1,-6.853235E-1,-7.41636E-2,-3.707446E-1,-1.922168E-4,-3.7621206E-3,-7.558466E-3,-7.7319227E-4,-2.3523169E-3,-4.5607664E-4,-1.9781704E-3,-5.926237E-3],"categories":[],"categories_nodes":[],"categories_segments":[],"categories_sizes":[],"default_left":[0,0,0,0,0,0,0,0,0,0,0,0,0,0,0],"id":10,"left_children":[1,3,5,7,9,11,13,-1,-1,-1,-1,-1,-1,-1,-1],"loss_changes":[3.413616E1,1.939663E1,2.0470703E1,8.279989E0,7.1140213E0,8.394544E0,1.0122574E1,0E0,0E0,0E0,0E0,0E0,0E0,0E0,0E0],"parents":[2147483647,0,0,1,1,2,2,3,3,4,4,5,5,6,6],"right_children":[2,4,6,8,10,12,14,-1,-1,-1,-1,-1,-1,-1,-1],"split_conditions":[-5E0,6E0,6.9E0,2.795E0,2.2E1,9.173E1,5E0,-1.922168E-4,-3.7621206E-3,-7.558466E-3,-7.7319227E-4,-2.3523169E-3,-4.5607664E-4,-1.9781704E-3,-5.926237E-3],"split_indices":[25,1680,77,1326,80,471,1680,0,0,0,0,0,0,0,0],"split_type":[0,0,0,0,0,0,0,0,0,0,0,0,0,0,0],"sum_hessian":[2.5490303E3,4.5670212E2,2.0923281E3,2.9042764E2,1.6627448E2,1.8264512E3,2.658769E2,9.7999916E1,1.9242772E2,1.4877475E2,1.7499723E1,2.7395975E2,1.5524915E3,1.5048436E2,1.1539254E2],"tree_param":{"num_deleted":"0","num_feature":"1681","num_nodes":"15","size_leaf_vector":"1"}},{"base_weights":[1.6618763E-1,4.136095E-1,1.1200993E-1,2.5623107E-1,6.853235E-1,7.41636E-2,3.707446E-1,1.9221769E-4,3.7621218E-3,7.558466E-3,7.731925E-4,2.3523169E-3,4.5607664E-4,1.9781704E-3,5.926237E-3],"categories":[],"categories_nodes":[],"categories_segments":[],"categories_sizes":[],"default_left":[0,0,0,0,0,0,0,0,0,0,0,0,0,0,0],"id":11,"left_children":[1,3,5,7,9,11,13,-1,-1,-1,-1,-1,-1,-1,-1],"loss_changes":[3.4136185E1,1.9396614E1,2.0470703E1,8.279987E0,7.1140213E0,8.394544E0,1.0122574E1,0E0,0E0,0E0,0E0,0E0,0E0,0E0,0E0],"parents":[2147483647,0,0,1,1,2,2,3,3,4,4,5,5,6,6],"right_children":[2,4,6,8,10,12,14,-1,-1,-1,-1,-1,-1,-1,-1],"split_conditions":[-5E0,6E0,6.9E0,2.795E0,2.2E1,9.173E1,5E0,1.9221769E-4,3.7621218E-3,7.558466E-3,7.731925E-4,2.3523169E-3,4.5607664E-4,1.9781704E-3,5.926237E-3],"split_indices":[25,1680,77,1326,80,471,1680,0,0,0,0,0,0,0,0],"split_type":[0,0,0,0,0,0,0,0,0,0,0,0,0,0,0],"sum_hessian":[2.5490303E3,4.567021E2,2.0923281E3,2.904276E2,1.6627448E2,1.8264512E3,2.658769E2,9.799991E1,1.9242772E2,1.4877475E2,1.7499723E1,2.7395975E2,1.5524915E3,1.5048436E2,1.1539254E2],"tree_param":{"num_deleted":"0","num_feature":"1681","num_nodes":"15","size_leaf_vector":"1"}},{"base_weights":[-1.6454788E-1,-4.0961462E-1,-1.1089887E-1,-2.5370932E-1,-6.7891186E-1,-7.342431E-2,-3.6713937E-1,-1.9031434E-4,-3.7252898E-3,-7.4882046E-3,-7.658833E-4,-2.3290254E-3,-4.5151933E-4,-1.0714344E-3,-5.1140795E-3],"categories":[],"categories_nodes":[],"categories_segments":[],"categories_sizes":[],"default_left":[0,0,0,0,0,0,0,0,0,0,0,0,0,0,0],"id":12,"left_children":[1,3,5,7,9,11,13,-1,-1,-1,-1,-1,-1,-1,-1],"loss_changes":[3.3478683E1,1.9038994E1,2.007352E1,8.118324E0,6.9821243E0,8.2290535E0,9.953594E0,0E0,0E0,0E0,0E0,0E0,0E0,0E0,0E0],"parents":[2147483647,0,0,1,1,2,2,3,3,4,4,5,5,6,6],"right_children":[2,4,6,8,10,12,14,-1,-1,-1,-1,-1,-1,-1,-1],"split_conditions":[-5E0,6E0,6.9E0,2.795E0,2.2E1,9.173E1,3.5E0,-1.9031434E-4,-3.7252898E-3,-7.4882046E-3,-7.658833E-4,-2.3290254E-3,-4.5151933E-4,-1.0714344E-3,-5.1140795E-3],"split_indices":[25,1680,77,1326,80,471,1680,0,0,0,0,0,0,0,0],"split_type":[0,0,0,0,0,0,0,0,0,0,0,0,0,0,0],"sum_hessian":[2.54883E3,4.5657526E2,2.092255E3,2.9039682E2,1.6617845E2,1.8264303E3,2.658245E2,9.799986E1,1.9239694E2,1.4867885E2,1.7499605E1,2.739426E2,1.5524877E3,9.5485855E1,1.7033864E2],"tree_param":{"num_deleted":"0","num_feature":"1681","num_nodes":"15","size_leaf_vector":"1"}},{"base_weights":[1.6454789E-1,4.0961462E-1,1.1089889E-1,2.5370932E-1,6.789119E-1,7.342433E-2,3.671394E-1,1.9031434E-4,3.7252898E-3,7.4882046E-3,7.658833E-4,2.3290254E-3,4.5151962E-4,1.0714344E-3,5.1140804E-3],"categories":[],"categories_nodes":[],"categories_segments":[],"categories_sizes":[],"default_left":[0,0,0,0,0,0,0,0,0,0,0,0,0,0,0],"id":13,"left_children":[1,3,5,7,9,11,13,-1,-1,-1,-1,-1,-1,-1,-1],"loss_changes":[3.3478683E1,1.9038986E1,2.0073523E1,8.118324E0,6.982132E0,8.2290535E0,9.953598E0,0E0,0E0,0E0,0E0,0E0,0E0,0E0,0E0],"parents":[2147483647,0,0,1,1,2,2,3,3,4,4,5,5,6,6],"right_children":[2,4,6,8,10,12,14,-1,-1,-1,-1,-1,-1,-1,-1],"split_conditions":[-5E0,6E0,6.9E0,2.795E0,2.2E1,9.173E1,3.5E0,1.9031434E-4,3.7252898E-3,7.4882046E-3,7.658833E-4,2.3290254E-3,4.5151962E-4,1.0714344E-3,5.1140804E-3],"split_indices":[25,1680,77,1326,80,471,1680,0,0,0,0,0,0,0,0],"split_type":[0,0,0,0,0,0,0,0,0,0,0,0,0,0,0],"sum_hessian":[2.54883E3,4.5657526E2,2.092255E3,2.9039682E2,1.6617845E2,1.8264304E3,2.658245E2,9.799986E1,1.9239694E2,1.4867885E2,1.7499605E1,2.739426E2,1.5524878E3,9.5485855E1,1.7033864E2],"tree_param":{"num_deleted":"0","num_feature":"1681","num_nodes":"15","size_leaf_vector":"1"}},{"base_weights":[-1.6292553E-1,-3.2381737E-1,-8.257369E-2,-1.7188887E-1,-5.397881E-1,-5.1379494E-2,-2.9652974E-1,-2.0452307E-3,3.9627785E-3,-2.166888E-3,-6.9789556E-3,-7.596908E-4,1.9237298E-3,-3.5619603E-3,2.4702407E-3],"categories":[],"categories_nodes":[],"categories_segments":[],"categories_sizes":[],"default_left":[0,0,0,0,0,0,0,0,0,0,0,0,0,0,0],"id":14,"left_children":[1,3,5,7,9,11,13,-1,-1,-1,-1,-1,-1,-1,-1],"loss_changes":[3.2934387E1,2.7760178E1,1.1342495E1,9.347823E0,1.773243E1,8.923824E0,7.1039257E0,0E0,0E0,0E0,0E0,0E0,0E0,0E0,0E0],"parents":[2147483647,0,0,1,1,2,2,3,3,4,4,5,5,6,6],"right_children":[2,4,6,8,10,12,14,-1,-1,-1,-1,-1,-1,-1,-1],"split_conditions":[4.35E-1,5.45E-1,6.9E0,3.13E1,4E0,1.7169E1,1.6E-1,-2.0452307E-3,3.9627785E-3,-2.166888E-3,-6.9789556E-3,-7.596908E-4,1.9237298E-3,-3.5619603E-3,2.4702407E-3],"split_indices":[3,55,77,1068,1680,1420,1561,0,0,0,0,0,0,0,0],"split_type":[0,0,0,0,0,0,0,0,0,0,0,0,0,0,0],"sum_hessian":[2.5486013E3,8.47862E2,1.7007395E3,4.987813E2,3.490807E2,1.4854108E3,2.1532863E2,4.7229385E2,2.6487442E1,1.1547436E2,2.3360634E2,1.34992E3,1.354907E2,1.9434042E2,2.0988203E1],"tree_param":{"num_deleted":"0","num_feature":"1681","num_nodes":"15","size_leaf_vector":"1"}},{"base_weights":[1.6292554E-1,3.2381737E-1,8.2573704E-2,1.7188889E-1,5.397881E-1,5.1379513E-2,2.9652974E-1,2.0452307E-3,-3.962778E-3,2.1668882E-3,6.9789556E-3,7.59691E-4,-1.9237295E-3,3.5619603E-3,-2.4702407E-3],"categories":[],"categories_nodes":[],"categories_segments":[],"categories_sizes":[],"default_left":[0,0,0,0,0,0,0,0,0,0,0,0,0,0,0],"id":15,"left_children":[1,3,5,7,9,11,13,-1,-1,-1,-1,-1,-1,-1,-1],"loss_changes":[3.2934387E1,2.7760178E1,1.1342491E1,9.347822E0,1.773243E1,8.923823E0,7.1039276E0,0E0,0E0,0E0,0E0,0E0,0E0,0E0,0E0],"parents":[2147483647,0,0,1,1,2,2,3,3,4,4,5,5,6,6],"right_children":[2,4,6,8,10,12,14,-1,-1,-1,-1,-1,-1,-1,-1],"split_conditions":[4.35E-1,5.45E-1,6.9E0,3.13E1,4E0,1.7169E1,1.6E-1,2.0452307E-3,-3.962778E-3,2.1668882E-3,6.9789556E-3,7.59691E-4,-1.9237295E-3,3.5619603E-3,-2.4702407E-3],"split_indices":[3,55,77,1068,1680,1420,1561,0,0,0,0,0,0,0,0],"split_type":[0,0,0,0,0,0,0,0,0,0,0,0,0,0,0],"sum_hessian":[2.5486013E3,8.47862E2,1.7007395E3,4.987813E2,3.490807E2,1.4854108E3,2.1532863E2,4.7229385E2,2.6487442E1,1.1547436E2,2.3360632E2,1.34992E3,1.354907E2,1.9434042E2,2.0988201E1],"tree_param":{"num_deleted":"0","num_feature":"1681","num_nodes":"15","size_leaf_vector":"1"}},{"base_weights":[-1.6131225E-1,-4.0250129E-1,-1.0853918E-1,-2.489764E-1,-6.679601E-1,-7.17627E-2,-3.6011082E-1,-2.7320604E-3,8.550184E-3,-7.3695844E-3,-7.433994E-4,-2.2960086E-3,-4.3784417E-4,-1.9046249E-3,-5.7802126E-3],"categories":[],"categories_nodes":[],"categories_segments":[],"categories_sizes":[],"default_left":[0,0,0,0,0,0,0,0,0,0,0,0,0,0,0],"id":16,"left_children":[1,3,5,7,9,11,13,-1,-1,-1,-1,-1,-1,-1,-1],"loss_changes":[3.240576E1,1.8471046E1,1.9339256E1,8.026615E0,6.7842255E0,8.05974E0,9.749607E0,0E0,0E0,0E0,0E0,0E0,0E0,0E0,0E0],"parents":[2147483647,0,0,1,1,2,2,3,3,4,4,5,5,6,6],"right_children":[2,4,6,8,10,12,14,-1,-1,-1,-1,-1,-1,-1,-1],"split_conditions":[-5E0,6E0,6.9E0,5E0,2.2E1,9.173E1,5E0,-2.7320604E-3,8.550184E-3,-7.3695844E-3,-7.433994E-4,-2.2960086E-3,-4.3784417E-4,-1.9046249E-3,-5.7802126E-3],"split_indices":[25,1680,77,1590,80,471,1680,0,0,0,0,0,0,0,0],"split_type":[0,0,0,0,0,0,0,0,0,0,0,0,0,0,0],"sum_hessian":[2.5483972E3,4.5630716E2,2.09209E3,2.9033392E2,1.659732E2,1.8263821E3,2.657079E2,2.848351E2,5.4988256E0,1.4847414E2,1.7499084E1,2.7391235E2,1.5524698E3,1.5045175E2,1.1525613E2],"tree_param":{"num_deleted":"0","num_feature":"1681","num_nodes":"15","size_leaf_vector":"1"}},{"base_weights":[1.6131227E-1,4.025013E-1,1.085392E-1,2.4897642E-1,6.6796005E-1,7.176272E-2,3.6011088E-1,2.7320608E-3,-8.550184E-3,7.3695844E-3,7.4339873E-4,2.2960086E-3,4.3784434E-4,1.9046252E-3,5.7802135E-3],"categories":[],"categories_nodes":[],"categories_segments":[],"categories_sizes":[],"default_left":[0,0,0,0,0,0,0,0,0,0,0,0,0,0,0],"id":17,"left_children":[1,3,5,7,9,11,13,-1,-1,-1,-1,-1,-1,-1,-1],"loss_changes":[3.240577E1,1.8471024E1,1.9339264E1,8.026617E0,6.7842407E0,8.059742E0,9.749603E0,0E0,0E0,0E0,0E0,0E0,0E0,0E0,0E0],"parents":[2147483647,0,0,1,1,2,2,3,3,4,4,5,5,6,6],"right_children":[2,4,6,8,10,12,14,-1,-1,-1,-1,-1,-1,-1,-1],"split_conditions":[-5E0,6E0,6.9E0,5E0,2.2E1,9.173E1,5E0,2.7320608E-3,-8.550184E-3,7.3695844E-3,7.4339873E-4,2.2960086E-3,4.3784434E-4,1.9046252E-3,5.7802135E-3],"split_indices":[25,1680,77,1590,80,471,1680,0,0,0,0,0,0,0,0],"split_type":[0,0,0,0,0,0,0,0,0,0,0,0,0,0,0],"sum_hessian":[2.5483972E3,4.5630716E2,2.09209E3,2.9033392E2,1.6597322E2,1.8263822E3,2.657079E2,2.848351E2,5.4988256E0,1.4847414E2,1.7499084E1,2.7391235E2,1.5524698E3,1.5045175E2,1.15256134E2],"tree_param":{"num_deleted":"0","num_feature":"1681","num_nodes":"15","size_leaf_vector":"1"}},{"base_weights":[-1.5972173E-1,-3.1804302E-1,-8.068123E-2,-1.6825366E-1,-5.3110313E-1,-5.012727E-2,-2.903291E-1,-2.005885E-3,3.945251E-3,-2.1307652E-3,-6.8688164E-3,-7.447319E-4,1.9119745E-3,-3.4939256E-3,2.473771E-3],"categories":[],"categories_nodes":[],"categories_segments":[],"categories_sizes":[],"default_left":[0,0,0,0,0,0,0,0,0,0,0,0,0,0,0],"id":18,"left_children":[1,3,5,7,9,11,13,-1,-1,-1,-1,-1,-1,-1,-1],"loss_changes":[3.1873505E1,2.6990005E1,1.0885254E1,9.172264E0,1.7183914E1,8.747097E0,6.953905E0,0E0,0E0,0E0,0E0,0E0,0E0,0E0,0E0],"parents":[2147483647,0,0,1,1,2,2,3,3,4,4,5,5,6,6],"right_children":[2,4,6,8,10,12,14,-1,-1,-1,-1,-1,-1,-1,-1],"split_conditions":[4.35E-1,5.45E-1,6.9E0,3.13E1,4E0,1.7169E1,1.6E-1,-2.005885E-3,3.945251E-3,-2.1307652E-3,-6.8688164E-3,-7.447319E-4,1.9119745E-3,-3.4939256E-3,2.473771E-3],"split_indices":[3,55,77,1068,1680,1420,1561,0,0,0,0,0,0,0,0],"split_type":[0,0,0,0,0,0,0,0,0,0,0,0,0,0,0],"sum_hessian":[2.54812E3,8.4750665E2,1.7006134E3,4.9869492E2,3.4881174E2,1.4853749E3,2.1523856E2,4.722075E2,2.6487425E1,1.1546145E2,2.3335028E2,1.3498839E3,1.3549095E2,1.9425154E2,2.0987022E1],"tree_param":{"num_deleted":"0","num_feature":"1681","num_nodes":"15","size_leaf_vector":"1"}},{"base_weights":[1.5972179E-1,3.1804302E-1,8.06813E-2,1.6825366E-1,5.3110313E-1,5.0127346E-2,2.9032916E-1,2.005885E-3,-3.9452515E-3,2.1307645E-3,6.8688164E-3,7.447327E-4,-1.9119739E-3,3.4939263E-3,-2.4737709E-3],"categories":[],"categories_nodes":[],"categories_segments":[],"categories_sizes":[],"default_left":[0,0,0,0,0,0,0,0,0,0,0,0,0,0,0],"id":19,"left_children":[1,3,5,7,9,11,13,-1,-1,-1,-1,-1,-1,-1,-1],"loss_changes":[3.1873474E1,2.6990005E1,1.0885253E1,9.172264E0,1.7183914E1,8.747097E0,6.953907E0,0E0,0E0,0E0,0E0,0E0,0E0,0E0,0E0],"parents":[2147483647,0,0,1,1,2,2,3,3,4,4,5,5,6,6],"right_children":[2,4,6,8,10,12,14,-1,-1,-1,-1,-1,-1,-1,-1],"split_conditions":[4.35E-1,5.45E-1,6.9E0,3.13E1,4E0,1.7169E1,1.6E-1,2.005885E-3,-3.9452515E-3,2.1307645E-3,6.8688164E-3,7.447327E-4,-1.9119739E-3,3.4939263E-3,-2.4737709E-3],"split_indices":[3,55,77,1068,1680,1420,1561,0,0,0,0,0,0,0,0],"split_type":[0,0,0,0,0,0,0,0,0,0,0,0,0,0,0],"sum_hessian":[2.5481199E3,8.4750665E2,1.7006133E3,4.9869492E2,3.4881174E2,1.4853748E3,2.1523856E2,4.722075E2,2.6487425E1,1.1546145E2,2.333503E2,1.3498838E3,1.3549094E2,1.9425153E2,2.0987024E1],"tree_param":{"num_deleted":"0","num_feature":"1681","num_nodes":"15","size_leaf_vector":"1"}},{"base_weights":[-1.5814373E-1,-3.9553857E-1,-1.06232174E-1,-2.4430422E-1,-6.5737575E-1,-6.647441E-2,-3.3157817E-1,-1.2234395E-4,-3.6190234E-3,-7.2551826E-3,-7.2145264E-4,-4.8136598E-4,-3.3162637E-3,-2.0486575E-3,-5.7329577E-3],"categories":[],"categories_nodes":[],"categories_segments":[],"categories_sizes":[],"default_left":[0,0,0,0,0,0,0,0,0,0,0,0,0,0,0],"id":20,"left_children":[1,3,5,7,9,11,13,-1,-1,-1,-1,-1,-1,-1,-1],"loss_changes":[3.1368942E1,1.7935486E1,1.8728535E1,7.944481E0,6.5963364E0,8.640179E0,9.488258E0,0E0,0E0,0E0,0E0,0E0,0E0,0E0,0E0],"parents":[2147483647,0,0,1,1,2,2,3,3,4,4,5,5,6,6],"right_children":[2,4,6,8,10,12,14,-1,-1,-1,-1,-1,-1,-1,-1],"split_conditions":[-5E0,6E0,7.08E-1,2.795E0,2.2E1,1.974E0,1.5E1,-1.2234395E-4,-3.6190234E-3,-7.2551826E-3,-7.2145264E-4,-4.8136598E-4,-3.3162637E-3,-2.0486575E-3,-5.7329577E-3],"split_indices":[25,1680,55,1326,80,1618,29,0,0,0,0,0,0,0,0],"split_type":[0,0,0,0,0,0,0,0,0,0,0,0,0,0,0],"sum_hessian":[2.5478594E3,4.559861E2,2.091873E3,2.902651E2,1.6572101E2,1.7792545E3,3.1261865E2,9.799144E1,1.9227367E2,1.4822267E2,1.7498333E1,1.6652668E3,1.1398767E2,2.0631331E2,1.06305336E2],"tree_param":{"num_deleted":"0","num_feature":"1681","num_nodes":"15","size_leaf_vector":"1"}},{"base_weights":[1.5814367E-1,3.9553857E-1,1.0623211E-1,2.4430422E-1,6.5737575E-1,6.647434E-2,3.3157814E-1,1.2234387E-4,3.6190234E-3,7.2551826E-3,7.214534E-4,4.8136528E-4,3.316263E-3,2.0486573E-3,5.7329577E-3],"categories":[],"categories_nodes":[],"categories_segments":[],"categories_sizes":[],"default_left":[0,0,0,0,0,0,0,0,0,0,0,0,0,0,0],"id":21,"left_children":[1,3,5,7,9,11,13,-1,-1,-1,-1,-1,-1,-1,-1],"loss_changes":[3.1368958E1,1.7935493E1,1.8728544E1,7.944481E0,6.5963287E0,8.640179E0,9.488258E0,0E0,0E0,0E0,0E0,0E0,0E0,0E0,0E0],"parents":[2147483647,0,0,1,1,2,2,3,3,4,4,5,5,6,6],"right_children":[2,4,6,8,10,12,14,-1,-1,-1,-1,-1,-1,-1,-1],"split_conditions":[-5E0,6E0,7.08E-1,2.795E0,2.2E1,1.974E0,1.5E1,1.2234387E-4,3.6190234E-3,7.2551826E-3,7.214534E-4,4.8136528E-4,3.316263E-3,2.0486573E-3,5.7329577E-3],"split_indices":[25,1680,55,1326,80,1618,29,0,0,0,0,0,0,0,0],"split_type":[0,0,0,0,0,0,0,0,0,0,0,0,0,0,0],"sum_hessian":[2.5478594E3,4.5598608E2,2.0918733E3,2.902651E2,1.65721E2,1.7792546E3,3.1261865E2,9.799144E1,1.9227367E2,1.4822267E2,1.7498333E1,1.665267E3,1.1398768E2,2.0631332E2,1.06305336E2],"tree_param":{"num_deleted":"0","num_feature":"1681","num_nodes":"15","size_leaf_vector":"1"}},{"base_weights":[-1.5659042E-1,-3.1229877E-1,-7.889022E-2,-1.6475043E-1,-5.2233255E-1,-4.8836373E-2,-2.8518263E-1,-1.967765E-3,3.9247363E-3,-2.089892E-3,-6.7600575E-3,-7.2944525E-4,1.9011882E-3,-3.437004E-3,2.4722426E-3],"categories":[],"categories_nodes":[],"categories_segments":[],"categories_sizes":[],"default_left":[0,0,0,0,0,0,0,0,0,0,0,0,0,0,0],"id":22,"left_children":[1,3,5,7,9,11,13,-1,-1,-1,-1,-1,-1,-1,-1],"loss_changes":[3.0809227E1,2.619542E1,1.0535142E1,8.992708E0,1.6686676E1,8.576325E0,6.8193703E0,0E0,0E0,0E0,0E0,0E0,0E0,0E0,0E0],"parents":[2147483647,0,0,1,1,2,2,3,3,4,4,5,5,6,6],"right_children":[2,4,6,8,10,12,14,-1,-1,-1,-1,-1,-1,-1,-1],"split_conditions":[4.35E-1,5.45E-1,6.9E0,3.13E1,4E0,1.7169E1,1.6E-1,-1.967765E-3,3.9247363E-3,-2.089892E-3,-6.7600575E-3,-7.2944525E-4,1.9011882E-3,-3.437004E-3,2.4722426E-3],"split_indices":[3,55,77,1068,1680,1420,1561,0,0,0,0,0,0,0,0],"split_type":[0,0,0,0,0,0,0,0,0,0,0,0,0,0,0],"sum_hessian":[2.5475547E3,8.470593E2,1.7004955E3,4.9858713E2,3.4847217E2,1.4853395E3,2.1515596E2,4.7210034E2,2.6486774E1,1.1544237E2,2.3302982E2,1.3498483E3,1.3549126E2,1.9416895E2,2.0987019E1],"tree_param":{"num_deleted":"0","num_feature":"1681","num_nodes":"15","size_leaf_vector":"1"}},{"base_weights":[1.5659048E-1,3.1229883E-1,7.889029E-2,1.6475046E-1,5.223326E-1,4.883645E-2,2.851826E-1,1.9677652E-3,-3.924736E-3,2.0898918E-3,6.7600585E-3,7.294461E-4,-1.9011878E-3,3.4370038E-3,-2.4722426E-3],"categories":[],"categories_nodes":[],"categories_segments":[],"categories_sizes":[],"default_left":[0,0,0,0,0,0,0,0,0,0,0,0,0,0,0],"id":23,"left_children":[1,3,5,7,9,11,13,-1,-1,-1,-1,-1,-1,-1,-1],"loss_changes":[3.0809223E1,2.619542E1,1.0535132E1,8.99271E0,1.6686676E1,8.57633E0,6.8193703E0,0E0,0E0,0E0,0E0,0E0,0E0,0E0,0E0],"parents":[2147483647,0,0,1,1,2,2,3,3,4,4,5,5,6,6],"right_children":[2,4,6,8,10,12,14,-1,-1,-1,-1,-1,-1,-1,-1],"split_conditions":[4.35E-1,5.45E-1,6.9E0,3.13E1,4E0,1.7169E1,1.6E-1,1.9677652E-3,-3.924736E-3,2.0898918E-3,6.7600585E-3,7.294461E-4,-1.9011878E-3,3.4370038E-3,-2.4722426E-3],"split_indices":[3,55,77,1068,1680,1420,1561,0,0,0,0,0,0,0,0],"split_type":[0,0,0,0,0,0,0,0,0,0,0,0,0,0,0],"sum_hessian":[2.5475547E3,8.470593E2,1.7004955E3,4.9858713E2,3.484722E2,1.4853395E3,2.1515596E2,4.7210034E2,2.6486774E1,1.1544237E2,2.3302982E2,1.3498483E3,1.3549126E2,1.9416895E2,2.0987019E1],"tree_param":{"num_deleted":"0","num_feature":"1681","num_nodes":"15","size_leaf_vector":"1"}},{"base_weights":[-1.5504657E-1,-3.8877842E-1,-1.039742E-1,-2.3977292E-1,-6.47139E-1,-6.4890444E-2,-3.2559913E-1,-2.6376902E-3,8.518934E-3,-7.144764E-3,-7.0002914E-4,-4.673655E-4,-3.2740578E-3,-1.0719106E-3,-4.613177E-3],"categories":[],"categories_nodes":[],"categories_segments":[],"categories_sizes":[],"default_left":[0,0,0,0,0,0,0,0,0,0,0,0,0,0,0],"id":24,"left_children":[1,3,5,7,9,11,13,-1,-1,-1,-1,-1,-1,-1,-1],"loss_changes":[3.0378536E1,1.7422516E1,1.8105219E1,7.8521767E0,6.4177094E0,8.468447E0,9.24234E0,0E0,0E0,0E0,0E0,0E0,0E0,0E0,0E0],"parents":[2147483647,0,0,1,1,2,2,3,3,4,4,5,5,6,6],"right_children":[2,4,6,8,10,12,14,-1,-1,-1,-1,-1,-1,-1,-1],"split_conditions":[-5E0,6E0,7.08E-1,5E0,2.2E1,1.974E0,3.5E0,-2.6376902E-3,8.518934E-3,-7.144764E-3,-7.0002914E-4,-4.673655E-4,-3.2740578E-3,-1.0719106E-3,-4.613177E-3],"split_indices":[25,1680,55,1590,80,1618,1680,0,0,0,0,0,0,0,0],"split_type":[0,0,0,0,0,0,0,0,0,0,0,0,0,0,0],"sum_hessian":[2.547241E3,4.555969E2,2.091644E3,2.901725E2,1.6542442E2,1.7791774E3,3.1246677E2,2.846734E2,5.499073E0,1.4792706E2,1.7497368E1,1.6652007E3,1.1397667E2,1.2043842E2,1.9202834E2],"tree_param":{"num_deleted":"0","num_feature":"1681","num_nodes":"15","size_leaf_vector":"1"}},{"base_weights":[1.5504652E-1,3.8877845E-1,1.0397415E-1,2.3977293E-1,6.471391E-1,6.489038E-2,3.2559913E-1,2.6376902E-3,-8.518934E-3,7.1447645E-3,7.000292E-4,4.6736482E-4,3.2740578E-3,1.0719107E-3,4.613177E-3],"categories":[],"categories_nodes":[],"categories_segments":[],"categories_sizes":[],"default_left":[0,0,0,0,0,0,0,0,0,0,0,0,0,0,0],"id":25,"left_children":[1,3,5,7,9,11,13,-1,-1,-1,-1,-1,-1,-1,-1],"loss_changes":[3.0378551E1,1.7422523E1,1.8105227E1,7.8521786E0,6.4177094E0,8.468451E0,9.242344E0,0E0,0E0,0E0,0E0,0E0,0E0,0E0,0E0],"parents":[2147483647,0,0,1,1,2,2,3,3,4,4,5,5,6,6],"right_children":[2,4,6,8,10,12,14,-1,-1,-1,-1,-1,-1,-1,-1],"split_conditions":[-5E0,6E0,7.08E-1,5E0,2.2E1,1.974E0,3.5E0,2.6376902E-3,-8.518934E-3,7.1447645E-3,7.000292E-4,4.6736482E-4,3.2740578E-3,1.0719107E-3,4.613177E-3],"split_indices":[25,1680,55,1590,80,1618,1680,0,0,0,0,0,0,0,0],"split_type":[0,0,0,0,0,0,0,0,0,0,0,0,0,0,0],"sum_hessian":[2.547241E3,4.555969E2,2.091644E3,2.901725E2,1.6542442E2,1.7791774E3,3.1246677E2,2.846734E2,5.499073E0,1.4792706E2,1.7497368E1,1.6652007E3,1.1397667E2,1.2043842E2,1.9202834E2],"tree_param":{"num_deleted":"0","num_feature":"1681","num_nodes":"15","size_leaf_vector":"1"}},{"base_weights":[-1.5352182E-1,-3.0679962E-1,-7.707409E-2,-1.6130775E-1,-5.14094E-1,-4.755724E-2,-2.7977714E-1,-1.9303507E-3,3.905276E-3,-2.0547686E-3,-6.656679E-3,-7.142668E-4,1.8901873E-3,-3.3770108E-3,2.4684183E-3],"categories":[],"categories_nodes":[],"categories_segments":[],"categories_sizes":[],"default_left":[0,0,0,0,0,0,0,0,0,0,0,0,0,0,0],"id":26,"left_children":[1,3,5,7,9,11,13,-1,-1,-1,-1,-1,-1,-1,-1],"loss_changes":[2.9831913E1,2.5478859E1,1.0166106E1,8.820243E0,1.6192535E1,8.406523E0,6.6736717E0,0E0,0E0,0E0,0E0,0E0,0E0,0E0,0E0],"parents":[2147483647,0,0,1,1,2,2,3,3,4,4,5,5,6,6],"right_children":[2,4,6,8,10,12,14,-1,-1,-1,-1,-1,-1,-1,-1],"split_conditions":[4.35E-1,5.45E-1,6.9E0,3.13E1,4E0,1.7169E1,1.6E-1,-1.9303507E-3,3.905276E-3,-2.0547686E-3,-6.656679E-3,-7.142668E-4,1.8901873E-3,-3.3770108E-3,2.4684183E-3],"split_indices":[3,55,77,1068,1680,1420,1561,0,0,0,0,0,0,0,0],"split_type":[0,0,0,0,0,0,0,0,0,0,0,0,0,0,0],"sum_hessian":[2.5468943E3,8.465491E2,1.7003451E3,4.984703E2,3.4807877E2,1.4852965E3,2.1504863E2,4.7198416E2,2.648615E1,1.1542317E2,2.326556E2,1.3498053E3,1.3549118E2,1.9406207E2,2.098656E1],"tree_param":{"num_deleted":"0","num_feature":"1681","num_nodes":"15","size_leaf_vector":"1"}},{"base_weights":[1.535218E-1,3.0679962E-1,7.7074066E-2,1.6130774E-1,5.14094E-1,4.7557216E-2,2.797771E-1,1.9303507E-3,-3.9052763E-3,2.0547688E-3,6.6566793E-3,7.142665E-4,-1.8901865E-3,3.37701E-3,-2.4684186E-3],"categories":[],"categories_nodes":[],"categories_segments":[],"categories_sizes":[],"default_left":[0,0,0,0,0,0,0,0,0,0,0,0,0,0,0],"id":27,"left_children":[1,3,5,7,9,11,13,-1,-1,-1,-1,-1,-1,-1,-1],"loss_changes":[2.9831928E1,2.5478851E1,1.0166105E1,8.820243E0,1.6192535E1,8.406518E0,6.6736717E0,0E0,0E0,0E0,0E0,0E0,0E0,0E0,0E0],"parents":[2147483647,0,0,1,1,2,2,3,3,4,4,5,5,6,6],"right_children":[2,4,6,8,10,12,14,-1,-1,-1,-1,-1,-1,-1,-1],"split_conditions":[4.35E-1,5.45E-1,6.9E0,3.13E1,4E0,1.7169E1,1.6E-1,1.9303507E-3,-3.9052763E-3,2.0547688E-3,6.6566793E-3,7.142665E-4,-1.8901865E-3,3.37701E-3,-2.4684186E-3],"split_indices":[3,55,77,1068,1680,1420,1561,0,0,0,0,0,0,0,0],"split_type":[0,0,0,0,0,0,0,0,0,0,0,0,0,0,0],"sum_hessian":[2.5468943E3,8.465491E2,1.7003451E3,4.984703E2,3.4807877E2,1.4852965E3,2.1504863E2,4.7198416E2,2.648615E1,1.15423164E2,2.326556E2,1.3498053E3,1.3549118E2,1.9406207E2,2.0986559E1],"tree_param":{"num_deleted":"0","num_feature":"1681","num_nodes":"15","size_leaf_vector":"1"}},{"base_weights":[-1.520112E-1,-3.8215426E-1,-1.0176461E-1,-2.3529671E-1,-6.3722986E-1,-6.1400857E-2,-3.0984074E-1,-5.7597816E-5,-3.5172086E-3,-7.038091E-3,-6.7911536E-4,-1.4858379E-3,-4.52011E-5,-6.268723E-4,-4.5511047E-3],"categories":[],"categories_nodes":[],"categories_segments":[],"categories_sizes":[],"default_left":[0,0,0,0,0,0,0,0,0,0,0,0,0,0,0],"id":28,"left_children":[1,3,5,7,9,11,13,-1,-1,-1,-1,-1,-1,-1,-1],"loss_changes":[2.942051E1,1.6937767E1,1.7554226E1,7.776573E0,6.247658E0,8.695836E0,1.216795E1,0E0,0E0,0E0,0E0,0E0,0E0,0E0,0E0],"parents":[2147483647,0,0,1,1,2,2,3,3,4,4,5,5,6,6],"right_children":[2,4,6,8,10,12,14,-1,-1,-1,-1,-1,-1,-1,-1],"split_conditions":[-5E0,6E0,6E0,2.795E0,2.2E1,7.4E-1,3.5E0,-5.7597816E-5,-3.5172086E-3,-7.038091E-3,-6.7911536E-4,-1.4858379E-3,-4.52011E-5,-6.268723E-4,-4.5511047E-3],"split_indices":[25,1680,77,1326,80,542,1680,0,0,0,0,0,0,0,0],"split_type":[0,0,0,0,0,0,0,0,0,0,0,0,0,0,0],"sum_hessian":[2.5465305E3,4.5516147E2,2.091369E3,2.9007547E2,1.6508598E2,1.7526713E3,3.3869772E2,9.797049E1,1.9210498E2,1.4758978E2,1.7496199E1,6.913717E2,1.0612996E3,1.259112E2,2.1278651E2],"tree_param":{"num_deleted":"0","num_feature":"1681","num_nodes":"15","size_leaf_vector":"1"}},{"base_weights":[1.520112E-1,3.8215426E-1,1.0176462E-1,2.3529671E-1,6.372298E-1,6.140087E-2,3.0984074E-1,5.759825E-5,3.5172086E-3,7.03809E-3,6.7911565E-4,1.485838E-3,4.5201243E-5,6.268722E-4,4.5511047E-3],"categories":[],"categories_nodes":[],"categories_segments":[],"categories_sizes":[],"default_left":[0,0,0,0,0,0,0,0,0,0,0,0,0,0,0],"id":29,"left_children":[1,3,5,7,9,11,13,-1,-1,-1,-1,-1,-1,-1,-1],"loss_changes":[2.9420506E1,1.693776E1,1.7554224E1,7.7765694E0,6.24765E0,8.695836E0,1.216795E1,0E0,0E0,0E0,0E0,0E0,0E0,0E0,0E0],"parents":[2147483647,0,0,1,1,2,2,3,3,4,4,5,5,6,6],"right_children":[2,4,6,8,10,12,14,-1,-1,-1,-1,-1,-1,-1,-1],"split_conditions":[-5E0,6E0,6E0,2.795E0,2.2E1,7.4E-1,3.5E0,5.759825E-5,3.5172086E-3,7.03809E-3,6.7911565E-4,1.485838E-3,4.5201243E-5,6.268722E-4,4.5511047E-3],"split_indices":[25,1680,77,1326,80,542,1680,0,0,0,0,0,0,0,0],"split_type":[0,0,0,0,0,0,0,0,0,0,0,0,0,0,0],"sum_hessian":[2.5465303E3,4.5516144E2,2.091369E3,2.9007547E2,1.6508598E2,1.7526713E3,3.3869772E2,9.797049E1,1.9210498E2,1.4758978E2,1.7496199E1,6.913717E2,1.0612996E3,1.259112E2,2.1278651E2],"tree_param":{"num_deleted":"0","num_feature":"1681","num_nodes":"15","size_leaf_vector":"1"}},{"base_weights":[-1.505226E-1,-3.0143866E-1,-7.5298E-2,-1.5794818E-1,-5.0609463E-1,-4.6348907E-2,-2.7421632E-1,-1.8936753E-3,3.8833932E-3,-2.0213118E-3,-6.556308E-3,-6.9987745E-4,1.8792922E-3,-3.3154131E-3,2.46518E-3],"categories":[],"categories_nodes":[],"categories_segments":[],"categories_sizes":[],"default_left":[0,0,0,0,0,0,0,0,0,0,0,0,0,0,0],"id":30,"left_children":[1,3,5,7,9,11,13,-1,-1,-1,-1,-1,-1,-1,-1],"loss_changes":[2.8893791E1,2.4791916E1,9.783479E0,8.644071E0,1.5713661E1,8.244095E0,6.527153E0,0E0,0E0,0E0,0E0,0E0,0E0,0E0,0E0],"parents":[2147483647,0,0,1,1,2,2,3,3,4,4,5,5,6,6],"right_children":[2,4,6,8,10,12,14,-1,-1,-1,-1,-1,-1,-1,-1],"split_conditions":[4.35E-1,5.45E-1,6.9E0,3.13E1,4E0,1.7169E1,1.6E-1,-1.8936753E-3,3.8833932E-3,-2.0213118E-3,-6.556308E-3,-6.9987745E-4,1.8792922E-3,-3.3154131E-3,2.46518E-3],"split_indices":[3,55,77,1068,1680,1420,1561,0,0,0,0,0,0,0,0],"split_type":[0,0,0,0,0,0,0,0,0,0,0,0,0,0,0],"sum_hessian":[2.5461243E3,8.459556E2,1.7001686E3,4.9833185E2,3.4762378E2,1.4852494E3,2.1491911E2,4.7184723E2,2.6484612E1,1.1540033E2,2.3222346E2,1.349759E3,1.3549042E2,1.939333E2,2.098582E1],"tree_param":{"num_deleted":"0","num_feature":"1681","num_nodes":"15","size_leaf_vector":"1"}},{"base_weights":[1.505226E-1,3.0143866E-1,7.5298E-2,1.5794815E-1,5.0609463E-1,4.6348915E-2,2.742163E-1,1.893675E-3,-3.8833932E-3,2.021312E-3,6.556309E-3,6.998775E-4,-1.8792922E-3,3.315413E-3,-2.46518E-3],"categories":[],"categories_nodes":[],"categories_segments":[],"categories_sizes":[],"default_left":[0,0,0,0,0,0,0,0,0,0,0,0,0,0,0],"id":31,"left_children":[1,3,5,7,9,11,13,-1,-1,-1,-1,-1,-1,-1,-1],"loss_changes":[2.8893791E1,2.4791924E1,9.783471E0,8.644068E0,1.5713669E1,8.244096E0,6.527157E0,0E0,0E0,0E0,0E0,0E0,0E0,0E0,0E0],"parents":[2147483647,0,0,1,1,2,2,3,3,4,4,5,5,6,6],"right_children":[2,4,6,8,10,12,14,-1,-1,-1,-1,-1,-1,-1,-1],"split_conditions":[4.35E-1,5.45E-1,6.9E0,3.13E1,4E0,1.7169E1,1.6E-1,1.893675E-3,-3.8833932E-3,2.021312E-3,6.556309E-3,6.998775E-4,-1.8792922E-3,3.315413E-3,-2.46518E-3],"split_indices":[3,55,77,1068,1680,1420,1561,0,0,0,0,0,0,0,0],"split_type":[0,0,0,0,0,0,0,0,0,0,0,0,0,0,0],"sum_hessian":[2.5461243E3,8.459556E2,1.7001686E3,4.9833185E2,3.4762378E2,1.4852494E3,2.1491913E2,4.7184723E2,2.6484613E1,1.1540032E2,2.3222345E2,1.349759E3,1.3549042E2,1.939333E2,2.098582E1],"tree_param":{"num_deleted":"0","num_feature":"1681","num_nodes":"15","size_leaf_vector":"1"}},{"base_weights":[-1.4904428E-1,-3.7571704E-1,-9.960194E-2,-2.309539E-1,-6.276301E-1,-6.1730556E-2,-3.1459093E-1,-2.5472406E-3,8.4864395E-3,-6.934949E-3,-6.5869995E-4,-4.375817E-4,-3.2166934E-3,-1.9168168E-3,-5.495485E-3],"categories":[],"categories_nodes":[],"categories_segments":[],"categories_sizes":[],"default_left":[0,0,0,0,0,0,0,0,0,0,0,0,0,0,0],"id":32,"left_children":[1,3,5,7,9,11,13,-1,-1,-1,-1,-1,-1,-1,-1],"loss_changes":[2.8504177E1,1.6472092E1,1.7013893E1,7.682746E0,6.085556E0,8.301409E0,8.936104E0,0E0,0E0,0E0,0E0,0E0,0E0,0E0,0E0],"parents":[2147483647,0,0,1,1,2,2,3,3,4,4,5,5,6,6],"right_children":[2,4,6,8,10,12,14,-1,-1,-1,-1,-1,-1,-1,-1],"split_conditions":[-5E0,6E0,7.08E-1,5E0,2.2E1,1.974E0,1.5E1,-2.5472406E-3,8.4864395E-3,-6.934949E-3,-6.5869995E-4,-4.375817E-4,-3.2166934E-3,-1.9168168E-3,-5.495485E-3],"split_indices":[25,1680,55,1590,80,1618,29,0,0,0,0,0,0,0,0],"split_type":[0,0,0,0,0,0,0,0,0,0,0,0,0,0,0],"sum_hessian":[2.545713E3,4.5466437E2,2.0910486E3,2.8995627E2,1.6470808E2,1.7789625E3,3.1208603E2,2.8445728E2,5.4990063E0,1.4721324E2,1.7494843E1,1.6650106E3,1.13951866E2,2.0609236E2,1.05993675E2],"tree_param":{"num_deleted":"0","num_feature":"1681","num_nodes":"15","size_leaf_vector":"1"}},{"base_weights":[1.4904432E-1,3.7571707E-1,9.960201E-2,2.3095393E-1,6.276301E-1,6.1730623E-2,3.1459096E-1,2.5472408E-3,-8.4864395E-3,6.934949E-3,6.5870007E-4,4.3758246E-4,3.2166934E-3,1.9168173E-3,5.4954845E-3],"categories":[],"categories_nodes":[],"categories_segments":[],"categories_sizes":[],"default_left":[0,0,0,0,0,0,0,0,0,0,0,0,0,0,0],"id":33,"left_children":[1,3,5,7,9,11,13,-1,-1,-1,-1,-1,-1,-1,-1],"loss_changes":[2.8504173E1,1.6472084E1,1.701389E1,7.682744E0,6.085556E0,8.301405E0,8.936102E0,0E0,0E0,0E0,0E0,0E0,0E0,0E0,0E0],"parents":[2147483647,0,0,1,1,2,2,3,3,4,4,5,5,6,6],"right_children":[2,4,6,8,10,12,14,-1,-1,-1,-1,-1,-1,-1,-1],"split_conditions":[-5E0,6E0,7.08E-1,5E0,2.2E1,1.974E0,1.5E1,2.5472408E-3,-8.4864395E-3,6.934949E-3,6.5870007E-4,4.3758246E-4,3.2166934E-3,1.9168173E-3,5.4954845E-3],"split_indices":[25,1680,55,1590,80,1618,29,0,0,0,0,0,0,0,0],"split_type":[0,0,0,0,0,0,0,0,0,0,0,0,0,0,0],"sum_hessian":[2.545713E3,4.5466437E2,2.0910486E3,2.8995627E2,1.6470808E2,1.7789625E3,3.1208603E2,2.8445728E2,5.4990063E0,1.4721324E2,1.7494843E1,1.6650106E3,1.13951866E2,2.0609235E2,1.05993675E2],"tree_param":{"num_deleted":"0","num_feature":"1681","num_nodes":"15","size_leaf_vector":"1"}},{"base_weights":[-1.4758416E-1,-3.722012E-1,-9.861798E-2,-2.2867085E-1,-6.222656E-1,-5.925231E-2,-3.0173317E-1,4.839216E-3,-2.6502784E-3,-6.8767434E-3,-6.524825E-4,-3.1444784E-3,-4.0150702E-4,-5.820683E-4,-4.450421E-3],"categories":[],"categories_nodes":[],"categories_segments":[],"categories_sizes":[],"default_left":[0,0,0,0,0,0,0,0,0,0,0,0,0,0,0],"id":34,"left_children":[1,3,5,7,9,11,13,-1,-1,-1,-1,-1,-1,-1,-1],"loss_changes":[2.7968956E1,1.620197E1,1.6708525E1,7.664727E0,5.9841537E0,8.535263E0,1.1817854E1,0E0,0E0,0E0,0E0,0E0,0E0,0E0,0E0],"parents":[2147483647,0,0,1,1,2,2,3,3,4,4,5,5,6,6],"right_children":[2,4,6,8,10,12,14,-1,-1,-1,-1,-1,-1,-1,-1],"split_conditions":[-5E0,6E0,6E0,3.122E0,2.2E1,3.982E0,3.5E0,4.839216E-3,-2.6502784E-3,-6.8767434E-3,-6.524825E-4,-3.1444784E-3,-4.0150702E-4,-5.820683E-4,-4.450421E-3],"split_indices":[25,1680,77,452,80,795,1680,0,0,0,0,0,0,0,0],"split_type":[0,0,0,0,0,0,0,0,0,0,0,0,0,0,0],"sum_hessian":[2.545284E3,4.543757E2,2.0909082E3,2.8989694E2,1.6447876E2,1.7525408E3,3.3836746E2,1.3475163E1,2.7642178E2,1.469843E2,1.7494465E1,1.2096737E2,1.6315734E3,1.25874245E2,2.1249321E2],"tree_param":{"num_deleted":"0","num_feature":"1681","num_nodes":"15","size_leaf_vector":"1"}},{"base_weights":[1.4758414E-1,3.722012E-1,9.861798E-2,2.2867085E-1,6.222656E-1,5.925231E-2,3.0173317E-1,-4.839216E-3,2.6502784E-3,6.8767434E-3,6.524823E-4,3.1444784E-3,4.0150702E-4,5.8206805E-4,4.450421E-3],"categories":[],"categories_nodes":[],"categories_segments":[],"categories_sizes":[],"default_left":[0,0,0,0,0,0,0,0,0,0,0,0,0,0,0],"id":35,"left_children":[1,3,5,7,9,11,13,-1,-1,-1,-1,-1,-1,-1,-1],"loss_changes":[2.7968948E1,1.6201965E1,1.6708525E1,7.664727E0,5.9841614E0,8.535264E0,1.1817854E1,0E0,0E0,0E0,0E0,0E0,0E0,0E0,0E0],"parents":[2147483647,0,0,1,1,2,2,3,3,4,4,5,5,6,6],"right_children":[2,4,6,8,10,12,14,-1,-1,-1,-1,-1,-1,-1,-1],"split_conditions":[-5E0,6E0,6E0,3.122E0,2.2E1,3.982E0,3.5E0,-4.839216E-3,2.6502784E-3,6.8767434E-3,6.524823E-4,3.1444784E-3,4.0150702E-4,5.8206805E-4,4.450421E-3],"split_indices":[25,1680,77,452,80,795,1680,0,0,0,0,0,0,0,0],"split_type":[0,0,0,0,0,0,0,0,0,0,0,0,0,0,0],"sum_hessian":[2.545284E3,4.543757E2,2.0909082E3,2.8989694E2,1.6447876E2,1.7525408E3,3.3836746E2,1.3475163E1,2.7642178E2,1.469843E2,1.7494465E1,1.2096737E2,1.6315734E3,1.25874245E2,2.1249321E2],"tree_param":{"num_deleted":"0","num_feature":"1681","num_nodes":"15","size_leaf_vector":"1"}},{"base_weights":[-1.4614043E-1,-2.9243383E-1,-7.199927E-2,-1.5382117E-1,-4.9106577E-1,-4.3437205E-2,-2.681515E-1,-2.8433476E-3,-3.043317E-4,-1.8822689E-3,-6.431244E-3,-3.612648E-4,-7.7862367E-3,-2.9326347E-3,8.4706815E-3],"categories":[],"categories_nodes":[],"categories_segments":[],"categories_sizes":[],"default_left":[0,0,0,0,0,0,0,0,0,0,0,0,0,0,0],"id":36,"left_children":[1,3,5,7,9,11,13,-1,-1,-1,-1,-1,-1,-1,-1],"loss_changes":[2.7591923E1,2.349096E1,9.4615755E0,8.1333E0,1.6058266E1,7.9112506E0,6.261875E0,0E0,0E0,0E0,0E0,0E0,0E0,0E0,0E0],"parents":[2147483647,0,0,1,1,2,2,3,3,4,4,5,5,6,6],"right_children":[2,4,6,8,10,12,14,-1,-1,-1,-1,-1,-1,-1,-1],"split_conditions":[4.38E-1,5.45E-1,6.9E0,-3.3E0,4E0,4.5E1,2.333E0,-2.8433476E-3,-3.043317E-4,-1.8822689E-3,-6.431244E-3,-3.612648E-4,-7.7862367E-3,-2.9326347E-3,8.4706815E-3],"split_indices":[3,55,77,1019,1680,551,881,0,0,0,0,0,0,0,0],"split_type":[0,0,0,0,0,0,0,0,0,0,0,0,0,0,0],"sum_hessian":[2.5448284E3,8.5493964E2,1.6898887E3,5.0459158E2,3.5034805E2,1.4761635E3,2.1372523E2,2.4458134E2,2.6001022E2,1.1785894E2,2.3248912E2,1.4626677E3,1.349569E1,2.0973946E2,3.985777E0],"tree_param":{"num_deleted":"0","num_feature":"1681","num_nodes":"15","size_leaf_vector":"1"}},{"base_weights":[1.461404E-1,2.9243383E-1,7.199921E-2,1.538212E-1,4.9106577E-1,4.343714E-2,2.681515E-1,2.843348E-3,3.04332E-4,1.882269E-3,6.431244E-3,3.6126413E-4,7.7862362E-3,2.9326347E-3,-8.4706815E-3],"categories":[],"categories_nodes":[],"categories_segments":[],"categories_sizes":[],"default_left":[0,0,0,0,0,0,0,0,0,0,0,0,0,0,0],"id":37,"left_children":[1,3,5,7,9,11,13,-1,-1,-1,-1,-1,-1,-1,-1],"loss_changes":[2.7591938E1,2.349096E1,9.461581E0,8.133301E0,1.6058266E1,7.911251E0,6.2618723E0,0E0,0E0,0E0,0E0,0E0,0E0,0E0,0E0],"parents":[2147483647,0,0,1,1,2,2,3,3,4,4,5,5,6,6],"right_children":[2,4,6,8,10,12,14,-1,-1,-1,-1,-1,-1,-1,-1],"split_conditions":[4.38E-1,5.45E-1,6.9E0,-3.3E0,4E0,4.5E1,2.333E0,2.843348E-3,3.04332E-4,1.882269E-3,6.431244E-3,3.6126413E-4,7.7862362E-3,2.9326347E-3,-8.4706815E-3],"split_indices":[3,55,77,1019,1680,551,881,0,0,0,0,0,0,0,0],"split_type":[0,0,0,0,0,0,0,0,0,0,0,0,0,0,0],"sum_hessian":[2.5448284E3,8.5493964E2,1.6898887E3,5.0459158E2,3.5034805E2,1.4761635E3,2.1372523E2,2.4458134E2,2.6001022E2,1.1785894E2,2.3248912E2,1.4626678E3,1.349569E1,2.0973946E2,3.985777E0],"tree_param":{"num_deleted":"0","num_feature":"1681","num_nodes":"15","size_leaf_vector":"1"}},{"base_weights":[-1.4471062E-1,-3.659469E-1,-9.65322E-2,-2.2440572E-1,-6.130973E-1,-5.9576493E-2,-3.065285E-1,2.7656924E-5,-3.3977863E-3,-6.778817E-3,-6.3037337E-4,-4.1773915E-4,-3.1710651E-3,-1.8568009E-3,-5.3788037E-3],"categories":[],"categories_nodes":[],"categories_segments":[],"categories_sizes":[],"default_left":[0,0,0,0,0,0,0,0,0,0,0,0,0,0,0],"id":38,"left_children":[1,3,5,7,9,11,13,-1,-1,-1,-1,-1,-1,-1,-1],"loss_changes":[2.7095379E1,1.5772984E1,1.6213387E1,7.622038E0,5.838707E0,8.146603E0,8.644272E0,0E0,0E0,0E0,0E0,0E0,0E0,0E0,0E0],"parents":[2147483647,0,0,1,1,2,2,3,3,4,4,5,5,6,6],"right_children":[2,4,6,8,10,12,14,-1,-1,-1,-1,-1,-1,-1,-1],"split_conditions":[-5E0,6E0,7.08E-1,2.795E0,2.2E1,1.974E0,1.5E1,2.7656924E-5,-3.3977863E-3,-6.778817E-3,-6.3037337E-4,-4.1773915E-4,-3.1710651E-3,-1.8568009E-3,-5.3788037E-3],"split_indices":[25,1680,55,1326,80,1618,29,0,0,0,0,0,0,0,0],"split_type":[0,0,0,0,0,0,0,0,0,0,0,0,0,0,0],"sum_hessian":[2.5443777E3,4.5382202E2,2.0905557E3,2.8977692E2,1.6404509E2,1.7788011E3,3.1175446E2,9.792898E1,1.9184795E2,1.4655223E2,1.7492868E1,1.6648737E3,1.1392745E2,2.0596803E2,1.05786415E2],"tree_param":{"num_deleted":"0","num_feature":"1681","num_nodes":"15","size_leaf_vector":"1"}},{"base_weights":[1.447106E-1,3.6594692E-1,9.653218E-2,2.2440572E-1,6.1309737E-1,5.957647E-2,3.0652848E-1,-2.765695E-5,3.3977863E-3,6.778818E-3,6.3037325E-4,4.1773892E-4,3.171065E-3,1.8568008E-3,5.378803E-3],"categories":[],"categories_nodes":[],"categories_segments":[],"categories_sizes":[],"default_left":[0,0,0,0,0,0,0,0,0,0,0,0,0,0,0],"id":39,"left_children":[1,3,5,7,9,11,13,-1,-1,-1,-1,-1,-1,-1,-1],"loss_changes":[2.709539E1,1.5772991E1,1.6213385E1,7.622037E0,5.838711E0,8.146605E0,8.644272E0,0E0,0E0,0E0,0E0,0E0,0E0,0E0,0E0],"parents":[2147483647,0,0,1,1,2,2,3,3,4,4,5,5,6,6],"right_children":[2,4,6,8,10,12,14,-1,-1,-1,-1,-1,-1,-1,-1],"split_conditions":[-5E0,6E0,7.08E-1,2.795E0,2.2E1,1.974E0,1.5E1,-2.765695E-5,3.3977863E-3,6.778818E-3,6.3037325E-4,4.1773892E-4,3.171065E-3,1.8568008E-3,5.378803E-3],"split_indices":[25,1680,55,1326,80,1618,29,0,0,0,0,0,0,0,0],"split_type":[0,0,0,0,0,0,0,0,0,0,0,0,0,0,0],"sum_hessian":[2.5443777E3,4.5382202E2,2.0905557E3,2.8977692E2,1.6404509E2,1.7788011E3,3.1175446E2,9.792898E1,1.9184795E2,1.4655222E2,1.7492868E1,1.6648737E3,1.13927444E2,2.0596803E2,1.0578642E2],"tree_param":{"num_deleted":"0","num_feature":"1681","num_nodes":"15","size_leaf_vector":"1"}},{"base_weights":[-1.4330056E-1,-2.8727478E-1,-7.0392326E-2,-1.5065694E-1,-4.8332208E-1,-4.229742E-2,-2.6344472E-1,-2.800364E-3,-2.8366788E-4,-1.8457964E-3,-6.3364985E-3,-3.5054283E-4,-7.7094673E-3,-2.883546E-3,8.410103E-3],"categories":[],"categories_nodes":[],"categories_segments":[],"categories_sizes":[],"default_left":[0,0,0,0,0,0,0,0,0,0,0,0,0,0,0],"id":40,"left_children":[1,3,5,7,9,11,13,-1,-1,-1,-1,-1,-1,-1,-1],"loss_changes":[2.6693134E1,2.2831802E1,9.158889E0,7.988842E0,1.563485E1,7.768708E0,6.1465054E0,0E0,0E0,0E0,0E0,0E0,0E0,0E0,0E0],"parents":[2147483647,0,0,1,1,2,2,3,3,4,4,5,5,6,6],"right_children":[2,4,6,8,10,12,14,-1,-1,-1,-1,-1,-1,-1,-1],"split_conditions":[4.38E-1,5.45E-1,6.9E0,-3.3E0,4E0,4.5E1,2.333E0,-2.800364E-3,-2.8366788E-4,-1.8457964E-3,-6.3364985E-3,-3.5054283E-4,-7.7094673E-3,-2.883546E-3,8.410103E-3],"split_indices":[3,55,77,1019,1680,551,881,0,0,0,0,0,0,0,0],"split_type":[0,0,0,0,0,0,0,0,0,0,0,0,0,0,0],"sum_hessian":[2.5438796E3,8.541744E2,1.6897053E3,5.044271E2,3.497473E2,1.4761067E3,2.1359863E2,2.4448209E2,2.59945E2,1.1782489E2,2.3192244E2,1.4626157E3,1.3491013E1,2.0961002E2,3.988624E0],"tree_param":{"num_deleted":"0","num_feature":"1681","num_nodes":"15","size_leaf_vector":"1"}},{"base_weights":[1.4330053E-1,2.8727475E-1,7.039229E-2,1.5065692E-1,4.8332205E-1,4.229738E-2,2.6344475E-1,2.8003638E-3,2.836679E-4,1.845796E-3,6.336498E-3,3.5054242E-4,7.7094673E-3,2.883546E-3,-8.410103E-3],"categories":[],"categories_nodes":[],"categories_segments":[],"categories_sizes":[],"default_left":[0,0,0,0,0,0,0,0,0,0,0,0,0,0,0],"id":41,"left_children":[1,3,5,7,9,11,13,-1,-1,-1,-1,-1,-1,-1,-1],"loss_changes":[2.6693142E1,2.2831802E1,9.158891E0,7.98884E0,1.5634842E1,7.768708E0,6.146508E0,0E0,0E0,0E0,0E0,0E0,0E0,0E0,0E0],"parents":[2147483647,0,0,1,1,2,2,3,3,4,4,5,5,6,6],"right_children":[2,4,6,8,10,12,14,-1,-1,-1,-1,-1,-1,-1,-1],"split_conditions":[4.38E-1,5.45E-1,6.9E0,-3.3E0,4E0,4.5E1,2.333E0,2.8003638E-3,2.836679E-4,1.845796E-3,6.336498E-3,3.5054242E-4,7.7094673E-3,2.883546E-3,-8.410103E-3],"split_indices":[3,55,77,1019,1680,551,881,0,0,0,0,0,0,0,0],"split_type":[0,0,0,0,0,0,0,0,0,0,0,0,0,0,0],"sum_hessian":[2.54388E3,8.5417444E2,1.6897053E3,5.044271E2,3.497473E2,1.4761067E3,2.1359863E2,2.4448207E2,2.59945E2,1.1782489E2,2.3192244E2,1.4626157E3,1.3491013E1,2.0961002E2,3.9886239E0],"tree_param":{"num_deleted":"0","num_feature":"1681","num_nodes":"15","size_leaf_vector":"1"}},{"base_weights":[-1.4190088E-1,-3.5985926E-1,-9.4491765E-2,-2.2025771E-1,-6.041993E-1,-5.816662E-2,-3.010586E-1,-2.438147E-3,8.471968E-3,-6.6839545E-3,-6.0877495E-4,-4.053801E-4,-3.132266E-3,-9.253386E-4,-4.3113306E-3],"categories":[],"categories_nodes":[],"categories_segments":[],"categories_sizes":[],"default_left":[0,0,0,0,0,0,0,0,0,0,0,0,0,0,0],"id":42,"left_children":[1,3,5,7,9,11,13,-1,-1,-1,-1,-1,-1,-1,-1],"loss_changes":[2.6257702E1,1.5360149E1,1.5673782E1,7.5148153E0,5.699646E0,7.989353E0,8.436323E0,0E0,0E0,0E0,0E0,0E0,0E0,0E0,0E0],"parents":[2147483647,0,0,1,1,2,2,3,3,4,4,5,5,6,6],"right_children":[2,4,6,8,10,12,14,-1,-1,-1,-1,-1,-1,-1,-1],"split_conditions":[-5E0,6E0,7.08E-1,5E0,2.2E1,1.974E0,3.5E0,-2.438147E-3,8.471968E-3,-6.6839545E-3,-6.0877495E-4,-4.053801E-4,-3.132266E-3,-9.253386E-4,-4.3113306E-3],"split_indices":[25,1680,55,1590,80,1618,1680,0,0,0,0,0,0,0,0],"split_type":[0,0,0,0,0,0,0,0,0,0,0,0,0,0,0],"sum_hessian":[2.543388E3,4.5321048E2,2.0901775E3,2.8963278E2,1.6357771E2,1.7786758E3,3.115017E2,2.84134E2,5.498785E0,1.4608664E2,1.7491068E1,1.6647731E3,1.1390276E2,1.2032228E2,1.9117941E2],"tree_param":{"num_deleted":"0","num_feature":"1681","num_nodes":"15","size_leaf_vector":"1"}},{"base_weights":[1.4190088E-1,3.5985926E-1,9.449177E-2,2.2025773E-1,6.041993E-1,5.816663E-2,3.010586E-1,2.438147E-3,-8.471968E-3,6.6839545E-3,6.087752E-4,4.0538015E-4,3.1322667E-3,9.2533854E-4,4.3113306E-3],"categories":[],"categories_nodes":[],"categories_segments":[],"categories_sizes":[],"default_left":[0,0,0,0,0,0,0,0,0,0,0,0,0,0,0],"id":43,"left_children":[1,3,5,7,9,11,13,-1,-1,-1,-1,-1,-1,-1,-1],"loss_changes":[2.6257702E1,1.5360146E1,1.5673786E1,7.514818E0,5.699646E0,7.9893565E0,8.436319E0,0E0,0E0,0E0,0E0,0E0,0E0,0E0,0E0],"parents":[2147483647,0,0,1,1,2,2,3,3,4,4,5,5,6,6],"right_children":[2,4,6,8,10,12,14,-1,-1,-1,-1,-1,-1,-1,-1],"split_conditions":[-5E0,6E0,7.08E-1,5E0,2.2E1,1.974E0,3.5E0,2.438147E-3,-8.471968E-3,6.6839545E-3,6.087752E-4,4.0538015E-4,3.1322667E-3,9.2533854E-4,4.3113306E-3],"split_indices":[25,1680,55,1590,80,1618,1680,0,0,0,0,0,0,0,0],"split_type":[0,0,0,0,0,0,0,0,0,0,0,0,0,0,0],"sum_hessian":[2.543388E3,4.5321048E2,2.0901775E3,2.8963278E2,1.6357771E2,1.7786758E3,3.1150168E2,2.8413397E2,5.498785E0,1.4608664E2,1.7491066E1,1.6647731E3,1.1390276E2,1.2032228E2,1.9117941E2],"tree_param":{"num_deleted":"0","num_feature":"1681","num_nodes":"15","size_leaf_vector":"1"}},{"base_weights":[-1.4051555E-1,-2.8233135E-1,-6.875885E-2,-1.4754485E-1,-4.7603837E-1,-4.116662E-2,-2.584865E-1,-2.757502E-3,-2.6393303E-4,-1.8146139E-3,-6.246176E-3,-3.3991894E-4,-7.6329648E-3,-1.9767725E-4,-3.7818037E-3],"categories":[],"categories_nodes":[],"categories_segments":[],"categories_sizes":[],"default_left":[0,0,0,0,0,0,0,0,0,0,0,0,0,0,0],"id":44,"left_children":[1,3,5,7,9,11,13,-1,-1,-1,-1,-1,-1,-1,-1],"loss_changes":[2.58675E1,2.2236618E1,8.839079E0,7.840521E0,1.5210457E1,7.6267347E0,6.1199007E0,0E0,0E0,0E0,0E0,0E0,0E0,0E0,0E0],"parents":[2147483647,0,0,1,1,2,2,3,3,4,4,5,5,6,6],"right_children":[2,4,6,8,10,12,14,-1,-1,-1,-1,-1,-1,-1,-1],"split_conditions":[4.38E-1,5.45E-1,6.9E0,-3.3E0,4E0,4.5E1,1.391E0,-2.757502E-3,-2.6393303E-4,-1.8146139E-3,-6.246176E-3,-3.3991894E-4,-7.6329648E-3,-1.9767725E-4,-3.7818037E-3],"split_indices":[3,55,77,1019,1680,551,833,0,0,0,0,0,0,0,0],"split_type":[0,0,0,0,0,0,0,0,0,0,0,0,0,0,0],"sum_hessian":[2.5428594E3,8.533713E2,1.689488E3,5.0425735E2,3.4911395E2,1.476043E3,2.1344507E2,2.4437645E2,2.5988092E2,1.1779395E2,2.3131998E2,1.4625588E3,1.3484186E1,7.1670265E1,1.4177481E2],"tree_param":{"num_deleted":"0","num_feature":"1681","num_nodes":"15","size_leaf_vector":"1"}},{"base_weights":[1.4051554E-1,2.8233135E-1,6.875882E-2,1.4754488E-1,4.760384E-1,4.116659E-2,2.5848648E-1,2.757502E-3,2.6393353E-4,1.8146139E-3,6.246176E-3,3.3991865E-4,7.6329648E-3,1.976769E-4,3.7818034E-3],"categories":[],"categories_nodes":[],"categories_segments":[],"categories_sizes":[],"default_left":[0,0,0,0,0,0,0,0,0,0,0,0,0,0,0],"id":45,"left_children":[1,3,5,7,9,11,13,-1,-1,-1,-1,-1,-1,-1,-1],"loss_changes":[2.5867508E1,2.223661E1,8.839081E0,7.840517E0,1.5210449E1,7.6267357E0,6.1198997E0,0E0,0E0,0E0,0E0,0E0,0E0,0E0,0E0],"parents":[2147483647,0,0,1,1,2,2,3,3,4,4,5,5,6,6],"right_children":[2,4,6,8,10,12,14,-1,-1,-1,-1,-1,-1,-1,-1],"split_conditions":[4.38E-1,5.45E-1,6.9E0,-3.3E0,4E0,4.5E1,1.391E0,2.757502E-3,2.6393353E-4,1.8146139E-3,6.246176E-3,3.3991865E-4,7.6329648E-3,1.976769E-4,3.7818034E-3],"split_indices":[3,55,77,1019,1680,551,833,0,0,0,0,0,0,0,0],"split_type":[0,0,0,0,0,0,0,0,0,0,0,0,0,0,0],"sum_hessian":[2.5428594E3,8.533713E2,1.6894882E3,5.0425735E2,3.4911395E2,1.4760431E3,2.1344507E2,2.4437645E2,2.598809E2,1.1779395E2,2.3131999E2,1.4625588E3,1.3484186E1,7.1670265E1,1.4177481E2],"tree_param":{"num_deleted":"0","num_feature":"1681","num_nodes":"15","size_leaf_vector":"1"}},{"base_weights":[-1.3914885E-1,-3.237877E-1,-8.483805E-2,-4.1291022E-1,-7.996951E-3,-4.3932796E-2,-2.4209277E-1,-1.9068512E-3,-5.7653137E-3,-9.85049E-4,6.1184387E-3,-1.4085287E-3,1.9035823E-4,-2.3820839E-4,-3.98242E-3],"categories":[],"categories_nodes":[],"categories_segments":[],"categories_sizes":[],"default_left":[0,0,0,0,0,0,0,0,0,0,0,0,0,0,0],"id":46,"left_children":[1,3,5,7,9,11,13,-1,-1,-1,-1,-1,-1,-1,-1],"loss_changes":[2.5476757E1,1.6256027E1,1.2639692E1,1.6272057E1,7.2510695E0,9.534691E0,1.3819256E1,0E0,0E0,0E0,0E0,0E0,0E0,0E0,0E0],"parents":[2147483647,0,0,1,1,2,2,3,3,4,4,5,5,6,6],"right_children":[2,4,6,8,10,12,14,-1,-1,-1,-1,-1,-1,-1,-1],"split_conditions":[-3.7E0,2.3E1,4.9E0,4E0,3.857E0,7.4E-1,3.5E0,-1.9068512E-3,-5.7653137E-3,-9.85049E-4,6.1184387E-3,-1.4085287E-3,1.9035823E-4,-2.3820839E-4,-3.98242E-3],"split_indices":[25,79,77,1680,490,542,1680,0,0,0,0,0,0,0,0],"split_type":[0,0,0,0,0,0,0,0,0,0,0,0,0,0,0],"sum_hessian":[2.5423313E3,5.7671796E2,1.9656134E3,4.4954086E2,1.27177086E2,1.5608761E3,4.0473727E2,1.9154964E2,2.5799124E2,1.1170694E2,1.5470147E1,6.1422943E2,9.466467E2,1.6927296E2,2.3546431E2],"tree_param":{"num_deleted":"0","num_feature":"1681","num_nodes":"15","size_leaf_vector":"1"}},{"base_weights":[1.3914886E-1,3.237877E-1,8.483808E-2,4.1291025E-1,7.996961E-3,4.393283E-2,2.4209277E-1,1.9068513E-3,5.7653137E-3,9.85049E-4,-6.118438E-3,1.4085291E-3,-1.9035798E-4,2.3820843E-4,3.98242E-3],"categories":[],"categories_nodes":[],"categories_segments":[],"categories_sizes":[],"default_left":[0,0,0,0,0,0,0,0,0,0,0,0,0,0,0],"id":47,"left_children":[1,3,5,7,9,11,13,-1,-1,-1,-1,-1,-1,-1,-1],"loss_changes":[2.547675E1,1.6256035E1,1.2639688E1,1.6272057E1,7.2510695E0,9.534694E0,1.3819256E1,0E0,0E0,0E0,0E0,0E0,0E0,0E0,0E0],"parents":[2147483647,0,0,1,1,2,2,3,3,4,4,5,5,6,6],"right_children":[2,4,6,8,10,12,14,-1,-1,-1,-1,-1,-1,-1,-1],"split_conditions":[-3.7E0,2.3E1,4.9E0,4E0,3.857E0,7.4E-1,3.5E0,1.9068513E-3,5.7653137E-3,9.85049E-4,-6.118438E-3,1.4085291E-3,-1.9035798E-4,2.3820843E-4,3.98242E-3],"split_indices":[25,79,77,1680,490,542,1680,0,0,0,0,0,0,0,0],"split_type":[0,0,0,0,0,0,0,0,0,0,0,0,0,0,0],"sum_hessian":[2.5423313E3,5.7671796E2,1.9656134E3,4.4954086E2,1.27177086E2,1.5608761E3,4.0473727E2,1.9154964E2,2.5799124E2,1.1170694E2,1.5470147E1,6.142294E2,9.466467E2,1.6927296E2,2.3546431E2],"tree_param":{"num_deleted":"0","num_feature":"1681","num_nodes":"15","size_leaf_vector":"1"}},{"base_weights":[-1.377905E-1,-2.7741548E-1,-6.720278E-2,-1.4458409E-1,-4.6862584E-1,-4.01079E-2,-2.536476E-1,-1.7432554E-3,3.6899897E-3,-1.7845607E-3,-6.1535705E-3,-5.7743286E-4,2.4945666E-3,-2.7839977E-3,8.406805E-3],"categories":[],"categories_nodes":[],"categories_segments":[],"categories_sizes":[],"default_left":[0,0,0,0,0,0,0,0,0,0,0,0,0,0,0],"id":48,"left_children":[1,3,5,7,9,11,13,-1,-1,-1,-1,-1,-1,-1,-1],"loss_changes":[2.5042583E1,2.1610771E1,8.528511E0,7.779504E0,1.4767944E1,7.5567245E0,6.0382423E0,0E0,0E0,0E0,0E0,0E0,0E0,0E0,0E0],"parents":[2147483647,0,0,1,1,2,2,3,3,4,4,5,5,6,6],"right_children":[2,4,6,8,10,12,14,-1,-1,-1,-1,-1,-1,-1,-1],"split_conditions":[4.38E-1,5.45E-1,6.9E0,3.13E1,4E0,5.426E0,2.333E0,-1.7432554E-3,3.6899897E-3,-1.7845607E-3,-6.1535705E-3,-5.7743286E-4,2.4945666E-3,-2.7839977E-3,8.406805E-3],"split_indices":[3,55,77,1068,1680,1527,881,0,0,0,0,0,0,0,0],"split_type":[0,0,0,0,0,0,0,0,0,0,0,0,0,0,0],"sum_hessian":[2.541787E3,8.525275E2,1.6892596E3,5.040952E2,3.4843234E2,1.4759797E3,2.132799E2,4.7712558E2,2.6969627E1,1.1776372E2,2.3066862E2,1.3920029E3,8.3976746E1,2.0929161E2,3.988283E0],"tree_param":{"num_deleted":"0","num_feature":"1681","num_nodes":"15","size_leaf_vector":"1"}},{"base_weights":[1.3779049E-1,2.7741548E-1,6.720277E-2,1.4458409E-1,4.6862587E-1,4.0107895E-2,2.5364757E-1,1.7432552E-3,-3.6899897E-3,1.7845611E-3,6.1535705E-3,5.774328E-4,-2.4945666E-3,2.7839972E-3,-8.406805E-3],"categories":[],"categories_nodes":[],"categories_segments":[],"categories_sizes":[],"default_left":[0,0,0,0,0,0,0,0,0,0,0,0,0,0,0],"id":49,"left_children":[1,3,5,7,9,11,13,-1,-1,-1,-1,-1,-1,-1,-1],"loss_changes":[2.5042587E1,2.1610764E1,8.528508E0,7.779505E0,1.4767952E1,7.5567236E0,6.0382414E0,0E0,0E0,0E0,0E0,0E0,0E0,0E0,0E0],"parents":[2147483647,0,0,1,1,2,2,3,3,4,4,5,5,6,6],"right_children":[2,4,6,8,10,12,14,-1,-1,-1,-1,-1,-1,-1,-1],"split_conditions":[4.38E-1,5.45E-1,6.9E0,3.13E1,4E0,5.426E0,2.333E0,1.7432552E-3,-3.6899897E-3,1.7845611E-3,6.1535705E-3,5.774328E-4,-2.4945666E-3,2.7839972E-3,-8.406805E-3],"split_indices":[3,55,77,1068,1680,1527,881,0,0,0,0,0,0,0,0],"split_type":[0,0,0,0,0,0,0,0,0,0,0,0,0,0,0],"sum_hessian":[2.541787E3,8.525275E2,1.6892595E3,5.040952E2,3.4843234E2,1.4759796E3,2.132799E2,4.7712558E2,2.6969627E1,1.1776372E2,2.3066862E2,1.3920029E3,8.3976746E1,2.0929161E2,3.9882832E0],"tree_param":{"num_deleted":"0","num_feature":"1681","num_nodes":"15","size_leaf_vector":"1"}},{"base_weights":[-1.3644296E-1,-3.481834E-1,-9.04995E-2,-2.120005E-1,-5.8773524E-1,-5.5296615E-2,-2.910095E-1,4.919456E-3,-2.4800857E-3,-6.510082E-3,-5.584955E-4,-2.9987155E-3,-3.6969304E-4,-1.6022008E-3,-4.926301E-3],"categories":[],"categories_nodes":[],"categories_segments":[],"categories_sizes":[],"default_left":[0,0,0,0,0,0,0,0,0,0,0,0,0,0,0],"id":50,"left_children":[1,3,5,7,9,11,13,-1,-1,-1,-1,-1,-1,-1,-1],"loss_changes":[2.469944E1,1.4650654E1,1.4738417E1,7.4809732E0,5.469124E0,7.9647336E0,8.147026E0,0E0,0E0,0E0,0E0,0E0,0E0,0E0,0E0],"parents":[2147483647,0,0,1,1,2,2,3,3,4,4,5,5,6,6],"right_children":[2,4,6,8,10,12,14,-1,-1,-1,-1,-1,-1,-1,-1],"split_conditions":[-5E0,6E0,7.08E-1,3.122E0,2.2E1,3.982E0,1.5E1,4.919456E-3,-2.4800857E-3,-6.510082E-3,-5.584955E-4,-2.9987155E-3,-3.6969304E-4,-1.6022008E-3,-4.926301E-3],"split_indices":[25,1680,55,452,80,795,51,0,0,0,0,0,0,0,0],"split_type":[0,0,0,0,0,0,0,0,0,0,0,0,0,0,0],"sum_hessian":[2.5412202E3,4.5191116E2,2.089309E3,2.8932037E2,1.625908E2,1.7783634E3,3.1094565E2,1.3462903E1,2.7585745E2,1.4510516E2,1.7485636E1,1.2290145E2,1.6554619E3,1.8969011E2,1.2125554E2],"tree_param":{"num_deleted":"0","num_feature":"1681","num_nodes":"15","size_leaf_vector":"1"}},{"base_weights":[1.3644294E-1,3.4818336E-1,9.0499476E-2,2.1200049E-1,5.8773524E-1,5.529658E-2,2.9100952E-1,-4.9194563E-3,2.4800855E-3,6.510082E-3,5.5849546E-4,2.9987155E-3,3.696927E-4,1.6022011E-3,4.9263006E-3],"categories":[],"categories_nodes":[],"categories_segments":[],"categories_sizes":[],"default_left":[0,0,0,0,0,0,0,0,0,0,0,0,0,0,0],"id":51,"left_children":[1,3,5,7,9,11,13,-1,-1,-1,-1,-1,-1,-1,-1],"loss_changes":[2.4699432E1,1.4650661E1,1.4738422E1,7.4809723E0,5.469124E0,7.964736E0,8.147028E0,0E0,0E0,0E0,0E0,0E0,0E0,0E0,0E0],"parents":[2147483647,0,0,1,1,2,2,3,3,4,4,5,5,6,6],"right_children":[2,4,6,8,10,12,14,-1,-1,-1,-1,-1,-1,-1,-1],"split_conditions":[-5E0,6E0,7.08E-1,3.122E0,2.2E1,3.982E0,1.5E1,-4.9194563E-3,2.4800855E-3,6.510082E-3,5.5849546E-4,2.9987155E-3,3.696927E-4,1.6022011E-3,4.9263006E-3],"split_indices":[25,1680,55,452,80,795,51,0,0,0,0,0,0,0,0],"split_type":[0,0,0,0,0,0,0,0,0,0,0,0,0,0,0],"sum_hessian":[2.5412202E3,4.5191116E2,2.089309E3,2.8932037E2,1.6259079E2,1.7783634E3,3.1094565E2,1.3462902E1,2.7585745E2,1.4510516E2,1.7485636E1,1.2290145E2,1.6554619E3,1.8969011E2,1.2125554E2],"tree_param":{"num_deleted":"0","num_feature":"1681","num_nodes":"15","size_leaf_vector":"1"}},{"base_weights":[-1.3511539E-1,-8.096738E-2,-3.115444E-1,-5.3299982E-2,-2.659202E-1,-1.6578671E-1,-5.160892E-1,-2.930934E-3,-3.2870477E-4,-4.0635834E-3,-6.772459E-4,3.1294518E-3,-2.2577562E-3,-1.7420843E-3,-6.217176E-3],"categories":[],"categories_nodes":[],"categories_segments":[],"categories_sizes":[],"default_left":[0,0,0,0,0,0,0,0,0,0,0,0,0,0,0],"id":52,"left_children":[1,3,5,7,9,11,13,-1,-1,-1,-1,-1,-1,-1,-1],"loss_changes":[2.4255817E1,9.944463E0,1.7699097E1,8.28969E0,7.0142765E0,1.0116055E1,8.837936E0,0E0,0E0,0E0,0E0,0E0,0E0,0E0,0E0],"parents":[2147483647,0,0,1,1,2,2,3,3,4,4,5,5,6,6],"right_children":[2,4,6,8,10,12,14,-1,-1,-1,-1,-1,-1,-1,-1],"split_conditions":[2.1E1,6.9E0,5.45E-1,4.03E-1,5.82E-1,8.54E-1,3.5E0,-2.930934E-3,-3.2870477E-4,-4.0635834E-3,-6.772459E-4,3.1294518E-3,-2.2577562E-3,-1.7420843E-3,-6.217176E-3],"split_indices":[28,77,55,194,629,254,1680,0,0,0,0,0,0,0,0],"split_type":[0,0,0,0,0,0,0,0,0,0,0,0,0,0,0],"sum_hessian":[2.540645E3,1.945124E3,5.955209E2,1.6931335E3,2.5199051E2,3.4878723E2,2.4673366E2,1.318762E2,1.5612573E3,1.4687032E2,1.0512019E2,3.8369423E1,3.1041782E2,5.8863426E1,1.8787024E2],"tree_param":{"num_deleted":"0","num_feature":"1681","num_nodes":"15","size_leaf_vector":"1"}},{"base_weights":[1.351154E-1,8.096741E-2,3.115444E-1,5.330001E-2,2.6592022E-1,1.6578671E-1,5.1608914E-1,2.9309343E-3,3.2870503E-4,4.0635834E-3,6.772461E-4,-3.1294518E-3,2.2577562E-3,1.742084E-3,6.2171756E-3],"categories":[],"categories_nodes":[],"categories_segments":[],"categories_sizes":[],"default_left":[0,0,0,0,0,0,0,0,0,0,0,0,0,0,0],"id":53,"left_children":[1,3,5,7,9,11,13,-1,-1,-1,-1,-1,-1,-1,-1],"loss_changes":[2.4255817E1,9.944461E0,1.7699093E1,8.28969E0,7.0142746E0,1.01160555E1,8.837936E0,0E0,0E0,0E0,0E0,0E0,0E0,0E0,0E0],"parents":[2147483647,0,0,1,1,2,2,3,3,4,4,5,5,6,6],"right_children":[2,4,6,8,10,12,14,-1,-1,-1,-1,-1,-1,-1,-1],"split_conditions":[2.1E1,6.9E0,5.45E-1,4.03E-1,5.82E-1,8.54E-1,3.5E0,2.9309343E-3,3.2870503E-4,4.0635834E-3,6.772461E-4,-3.1294518E-3,2.2577562E-3,1.742084E-3,6.2171756E-3],"split_indices":[28,77,55,194,629,254,1680,0,0,0,0,0,0,0,0],"split_type":[0,0,0,0,0,0,0,0,0,0,0,0,0,0,0],"sum_hessian":[2.540645E3,1.945124E3,5.955209E2,1.6931335E3,2.5199051E2,3.4878723E2,2.4673367E2,1.318762E2,1.5612573E3,1.4687032E2,1.0512019E2,3.8369423E1,3.1041782E2,5.8863426E1,1.8787024E2],"tree_param":{"num_deleted":"0","num_feature":"1681","num_nodes":"15","size_leaf_vector":"1"}},{"base_weights":[-1.3379948E-1,-3.4251717E-1,-8.857277E-2,-2.0806716E-1,-5.7968694E-1,-5.395241E-2,-2.8593397E-1,1.7032816E-4,-3.2262877E-3,-6.0918746E-3,4.8915436E-3,-3.6491323E-4,-3.0668497E-3,-1.6970442E-3,-5.0950646E-3],"categories":[],"categories_nodes":[],"categories_segments":[],"categories_sizes":[],"default_left":[0,0,0,0,0,0,0,0,0,0,0,0,0,0,0],"id":54,"left_children":[1,3,5,7,9,11,13,-1,-1,-1,-1,-1,-1,-1,-1],"loss_changes":[2.395665E1,1.4299316E1,1.4264164E1,7.488208E0,5.4391212E0,7.840518E0,8.012163E0,0E0,0E0,0E0,0E0,0E0,0E0,0E0,0E0],"parents":[2147483647,0,0,1,1,2,2,3,3,4,4,5,5,6,6],"right_children":[2,4,6,8,10,12,14,-1,-1,-1,-1,-1,-1,-1,-1],"split_conditions":[-5E0,6E0,7.08E-1,2.795E0,4E0,1.974E0,1.5E1,1.7032816E-4,-3.2262877E-3,-6.0918746E-3,4.8915436E-3,-3.6491323E-4,-3.0668497E-3,-1.6970442E-3,-5.0950646E-3],"split_indices":[25,1680,55,1326,1155,1618,29,0,0,0,0,0,0,0,0],"split_type":[0,0,0,0,0,0,0,0,0,0,0,0,0,0,0],"sum_hessian":[2.540098E3,4.5121292E2,2.088885E3,2.8916464E2,1.6204826E2,1.7782284E3,3.106567E2,9.7817055E1,1.913476E2,1.5811429E2,3.9339788E0,1.664382E3,1.1384642E2,2.0555371E2,1.0510301E2],"tree_param":{"num_deleted":"0","num_feature":"1681","num_nodes":"15","size_leaf_vector":"1"}},{"base_weights":[1.3379946E-1,3.4251714E-1,8.857276E-2,2.0806716E-1,5.796869E-1,5.3952403E-2,2.8593397E-1,-1.7032801E-4,3.2262877E-3,6.0918736E-3,-4.891544E-3,3.6491314E-4,3.0668497E-3,1.697044E-3,5.0950646E-3],"categories":[],"categories_nodes":[],"categories_segments":[],"categories_sizes":[],"default_left":[0,0,0,0,0,0,0,0,0,0,0,0,0,0,0],"id":55,"left_children":[1,3,5,7,9,11,13,-1,-1,-1,-1,-1,-1,-1,-1],"loss_changes":[2.3956638E1,1.4299313E1,1.4264164E1,7.488209E0,5.439125E0,7.840518E0,8.012163E0,0E0,0E0,0E0,0E0,0E0,0E0,0E0,0E0],"parents":[2147483647,0,0,1,1,2,2,3,3,4,4,5,5,6,6],"right_children":[2,4,6,8,10,12,14,-1,-1,-1,-1,-1,-1,-1,-1],"split_conditions":[-5E0,6E0,7.08E-1,2.795E0,4E0,1.974E0,1.5E1,-1.7032801E-4,3.2262877E-3,6.0918736E-3,-4.891544E-3,3.6491314E-4,3.0668497E-3,1.697044E-3,5.0950646E-3],"split_indices":[25,1680,55,1326,1155,1618,29,0,0,0,0,0,0,0,0],"split_type":[0,0,0,0,0,0,0,0,0,0,0,0,0,0,0],"sum_hessian":[2.540098E3,4.512129E2,2.088885E3,2.8916464E2,1.6204826E2,1.7782284E3,3.106567E2,9.7817055E1,1.9134758E2,1.5811429E2,3.9339786E0,1.664382E3,1.1384641E2,2.0555371E2,1.0510301E2],"tree_param":{"num_deleted":"0","num_feature":"1681","num_nodes":"15","size_leaf_vector":"1"}},{"base_weights":[-1.3249934E-1,-2.6812866E-1,-6.406123E-2,-1.3868502E-1,-4.5509812E-1,-3.784878E-2,-2.4468726E-1,-2.65742E-3,-1.8675509E-4,-1.7154787E-3,-5.9923492E-3,-6.050656E-4,1.8693943E-3,-7.853306E-5,-3.635959E-3],"categories":[],"categories_nodes":[],"categories_segments":[],"categories_sizes":[],"default_left":[0,0,0,0,0,0,0,0,0,0,0,0,0,0,0],"id":56,"left_children":[1,3,5,7,9,11,13,-1,-1,-1,-1,-1,-1,-1,-1],"loss_changes":[2.3564217E1,2.0549522E1,7.991357E0,7.6908054E0,1.4119408E1,7.533142E0,6.0227146E0,0E0,0E0,0E0,0E0,0E0,0E0,0E0,0E0],"parents":[2147483647,0,0,1,1,2,2,3,3,4,4,5,5,6,6],"right_children":[2,4,6,8,10,12,14,-1,-1,-1,-1,-1,-1,-1,-1],"split_conditions":[4.38E-1,5.45E-1,6.9E0,-3.3E0,4E0,1.7169E1,1.391E0,-2.65742E-3,-1.8675509E-4,-1.7154787E-3,-5.9923492E-3,-6.050656E-4,1.8693943E-3,-7.853306E-5,-3.635959E-3],"split_indices":[3,55,77,1019,1680,1420,833,0,0,0,0,0,0,0,0],"split_type":[0,0,0,0,0,0,0,0,0,0,0,0,0,0,0],"sum_hessian":[2.5394922E3,8.506911E2,1.6888011E3,5.037051E2,3.46986E2,1.4758372E3,2.1296396E2,2.440787E2,2.596264E2,1.176775E2,2.2930849E2,1.3413638E3,1.3447345E2,7.154054E1,1.4142342E2],"tree_param":{"num_deleted":"0","num_feature":"1681","num_nodes":"15","size_leaf_vector":"1"}},{"base_weights":[1.3249937E-1,2.6812866E-1,6.406127E-2,1.3868503E-1,4.550981E-1,3.7848823E-2,2.4468724E-1,2.65742E-3,1.8675509E-4,1.7154787E-3,5.9923492E-3,6.050662E-4,-1.8693949E-3,7.853292E-5,3.635959E-3],"categories":[],"categories_nodes":[],"categories_segments":[],"categories_sizes":[],"default_left":[0,0,0,0,0,0,0,0,0,0,0,0,0,0,0],"id":57,"left_children":[1,3,5,7,9,11,13,-1,-1,-1,-1,-1,-1,-1,-1],"loss_changes":[2.3564209E1,2.0549522E1,7.991353E0,7.6908054E0,1.4119408E1,7.5331497E0,6.0227156E0,0E0,0E0,0E0,0E0,0E0,0E0,0E0,0E0],"parents":[2147483647,0,0,1,1,2,2,3,3,4,4,5,5,6,6],"right_children":[2,4,6,8,10,12,14,-1,-1,-1,-1,-1,-1,-1,-1],"split_conditions":[4.38E-1,5.45E-1,6.9E0,-3.3E0,4E0,1.7169E1,1.391E0,2.65742E-3,1.8675509E-4,1.7154787E-3,5.9923492E-3,6.050662E-4,-1.8693949E-3,7.853292E-5,3.635959E-3],"split_indices":[3,55,77,1019,1680,1420,833,0,0,0,0,0,0,0,0],"split_type":[0,0,0,0,0,0,0,0,0,0,0,0,0,0,0],"sum_hessian":[2.5394922E3,8.506911E2,1.6888011E3,5.037051E2,3.46986E2,1.4758372E3,2.1296396E2,2.440787E2,2.596264E2,1.176775E2,2.2930849E2,1.3413636E3,1.3447345E2,7.154054E1,1.4142342E2],"tree_param":{"num_deleted":"0","num_feature":"1681","num_nodes":"15","size_leaf_vector":"1"}},{"base_weights":[-1.3121235E-1,-3.3691928E-1,-8.67008E-2,-2.042467E-1,-5.7161796E-1,-5.093527E-2,-2.7211305E-1,1.880802E-4,-3.1785055E-3,-6.009685E-3,4.8730415E-3,-1.3630148E-3,4.74365E-5,-3.9350777E-4,-4.099144E-3],"categories":[],"categories_nodes":[],"categories_segments":[],"categories_sizes":[],"default_left":[0,0,0,0,0,0,0,0,0,0,0,0,0,0,0],"id":58,"left_children":[1,3,5,7,9,11,13,-1,-1,-1,-1,-1,-1,-1,-1],"loss_changes":[2.322667E1,1.3941231E1,1.3841684E1,7.354125E0,5.342991E0,8.331688E0,1.0813499E1,0E0,0E0,0E0,0E0,0E0,0E0,0E0,0E0],"parents":[2147483647,0,0,1,1,2,2,3,3,4,4,5,5,6,6],"right_children":[2,4,6,8,10,12,14,-1,-1,-1,-1,-1,-1,-1,-1],"split_conditions":[-5E0,6E0,6E0,2.795E0,4E0,7.4E-1,3.5E0,1.880802E-4,-3.1785055E-3,-6.009685E-3,4.8730415E-3,-1.3630148E-3,4.74365E-5,-3.9350777E-4,-4.099144E-3],"split_indices":[25,1680,77,1326,1155,542,1680,0,0,0,0,0,0,0,0],"split_type":[0,0,0,0,0,0,0,0,0,0,0,0,0,0,0],"sum_hessian":[2.5388672E3,4.5047247E2,2.0883948E3,2.8898352E2,1.6148894E2,1.7517598E3,3.36635E2,9.779773E1,1.911858E2,1.5755443E2,3.934514E0,6.909524E2,1.0608074E3,1.256624E2,2.1097263E2],"tree_param":{"num_deleted":"0","num_feature":"1681","num_nodes":"15","size_leaf_vector":"1"}},{"base_weights":[1.3121235E-1,3.3691928E-1,8.67008E-2,2.0424668E-1,5.71618E-1,5.0935272E-2,2.7211305E-1,-1.8808042E-4,3.1785055E-3,6.009685E-3,-4.873041E-3,1.3630147E-3,-4.743641E-5,3.9350794E-4,4.0991437E-3],"categories":[],"categories_nodes":[],"categories_segments":[],"categories_sizes":[],"default_left":[0,0,0,0,0,0,0,0,0,0,0,0,0,0,0],"id":59,"left_children":[1,3,5,7,9,11,13,-1,-1,-1,-1,-1,-1,-1,-1],"loss_changes":[2.322667E1,1.3941238E1,1.3841684E1,7.354126E0,5.3429947E0,8.331684E0,1.0813496E1,0E0,0E0,0E0,0E0,0E0,0E0,0E0,0E0],"parents":[2147483647,0,0,1,1,2,2,3,3,4,4,5,5,6,6],"right_children":[2,4,6,8,10,12,14,-1,-1,-1,-1,-1,-1,-1,-1],"split_conditions":[-5E0,6E0,6E0,2.795E0,4E0,7.4E-1,3.5E0,-1.8808042E-4,3.1785055E-3,6.009685E-3,-4.873041E-3,1.3630147E-3,-4.743641E-5,3.9350794E-4,4.0991437E-3],"split_indices":[25,1680,77,1326,1155,542,1680,0,0,0,0,0,0,0,0],"split_type":[0,0,0,0,0,0,0,0,0,0,0,0,0,0,0],"sum_hessian":[2.5388672E3,4.5047247E2,2.0883948E3,2.8898352E2,1.6148894E2,1.7517598E3,3.36635E2,9.779773E1,1.911858E2,1.5755443E2,3.934514E0,6.909524E2,1.0608074E3,1.256624E2,2.1097263E2],"tree_param":{"num_deleted":"0","num_feature":"1681","num_nodes":"15","size_leaf_vector":"1"}},{"base_weights":[-1.2993754E-1,-7.737189E-2,-3.015867E-1,-5.0689157E-2,-2.5607368E-1,-1.5935364E-1,-5.0201195E-1,-2.8802734E-3,-3.0473666E-4,-3.95679E-3,-5.921157E-4,3.1430998E-3,-2.187622E-3,-1.6833454E-3,-6.057024E-3],"categories":[],"categories_nodes":[],"categories_segments":[],"categories_sizes":[],"default_left":[0,0,0,0,0,0,0,0,0,0,0,0,0,0,0],"id":60,"left_children":[1,3,5,7,9,11,13,-1,-1,-1,-1,-1,-1,-1,-1],"loss_changes":[2.2887718E1,9.26254E0,1.6880573E1,8.117883E0,6.915327E0,9.902579E0,8.426559E0,0E0,0E0,0E0,0E0,0E0,0E0,0E0,0E0],"parents":[2147483647,0,0,1,1,2,2,3,3,4,4,5,5,6,6],"right_children":[2,4,6,8,10,12,14,-1,-1,-1,-1,-1,-1,-1,-1],"split_conditions":[2.1E1,6.9E0,5.45E-1,4.03E-1,5.82E-1,8.54E-1,3.5E0,-2.8802734E-3,-3.0473666E-4,-3.95679E-3,-5.921157E-4,3.1430998E-3,-2.187622E-3,-1.6833454E-3,-6.057024E-3],"split_indices":[28,77,55,194,629,254,1680,0,0,0,0,0,0,0,0],"split_type":[0,0,0,0,0,0,0,0,0,0,0,0,0,0,0],"sum_hessian":[2.538226E3,1.9442667E3,5.9395953E2,1.6927924E3,2.5147437E2,3.4846454E2,2.4549496E2,1.3182811E2,1.5609642E3,1.4654303E2,1.0493134E2,3.835667E1,3.1010788E2,5.8823498E1,1.8667148E2],"tree_param":{"num_deleted":"0","num_feature":"1681","num_nodes":"15","size_leaf_vector":"1"}},{"base_weights":[1.2993754E-1,7.737189E-2,3.015867E-1,5.068916E-2,2.5607368E-1,1.5935364E-1,5.0201195E-1,2.8802732E-3,3.047367E-4,3.95679E-3,5.921156E-4,-3.1430998E-3,2.1876218E-3,1.6833456E-3,6.057024E-3],"categories":[],"categories_nodes":[],"categories_segments":[],"categories_sizes":[],"default_left":[0,0,0,0,0,0,0,0,0,0,0,0,0,0,0],"id":61,"left_children":[1,3,5,7,9,11,13,-1,-1,-1,-1,-1,-1,-1,-1],"loss_changes":[2.2887722E1,9.26254E0,1.688058E1,8.11788E0,6.915327E0,9.902576E0,8.426552E0,0E0,0E0,0E0,0E0,0E0,0E0,0E0,0E0],"parents":[2147483647,0,0,1,1,2,2,3,3,4,4,5,5,6,6],"right_children":[2,4,6,8,10,12,14,-1,-1,-1,-1,-1,-1,-1,-1],"split_conditions":[2.1E1,6.9E0,5.45E-1,4.03E-1,5.82E-1,8.54E-1,3.5E0,2.8802732E-3,3.047367E-4,3.95679E-3,5.921156E-4,-3.1430998E-3,2.1876218E-3,1.6833456E-3,6.057024E-3],"split_indices":[28,77,55,194,629,254,1680,0,0,0,0,0,0,0,0],"split_type":[0,0,0,0,0,0,0,0,0,0,0,0,0,0,0],"sum_hessian":[2.5382263E3,1.9442667E3,5.9395953E2,1.6927924E3,2.5147437E2,3.4846454E2,2.4549496E2,1.3182812E2,1.5609642E3,1.4654303E2,1.0493134E2,3.835667E1,3.1010788E2,5.8823498E1,1.8667148E2],"tree_param":{"num_deleted":"0","num_feature":"1681","num_nodes":"15","size_leaf_vector":"1"}},{"base_weights":[-1.2867495E-1,-3.0296636E-1,-7.764755E-2,-3.8977322E-1,2.9139365E-3,-3.9152652E-2,-2.2602695E-1,-1.4949666E-3,-5.2869455E-3,2.713973E-3,-2.0512023E-3,-1.3418596E-3,2.2575515E-4,-1.3548562E-4,-3.785637E-3],"categories":[],"categories_nodes":[],"categories_segments":[],"categories_sizes":[],"default_left":[0,0,0,0,0,0,0,0,0,0,0,0,0,0,0],"id":62,"left_children":[1,3,5,7,9,11,13,-1,-1,-1,-1,-1,-1,-1,-1],"loss_changes":[2.2554089E1,1.5257442E1,1.1215237E1,1.4860474E1,7.2053103E0,9.162998E0,1.3107573E1,0E0,0E0,0E0,0E0,0E0,0E0,0E0,0E0],"parents":[2147483647,0,0,1,1,2,2,3,3,4,4,5,5,6,6],"right_children":[2,4,6,8,10,12,14,-1,-1,-1,-1,-1,-1,-1,-1],"split_conditions":[-3.7E0,2.3E1,4.9E0,3.5E0,1E-1,7.4E-1,3.5E0,-1.4949666E-3,-5.2869455E-3,2.713973E-3,-2.0512023E-3,-1.3418596E-3,2.2575515E-4,-1.3548562E-4,-3.785637E-3],"split_indices":[25,79,77,1680,717,542,1680,0,0,0,0,0,0,0,0],"split_type":[0,0,0,0,0,0,0,0,0,0,0,0,0,0,0],"sum_hessian":[2.5376243E3,5.7357153E2,1.9640526E3,4.46565E2,1.27006546E2,1.560474E3,4.035786E2,1.6436227E2,2.8220273E2,5.531452E1,7.1692024E1,6.140076E2,9.464664E2,1.691071E2,2.3447153E2],"tree_param":{"num_deleted":"0","num_feature":"1681","num_nodes":"15","size_leaf_vector":"1"}},{"base_weights":[1.2867495E-1,3.0296636E-1,7.7647544E-2,3.8977322E-1,-2.91393E-3,3.9152645E-2,2.2602697E-1,1.4949664E-3,5.2869455E-3,-2.713973E-3,2.0512026E-3,1.3418597E-3,-2.2575533E-4,1.3548566E-4,3.785637E-3],"categories":[],"categories_nodes":[],"categories_segments":[],"categories_sizes":[],"default_left":[0,0,0,0,0,0,0,0,0,0,0,0,0,0,0],"id":63,"left_children":[1,3,5,7,9,11,13,-1,-1,-1,-1,-1,-1,-1,-1],"loss_changes":[2.2554081E1,1.5257442E1,1.1215237E1,1.4860481E1,7.205311E0,9.163E0,1.3107573E1,0E0,0E0,0E0,0E0,0E0,0E0,0E0,0E0],"parents":[2147483647,0,0,1,1,2,2,3,3,4,4,5,5,6,6],"right_children":[2,4,6,8,10,12,14,-1,-1,-1,-1,-1,-1,-1,-1],"split_conditions":[-3.7E0,2.3E1,4.9E0,3.5E0,1E-1,7.4E-1,3.5E0,1.4949664E-3,5.2869455E-3,-2.713973E-3,2.0512026E-3,1.3418597E-3,-2.2575533E-4,1.3548566E-4,3.785637E-3],"split_indices":[25,79,77,1680,717,542,1680,0,0,0,0,0,0,0,0],"split_type":[0,0,0,0,0,0,0,0,0,0,0,0,0,0,0],"sum_hessian":[2.5376243E3,5.7357153E2,1.9640526E3,4.46565E2,1.27006546E2,1.560474E3,4.035786E2,1.6436227E2,2.8220273E2,5.531452E1,7.1692024E1,6.140076E2,9.464664E2,1.691071E2,2.3447153E2],"tree_param":{"num_deleted":"0","num_feature":"1681","num_nodes":"15","size_leaf_vector":"1"}},{"base_weights":[-1.2742591E-1,-2.5934204E-1,-6.0993362E-2,-1.3309366E-1,-4.42373E-1,-5.4503E-2,-7.605356E-1,-2.5917313E-3,-1.4057035E-4,-1.6571836E-3,-5.838156E-3,-2.8646897E-4,-2.3221401E-3,-8.836481E-3,2.330447E-3],"categories":[],"categories_nodes":[],"categories_segments":[],"categories_sizes":[],"default_left":[0,0,0,0,0,0,0,0,0,0,0,0,0,0,0],"id":64,"left_children":[1,3,5,7,9,11,13,-1,-1,-1,-1,-1,-1,-1,-1],"loss_changes":[2.2225769E1,1.957616E1,7.628181E0,7.5649233E0,1.3459373E1,7.6888633E0,2.095995E0,0E0,0E0,0E0,0E0,0E0,0E0,0E0,0E0],"parents":[2147483647,0,0,1,1,2,2,3,3,4,4,5,5,6,6],"right_children":[2,4,6,8,10,12,14,-1,-1,-1,-1,-1,-1,-1,-1],"split_conditions":[4.38E-1,5.45E-1,4.5E1,-3.3E0,4E0,6.9E0,1.88E1,-2.5917313E-3,-1.4057035E-4,-1.6571836E-3,-5.838156E-3,-2.8646897E-4,-2.3221401E-3,-8.836481E-3,2.330447E-3],"split_indices":[3,55,551,1019,1680,77,331,0,0,0,0,0,0,0,0],"split_type":[0,0,0,0,0,0,0,0,0,0,0,0,0,0,0],"sum_hessian":[2.5369727E3,8.4873096E2,1.6882417E3,5.0329962E2,3.4543137E2,1.6737902E3,1.4451532E1,2.4384752E2,2.5945212E2,1.17594345E2,2.27837E2,1.4622073E3,2.1158293E2,1.2956733E1,1.4947999E0],"tree_param":{"num_deleted":"0","num_feature":"1681","num_nodes":"15","size_leaf_vector":"1"}},{"base_weights":[1.2742591E-1,2.5934204E-1,6.099335E-2,1.3309366E-1,4.42373E-1,5.450299E-2,7.605356E-1,2.5917313E-3,1.405703E-4,1.6571834E-3,5.838156E-3,2.8646886E-4,2.3221404E-3,8.836481E-3,-2.3304468E-3],"categories":[],"categories_nodes":[],"categories_segments":[],"categories_sizes":[],"default_left":[0,0,0,0,0,0,0,0,0,0,0,0,0,0,0],"id":65,"left_children":[1,3,5,7,9,11,13,-1,-1,-1,-1,-1,-1,-1,-1],"loss_changes":[2.2225773E1,1.957616E1,7.628183E0,7.5649233E0,1.3459373E1,7.688867E0,2.095994E0,0E0,0E0,0E0,0E0,0E0,0E0,0E0,0E0],"parents":[2147483647,0,0,1,1,2,2,3,3,4,4,5,5,6,6],"right_children":[2,4,6,8,10,12,14,-1,-1,-1,-1,-1,-1,-1,-1],"split_conditions":[4.38E-1,5.45E-1,4.5E1,-3.3E0,4E0,6.9E0,1.88E1,2.5917313E-3,1.405703E-4,1.6571834E-3,5.838156E-3,2.8646886E-4,2.3221404E-3,8.836481E-3,-2.3304468E-3],"split_indices":[3,55,551,1019,1680,77,331,0,0,0,0,0,0,0,0],"split_type":[0,0,0,0,0,0,0,0,0,0,0,0,0,0,0],"sum_hessian":[2.5369727E3,8.4873096E2,1.6882417E3,5.0329962E2,3.4543137E2,1.6737902E3,1.4451532E1,2.4384752E2,2.594521E2,1.17594345E2,2.27837E2,1.4622073E3,2.1158293E2,1.2956733E1,1.4947999E0],"tree_param":{"num_deleted":"0","num_feature":"1681","num_nodes":"15","size_leaf_vector":"1"}},{"base_weights":[-1.2619324E-1,-7.855949E-2,-3.074733E-1,-5.0176524E-2,-2.7296707E-1,-3.995139E-1,6.820937E-3,-6.7912624E-4,2.4598076E-3,-4.2875265E-3,-8.4803655E-4,-2.6638566E-3,-6.156659E-3,2.5438485E-3,-2.3305467E-3],"categories":[],"categories_nodes":[],"categories_segments":[],"categories_sizes":[],"default_left":[0,0,0,0,0,0,0,0,0,0,0,0,0,0,0],"id":66,"left_children":[1,3,5,7,9,11,13,-1,-1,-1,-1,-1,-1,-1,-1],"loss_changes":[2.188557E1,1.10809E1,1.5266026E1,9.239036E0,7.4657288E0,1.1580444E1,7.2151084E0,0E0,0E0,0E0,0E0,0E0,0E0,0E0,0E0],"parents":[2147483647,0,0,1,1,2,2,3,3,4,4,5,5,6,6],"right_children":[2,4,6,8,10,12,14,-1,-1,-1,-1,-1,-1,-1,-1],"split_conditions":[2.4E1,6.9E0,2.3E1,5.426E0,5.58E-1,6E0,6.36E-1,-6.7912624E-4,2.4598076E-3,-4.2875265E-3,-8.4803655E-4,-2.6638566E-3,-6.156659E-3,2.5438485E-3,-2.3305467E-3],"split_indices":[51,77,79,1527,629,1680,440,0,0,0,0,0,0,0,0],"split_type":[0,0,0,0,0,0,0,0,0,0,0,0,0,0,0],"sum_hessian":[2.5363022E3,2.0096685E3,5.266338E2,1.7547395E3,2.5492902E2,4.0713403E2,1.19499756E2,1.6563175E3,9.842194E1,1.3876395E2,1.1616507E2,2.5333632E2,1.537977E2,5.8777683E1,6.072207E1],"tree_param":{"num_deleted":"0","num_feature":"1681","num_nodes":"15","size_leaf_vector":"1"}},{"base_weights":[1.2619323E-1,7.855948E-2,3.0747327E-1,5.0176505E-2,2.7296707E-1,3.9951387E-1,-6.820928E-3,6.7912607E-4,-2.4598076E-3,4.2875265E-3,8.4803655E-4,2.6638566E-3,6.156658E-3,-2.5438485E-3,2.3305467E-3],"categories":[],"categories_nodes":[],"categories_segments":[],"categories_sizes":[],"default_left":[0,0,0,0,0,0,0,0,0,0,0,0,0,0,0],"id":67,"left_children":[1,3,5,7,9,11,13,-1,-1,-1,-1,-1,-1,-1,-1],"loss_changes":[2.188557E1,1.10809E1,1.5266026E1,9.239035E0,7.465727E0,1.1580429E1,7.2151084E0,0E0,0E0,0E0,0E0,0E0,0E0,0E0,0E0],"parents":[2147483647,0,0,1,1,2,2,3,3,4,4,5,5,6,6],"right_children":[2,4,6,8,10,12,14,-1,-1,-1,-1,-1,-1,-1,-1],"split_conditions":[2.4E1,6.9E0,2.3E1,5.426E0,5.58E-1,6E0,6.36E-1,6.7912607E-4,-2.4598076E-3,4.2875265E-3,8.4803655E-4,2.6638566E-3,6.156658E-3,-2.5438485E-3,2.3305467E-3],"split_indices":[51,77,79,1527,629,1680,440,0,0,0,0,0,0,0,0],"split_type":[0,0,0,0,0,0,0,0,0,0,0,0,0,0,0],"sum_hessian":[2.5363022E3,2.0096685E3,5.266338E2,1.7547395E3,2.5492902E2,4.0713403E2,1.19499756E2,1.6563175E3,9.842194E1,1.3876395E2,1.1616507E2,2.5333633E2,1.5379771E2,5.8777683E1,6.072207E1],"tree_param":{"num_deleted":"0","num_feature":"1681","num_nodes":"15","size_leaf_vector":"1"}},{"base_weights":[-1.2496912E-1,-7.397357E-2,-2.918905E-1,-4.8322275E-2,-2.4612124E-1,-3.7905577E-1,1.9936427E-2,-2.8342078E-3,-2.8302413E-4,-3.8371955E-3,-5.2377005E-4,-1.7326272E-3,-5.4538934E-3,2.2793976E-3,-2.3015912E-3],"categories":[],"categories_nodes":[],"categories_segments":[],"categories_sizes":[],"default_left":[0,0,0,0,0,0,0,0,0,0,0,0,0,0,0],"id":68,"left_children":[1,3,5,7,9,11,13,-1,-1,-1,-1,-1,-1,-1,-1],"loss_changes":[2.1570942E1,8.574089E0,1.6132908E1,7.9625044E0,6.6955156E0,1.5778503E1,6.844173E0,0E0,0E0,0E0,0E0,0E0,0E0,0E0,0E0],"parents":[2147483647,0,0,1,1,2,2,3,3,4,4,5,5,6,6],"right_children":[2,4,6,8,10,12,14,-1,-1,-1,-1,-1,-1,-1,-1],"split_conditions":[2.1E1,6.9E0,2.3E1,4.03E-1,5.82E-1,4E0,1.23E1,-2.8342078E-3,-2.8302413E-4,-3.8371955E-3,-5.2377005E-4,-1.7326272E-3,-5.4538934E-3,2.2793976E-3,-2.3015912E-3],"split_indices":[28,77,79,194,629,1680,1362,0,0,0,0,0,0,0,0],"split_type":[0,0,0,0,0,0,0,0,0,0,0,0,0,0,0],"sum_hessian":[2.5356428E3,1.9433732E3,5.922698E2,1.6924641E3,2.5090909E2,4.627119E2,1.2955783E2,1.3178E2,1.5606841E3,1.4613943E2,1.04769646E2,2.077361E2,2.5497581E2,7.0779465E1,5.8778366E1],"tree_param":{"num_deleted":"0","num_feature":"1681","num_nodes":"15","size_leaf_vector":"1"}},{"base_weights":[1.249691E-1,7.397355E-2,2.918905E-1,4.832226E-2,2.4612124E-1,3.7905574E-1,-1.9936426E-2,2.8342076E-3,2.8302398E-4,3.8371955E-3,5.2376994E-4,1.7326273E-3,5.453893E-3,-2.2793976E-3,2.3015912E-3],"categories":[],"categories_nodes":[],"categories_segments":[],"categories_sizes":[],"default_left":[0,0,0,0,0,0,0,0,0,0,0,0,0,0,0],"id":69,"left_children":[1,3,5,7,9,11,13,-1,-1,-1,-1,-1,-1,-1,-1],"loss_changes":[2.1570942E1,8.57409E0,1.6132915E1,7.9625034E0,6.6955147E0,1.5778496E1,6.844173E0,0E0,0E0,0E0,0E0,0E0,0E0,0E0,0E0],"parents":[2147483647,0,0,1,1,2,2,3,3,4,4,5,5,6,6],"right_children":[2,4,6,8,10,12,14,-1,-1,-1,-1,-1,-1,-1,-1],"split_conditions":[2.1E1,6.9E0,2.3E1,4.03E-1,5.82E-1,4E0,1.23E1,2.8342076E-3,2.8302398E-4,3.8371955E-3,5.2376994E-4,1.7326273E-3,5.453893E-3,-2.2793976E-3,2.3015912E-3],"split_indices":[28,77,79,194,629,1680,1362,0,0,0,0,0,0,0,0],"split_type":[0,0,0,0,0,0,0,0,0,0,0,0,0,0,0],"sum_hessian":[2.5356428E3,1.9433732E3,5.922698E2,1.6924641E3,2.5090907E2,4.627119E2,1.2955783E2,1.3178E2,1.5606841E3,1.4613943E2,1.04769646E2,2.077361E2,2.5497581E2,7.0779465E1,5.877837E1],"tree_param":{"num_deleted":"0","num_feature":"1681","num_nodes":"15","size_leaf_vector":"1"}},{"base_weights":[-1.2375778E-1,-3.2114905E-1,-8.123556E-2,-1.9320433E-1,-5.4953617E-1,-4.8584066E-2,-2.680682E-1,-2.1661667E-3,8.59729E-3,-5.7885093E-3,4.966529E-3,-2.9055437E-3,-3.0459996E-4,-1.4144015E-3,-4.643356E-3],"categories":[],"categories_nodes":[],"categories_segments":[],"categories_sizes":[],"default_left":[0,0,0,0,0,0,0,0,0,0,0,0,0,0,0],"id":70,"left_children":[1,3,5,7,9,11,13,-1,-1,-1,-1,-1,-1,-1,-1],"loss_changes":[2.1259766E1,1.3018093E1,1.2723617E1,7.3207464E0,5.2167625E0,7.7906127E0,7.6481056E0,0E0,0E0,0E0,0E0,0E0,0E0,0E0,0E0],"parents":[2147483647,0,0,1,1,2,2,3,3,4,4,5,5,6,6],"right_children":[2,4,6,8,10,12,14,-1,-1,-1,-1,-1,-1,-1,-1],"split_conditions":[-5E0,6E0,7.08E-1,5E0,4E0,3.982E0,1.5E1,-2.1661667E-3,8.59729E-3,-5.7885093E-3,4.966529E-3,-2.9055437E-3,-3.0459996E-4,-1.4144015E-3,-4.643356E-3],"split_indices":[25,1680,55,1590,1155,795,51,0,0,0,0,0,0,0,0],"split_type":[0,0,0,0,0,0,0,0,0,0,0,0,0,0,0],"sum_hessian":[2.534988E3,4.481394E2,2.0868486E3,2.8841336E2,1.5972604E2,1.7774718E3,3.0937686E2,2.829169E2,5.4964848E0,1.5580696E2,3.9190886E0,1.2281153E2,1.6546603E3,1.890962E2,1.2028066E2],"tree_param":{"num_deleted":"0","num_feature":"1681","num_nodes":"15","size_leaf_vector":"1"}},{"base_weights":[1.23757765E-1,3.2114905E-1,8.123555E-2,1.9320433E-1,5.4953617E-1,4.858405E-2,2.680682E-1,2.1661667E-3,-8.59729E-3,5.7885093E-3,-4.966529E-3,2.9055437E-3,3.0459982E-4,1.4144015E-3,4.643356E-3],"categories":[],"categories_nodes":[],"categories_segments":[],"categories_sizes":[],"default_left":[0,0,0,0,0,0,0,0,0,0,0,0,0,0,0],"id":71,"left_children":[1,3,5,7,9,11,13,-1,-1,-1,-1,-1,-1,-1,-1],"loss_changes":[2.1259766E1,1.3018093E1,1.2723613E1,7.3207464E0,5.2167625E0,7.790614E0,7.6481094E0,0E0,0E0,0E0,0E0,0E0,0E0,0E0,0E0],"parents":[2147483647,0,0,1,1,2,2,3,3,4,4,5,5,6,6],"right_children":[2,4,6,8,10,12,14,-1,-1,-1,-1,-1,-1,-1,-1],"split_conditions":[-5E0,6E0,7.08E-1,5E0,4E0,3.982E0,1.5E1,2.1661667E-3,-8.59729E-3,5.7885093E-3,-4.966529E-3,2.9055437E-3,3.0459982E-4,1.4144015E-3,4.643356E-3],"split_indices":[25,1680,55,1590,1155,795,51,0,0,0,0,0,0,0,0],"split_type":[0,0,0,0,0,0,0,0,0,0,0,0,0,0,0],"sum_hessian":[2.534988E3,4.481394E2,2.0868486E3,2.8841336E2,1.5972604E2,1.7774718E3,3.093769E2,2.8291687E2,5.4964848E0,1.5580696E2,3.9190886E0,1.2281153E2,1.6546603E3,1.8909622E2,1.2028066E2],"tree_param":{"num_deleted":"0","num_feature":"1681","num_nodes":"15","size_leaf_vector":"1"}},{"base_weights":[-1.2255511E-1,-2.508556E-1,-5.808388E-2,-1.2747885E-1,-4.3042165E-1,-5.165711E-2,-7.515768E-1,-1.567402E-3,3.764852E-3,-1.597449E-3,-5.6965337E-3,-1.3027479E-3,5.6077664E-5,-8.740144E-3,2.337362E-3],"categories":[],"categories_nodes":[],"categories_segments":[],"categories_sizes":[],"default_left":[0,0,0,0,0,0,0,0,0,0,0,0,0,0,0],"id":72,"left_children":[1,3,5,7,9,11,13,-1,-1,-1,-1,-1,-1,-1,-1],"loss_changes":[2.095671E1,1.872345E1,7.4875445E0,7.4889126E0,1.2902641E1,7.5383024E0,2.066E0,0E0,0E0,0E0,0E0,0E0,0E0,0E0,0E0],"parents":[2147483647,0,0,1,1,2,2,3,3,4,4,5,5,6,6],"right_children":[2,4,6,8,10,12,14,-1,-1,-1,-1,-1,-1,-1,-1],"split_conditions":[4.38E-1,5.45E-1,4.5E1,3.13E1,4E0,9.813E0,1.88E1,-1.567402E-3,3.764852E-3,-1.597449E-3,-5.6965337E-3,-1.3027479E-3,5.6077664E-5,-8.740144E-3,2.337362E-3],"split_indices":[3,55,551,1068,1680,1420,331,0,0,0,0,0,0,0,0],"split_type":[0,0,0,0,0,0,0,0,0,0,0,0,0,0,0],"sum_hessian":[2.5343083E3,8.4661584E2,1.6876925E3,5.028359E2,3.437799E2,1.6732605E3,1.44320345E1,4.758934E2,2.694252E1,1.1749953E2,2.262804E2,7.0462354E2,9.686369E2,1.2937361E1,1.4946742E0],"tree_param":{"num_deleted":"0","num_feature":"1681","num_nodes":"15","size_leaf_vector":"1"}},{"base_weights":[1.2255509E-1,2.508556E-1,5.8083862E-2,1.2747887E-1,4.3042162E-1,5.165709E-2,7.515768E-1,1.5674022E-3,-3.764852E-3,1.597449E-3,5.6965337E-3,1.3027475E-3,-5.607783E-5,8.740145E-3,-2.337362E-3],"categories":[],"categories_nodes":[],"categories_segments":[],"categories_sizes":[],"default_left":[0,0,0,0,0,0,0,0,0,0,0,0,0,0,0],"id":73,"left_children":[1,3,5,7,9,11,13,-1,-1,-1,-1,-1,-1,-1,-1],"loss_changes":[2.0956715E1,1.8723442E1,7.487545E0,7.4889135E0,1.2902657E1,7.5383024E0,2.066002E0,0E0,0E0,0E0,0E0,0E0,0E0,0E0,0E0],"parents":[2147483647,0,0,1,1,2,2,3,3,4,4,5,5,6,6],"right_children":[2,4,6,8,10,12,14,-1,-1,-1,-1,-1,-1,-1,-1],"split_conditions":[4.38E-1,5.45E-1,4.5E1,3.13E1,4E0,9.813E0,1.88E1,1.5674022E-3,-3.764852E-3,1.597449E-3,5.6965337E-3,1.3027475E-3,-5.607783E-5,8.740145E-3,-2.337362E-3],"split_indices":[3,55,551,1068,1680,1420,331,0,0,0,0,0,0,0,0],"split_type":[0,0,0,0,0,0,0,0,0,0,0,0,0,0,0],"sum_hessian":[2.5343083E3,8.4661584E2,1.6876925E3,5.028359E2,3.437799E2,1.6732604E3,1.44320345E1,4.7589337E2,2.694252E1,1.1749953E2,2.2628038E2,7.0462354E2,9.686369E2,1.293736E1,1.4946742E0],"tree_param":{"num_deleted":"0","num_feature":"1681","num_nodes":"15","size_leaf_vector":"1"}},{"base_weights":[-1.2136712E-1,-3.159637E-1,-7.951609E-2,-1.8965207E-1,-5.421924E-1,-4.7252033E-2,-2.642965E-1,5.036397E-3,-2.2526418E-3,-5.713654E-3,4.939923E-3,-2.9954966E-4,-2.977642E-3,-4.0905103E-3,-9.2983234E-4],"categories":[],"categories_nodes":[],"categories_segments":[],"categories_sizes":[],"default_left":[0,0,0,0,0,0,0,0,0,0,0,0,0,0,0],"id":74,"left_children":[1,3,5,7,9,11,13,-1,-1,-1,-1,-1,-1,-1,-1],"loss_changes":[2.061716E1,1.2707291E1,1.2431795E1,7.2539797E0,5.1212807E0,7.696583E0,7.651209E0,0E0,0E0,0E0,0E0,0E0,0E0,0E0,0E0],"parents":[2147483647,0,0,1,1,2,2,3,3,4,4,5,5,6,6],"right_children":[2,4,6,8,10,12,14,-1,-1,-1,-1,-1,-1,-1,-1],"split_conditions":[-5E0,6E0,7.08E-1,3.122E0,4E0,1.974E0,5.58E-1,5.036397E-3,-2.2526418E-3,-5.713654E-3,4.939923E-3,-2.9954966E-4,-2.977642E-3,-4.0905103E-3,-9.2983234E-4],"split_indices":[25,1680,55,452,1155,1618,629,0,0,0,0,0,0,0,0],"split_type":[0,0,0,0,0,0,0,0,0,0,0,0,0,0,0],"sum_hessian":[2.5336416E3,4.4729315E2,2.0863484E3,2.8821222E2,1.5908093E2,1.777278E3,3.0907047E2,1.3439111E1,2.7477313E2,1.5516107E2,3.9198608E0,1.6635358E3,1.1374226E2,1.6676843E2,1.4230203E2],"tree_param":{"num_deleted":"0","num_feature":"1681","num_nodes":"15","size_leaf_vector":"1"}},{"base_weights":[1.21367104E-1,3.159637E-1,7.9516076E-2,1.8965207E-1,5.4219234E-1,4.7252018E-2,2.642965E-1,-5.0363964E-3,2.2526418E-3,5.713654E-3,-4.939923E-3,2.9954946E-4,2.9776425E-3,4.09051E-3,9.2983246E-4],"categories":[],"categories_nodes":[],"categories_segments":[],"categories_sizes":[],"default_left":[0,0,0,0,0,0,0,0,0,0,0,0,0,0,0],"id":75,"left_children":[1,3,5,7,9,11,13,-1,-1,-1,-1,-1,-1,-1,-1],"loss_changes":[2.0617165E1,1.2707287E1,1.2431795E1,7.2539806E0,5.1212807E0,7.6965847E0,7.651203E0,0E0,0E0,0E0,0E0,0E0,0E0,0E0,0E0],"parents":[2147483647,0,0,1,1,2,2,3,3,4,4,5,5,6,6],"right_children":[2,4,6,8,10,12,14,-1,-1,-1,-1,-1,-1,-1,-1],"split_conditions":[-5E0,6E0,7.08E-1,3.122E0,4E0,1.974E0,5.58E-1,-5.0363964E-3,2.2526418E-3,5.713654E-3,-4.939923E-3,2.9954946E-4,2.9776425E-3,4.09051E-3,9.2983246E-4],"split_indices":[25,1680,55,452,1155,1618,629,0,0,0,0,0,0,0,0],"split_type":[0,0,0,0,0,0,0,0,0,0,0,0,0,0,0],"sum_hessian":[2.5336416E3,4.4729315E2,2.0863484E3,2.8821222E2,1.5908093E2,1.777278E3,3.0907047E2,1.3439111E1,2.7477313E2,1.5516107E2,3.9198608E0,1.6635358E3,1.1374226E2,1.6676845E2,1.4230203E2],"tree_param":{"num_deleted":"0","num_feature":"1681","num_nodes":"15","size_leaf_vector":"1"}},{"base_weights":[-1.2018883E-1,-7.068286E-2,-2.8265536E-1,-4.57029E-2,-2.3861434E-1,-3.6864945E-1,2.3987863E-2,-2.7834396E-3,-2.5898585E-4,-3.4944192E-4,-3.6839633E-3,-1.6777919E-3,-5.3188745E-3,2.2944561E-3,-2.232785E-3],"categories":[],"categories_nodes":[],"categories_segments":[],"categories_sizes":[],"default_left":[0,0,0,0,0,0,0,0,0,0,0,0,0,0,0],"id":76,"left_children":[1,3,5,7,9,11,13,-1,-1,-1,-1,-1,-1,-1,-1],"loss_changes":[2.0360825E1,8.141882E0,1.5605633E1,7.793247E0,6.6329517E0,1.505925E1,6.680019E0,0E0,0E0,0E0,0E0,0E0,0E0,0E0,0E0],"parents":[2147483647,0,0,1,1,2,2,3,3,4,4,5,5,6,6],"right_children":[2,4,6,8,10,12,14,-1,-1,-1,-1,-1,-1,-1,-1],"split_conditions":[2.1E1,6.9E0,2.3E1,4.03E-1,3.5E0,4E0,1.23E1,-2.7834396E-3,-2.5898585E-4,-3.4944192E-4,-3.6839633E-3,-1.6777919E-3,-5.3188745E-3,2.2944561E-3,-2.232785E-3],"split_indices":[28,77,79,194,1680,1680,1362,0,0,0,0,0,0,0,0],"split_type":[0,0,0,0,0,0,0,0,0,0,0,0,0,0,0],"sum_hessian":[2.5329604E3,1.9424899E3,5.904706E2,1.6920657E3,2.5042415E2,4.6098978E2,1.2948079E2,1.3171825E2,1.5603475E3,9.79609E1,1.5246324E2,2.0758134E2,2.5340845E2,7.075847E1,5.8722324E1],"tree_param":{"num_deleted":"0",