{"learner":{"attributes":{"num_features":"1093"},"feature_names":[],"feature_types":[],"gradient_booster":{"model":{"gbtree_model_param":{"num_parallel_tree":"1","num_trees":"1500"},"iteration_indptr":[0,2,4,6,8,10,12,14,16,18,20,22,24,26,28,30,32,34,36,38,40,42,44,46,48,50,52,54,56,58,60,62,64,66,68,70,72,74,76,78,80,82,84,86,88,90,92,94,96,98,100,102,104,106,108,110,112,114,116,118,120,122,124,126,128,130,132,134,136,138,140,142,144,146,148,150,152,154,156,158,160,162,164,166,168,170,172,174,176,178,180,182,184,186,188,190,192,194,196,198,200,202,204,206,208,210,212,214,216,218,220,222,224,226,228,230,232,234,236,238,240,242,244,246,248,250,252,254,256,258,260,262,264,266,268,270,272,274,276,278,280,282,284,286,288,290,292,294,296,298,300,302,304,306,308,310,312,314,316,318,320,322,324,326,328,330,332,334,336,338,340,342,344,346,348,350,352,354,356,358,360,362,364,366,368,370,372,374,376,378,380,382,384,386,388,390,392,394,396,398,400,402,404,406,408,410,412,414,416,418,420,422,424,426,428,430,432,434,436,438,440,442,444,446,448,450,452,454,456,458,460,462,464,466,468,470,472,474,476,478,480,482,484,486,488,490,492,494,496,498,500,502,504,506,508,510,512,514,516,518,520,522,524,526,528,530,532,534,536,538,540,542,544,546,548,550,552,554,556,558,560,562,564,566,568,570,572,574,576,578,580,582,584,586,588,590,592,594,596,598,600,602,604,606,608,610,612,614,616,618,620,622,624,626,628,630,632,634,636,638,640,642,644,646,648,650,652,654,656,658,660,662,664,666,668,670,672,674,676,678,680,682,684,686,688,690,692,694,696,698,700,702,704,706,708,710,712,714,716,718,720,722,724,726,728,730,732,734,736,738,740,742,744,746,748,750,752,754,756,758,760,762,764,766,768,770,772,774,776,778,780,782,784,786,788,790,792,794,796,798,800,802,804,806,808,810,812,814,816,818,820,822,824,826,828,830,832,834,836,838,840,842,844,846,848,850,852,854,856,858,860,862,864,866,868,870,872,874,876,878,880,882,884,886,888,890,892,894,896,898,900,902,904,906,908,910,912,914,916,918,920,922,924,926,928,930,932,934,936,938,940,942,944,946,948,950,952,954,956,958,960,962,964,966,968,970,972,974,976,978,980,982,984,986,988,990,992,994,996,998,1000,1002,1004,1006,1008,1010,1012,1014,1016,1018,1020,1022,1024,1026,1028,1030,1032,1034,1036,1038,1040,1042,1044,1046,1048,1050,1052,1054,1056,1058,1060,1062,1064,1066,1068,1070,1072,1074,1076,1078,1080,1082,1084,1086,1088,1090,1092,1094,1096,1098,1100,1102,1104,1106,1108,1110,1112,1114,1116,1118,1120,1122,1124,1126,1128,1130,1132,1134,1136,1138,1140,1142,1144,1146,1148,1150,1152,1154,1156,1158,1160,1162,1164,1166,1168,1170,1172,1174,1176,1178,1180,1182,1184,1186,1188,1190,1192,1194,1196,1198,1200,1202,1204,1206,1208,1210,1212,1214,1216,1218,1220,1222,1224,1226,1228,1230,1232,1234,1236,1238,1240,1242,1244,1246,1248,1250,1252,1254,1256,1258,1260,1262,1264,1266,1268,1270,1272,1274,1276,1278,1280,1282,1284,1286,1288,1290,1292,1294,1296,1298,1300,1302,1304,1306,1308,1310,1312,1314,1316,1318,1320,1322,1324,1326,1328,1330,1332,1334,1336,1338,1340,1342,1344,1346,1348,1350,1352,1354,1356,1358,1360,1362,1364,1366,1368,1370,1372,1374,1376,1378,1380,1382,1384,1386,1388,1390,1392,1394,1396,1398,1400,1402,1404,1406,1408,1410,1412,1414,1416,1418,1420,1422,1424,1426,1428,1430,1432,1434,1436,1438,1440,1442,1444,1446,1448,1450,1452,1454,1456,1458,1460,1462,1464,1466,1468,1470,1472,1474,1476,1478,1480,1482,1484,1486,1488,1490,1492,1494,1496,1498,1500],"tree_info":[0,1,0,1,0,1,0,1,0,1,0,1,0,1,0,1,0,1,0,1,0,1,0,1,0,1,0,1,0,1,0,1,0,1,0,1,0,1,0,1,0,1,0,1,0,1,0,1,0,1,0,1,0,1,0,1,0,1,0,1,0,1,0,1,0,1,0,1,0,1,0,1,0,1,0,1,0,1,0,1,0,1,0,1,0,1,0,1,0,1,0,1,0,1,0,1,0,1,0,1,0,1,0,1,0,1,0,1,0,1,0,1,0,1,0,1,0,1,0,1,0,1,0,1,0,1,0,1,0,1,0,1,0,1,0,1,0,1,0,1,0,1,0,1,0,1,0,1,0,1,0,1,0,1,0,1,0,1,0,1,0,1,0,1,0,1,0,1,0,1,0,1,0,1,0,1,0,1,0,1,0,1,0,1,0,1,0,1,0,1,0,1,0,1,0,1,0,1,0,1,0,1,0,1,0,1,0,1,0,1,0,1,0,1,0,1,0,1,0,1,0,1,0,1,0,1,0,1,0,1,0,1,0,1,0,1,0,1,0,1,0,1,0,1,0,1,0,1,0,1,0,1,0,1,0,1,0,1,0,1,0,1,0,1,0,1,0,1,0,1,0,1,0,1,0,1,0,1,0,1,0,1,0,1,0,1,0,1,0,1,0,1,0,1,0,1,0,1,0,1,0,1,0,1,0,1,0,1,0,1,0,1,0,1,0,1,0,1,0,1,0,1,0,1,0,1,0,1,0,1,0,1,0,1,0,1,0,1,0,1,0,1,0,1,0,1,0,1,0,1,0,1,0,1,0,1,0,1,0,1,0,1,0,1,0,1,0,1,0,1,0,1,0,1,0,1,0,1,0,1,0,1,0,1,0,1,0,1,0,1,0,1,0,1,0,1,0,1,0,1,0,1,0,1,0,1,0,1,0,1,0,1,0,1,0,1,0,1,0,1,0,1,0,1,0,1,0,1,0,1,0,1,0,1,0,1,0,1,0,1,0,1,0,1,0,1,0,1,0,1,0,1,0,1,0,1,0,1,0,1,0,1,0,1,0,1,0,1,0,1,0,1,0,1,0,1,0,1,0,1,0,1,0,1,0,1,0,1,0,1,0,1,0,1,0,1,0,1,0,1,0,1,0,1,0,1,0,1,0,1,0,1,0,1,0,1,0,1,0,1,0,1,0,1,0,1,0,1,0,1,0,1,0,1,0,1,0,1,0,1,0,1,0,1,0,1,0,1,0,1,0,1,0,1,0,1,0,1,0,1,0,1,0,1,0,1,0,1,0,1,0,1,0,1,0,1,0,1,0,1,0,1,0,1,0,1,0,1,0,1,0,1,0,1,0,1,0,1,0,1,0,1,0,1,0,1,0,1,0,1,0,1,0,1,0,1,0,1,0,1,0,1,0,1,0,1,0,1,0,1,0,1,0,1,0,1,0,1,0,1,0,1,0,1,0,1,0,1,0,1,0,1,0,1,0,1,0,1,0,1,0,1,0,1,0,1,0,1,0,1,0,1,0,1,0,1,0,1,0,1,0,1,0,1,0,1,0,1,0,1,0,1,0,1,0,1,0,1,0,1,0,1,0,1,0,1,0,1,0,1,0,1,0,1,0,1,0,1,0,1,0,1,0,1,0,1,0,1,0,1,0,1,0,1,0,1,0,1,0,1,0,1,0,1,0,1,0,1,0,1,0,1,0,1,0,1,0,1,0,1,0,1,0,1,0,1,0,1,0,1,0,1,0,1,0,1,0,1,0,1,0,1,0,1,0,1,0,1,0,1,0,1,0,1,0,1,0,1,0,1,0,1,0,1,0,1,0,1,0,1,0,1,0,1,0,1,0,1,0,1,0,1,0,1,0,1,0,1,0,1,0,1,0,1,0,1,0,1,0,1,0,1,0,1,0,1,0,1,0,1,0,1,0,1,0,1,0,1,0,1,0,1,0,1,0,1,0,1,0,1,0,1,0,1,0,1,0,1,0,1,0,1,0,1,0,1,0,1,0,1,0,1,0,1,0,1,0,1,0,1,0,1,0,1,0,1,0,1,0,1,0,1,0,1,0,1,0,1,0,1,0,1,0,1,0,1,0,1,0,1,0,1,0,1,0,1,0,1,0,1,0,1,0,1,0,1,0,1,0,1,0,1,0,1,0,1,0,1,0,1,0,1,0,1,0,1,0,1,0,1,0,1,0,1,0,1,0,1,0,1,0,1,0,1,0,1,0,1,0,1,0,1,0,1,0,1,0,1,0,1,0,1,0,1,0,1,0,1,0,1,0,1,0,1,0,1,0,1,0,1,0,1,0,1,0,1,0,1,0,1,0,1,0,1,0,1,0,1,0,1,0,1,0,1,0,1,0,1,0,1,0,1,0,1,0,1,0,1,0,1,0,1,0,1,0,1,0,1,0,1,0,1,0,1,0,1,0,1,0,1,0,1,0,1,0,1,0,1,0,1,0,1,0,1,0,1,0,1,0,1,0,1,0,1,0,1,0,1,0,1,0,1,0,1,0,1,0,1,0,1,0,1,0,1,0,1,0,1,0,1,0,1,0,1,0,1,0,1,0,1,0,1,0,1,0,1,0,1,0,1,0,1,0,1,0,1,0,1,0,1,0,1,0,1,0,1,0,1,0,1,0,1,0,1,0,1,0,1,0,1,0,1,0,1,0,1,0,1,0,1,0,1,0,1,0,1,0,1,0,1,0,1,0,1,0,1,0,1,0,1,0,1,0,1,0,1,0,1,0,1,0,1,0,1,0,1,0,1,0,1,0,1,0,1,0,1,0,1,0,1,0,1,0,1,0,1,0,1,0,1,0,1,0,1,0,1,0,1,0,1,0,1,0,1,0,1,0,1,0,1,0,1,0,1,0,1,0,1,0,1,0,1,0,1,0,1,0,1,0,1,0,1,0,1,0,1,0,1,0,1,0,1,0,1,0,1,0,1,0,1,0,1,0,1,0,1,0,1,0,1,0,1,0,1,0,1,0,1,0,1,0,1,0,1,0,1,0,1,0,1,0,1,0,1,0,1,0,1,0,1,0,1,0,1,0,1,0,1,0,1,0,1,0,1,0,1,0,1,0,1,0,1,0,1,0,1,0,1,0,1,0,1,0,1,0,1,0,1,0,1,0,1,0,1,0,1,0,1,0,1,0,1,0,1,0,1,0,1,0,1,0,1,0,1,0,1,0,1,0,1,0,1,0,1,0,1,0,1,0,1,0,1,0,1,0,1,0,1,0,1,0,1,0,1,0,1,0,1,0,1,0,1,0,1,0,1,0,1,0,1,0,1,0,1,0,1,0,1,0,1,0,1,0,1,0,1,0,1,0,1,0,1,0,1,0,1,0,1,0,1,0,1,0,1,0,1,0,1,0,1],"trees":[{"base_weights":[-1.512338E-1,-3.4582874E-1,-5.4325957E-2,-1.5797208E-1,-5.330396E-1,-2.5094103E-2,-2.576419E-1,-2.254902E-3,4.3731777E-4,-2.8505393E-3,-7.5664334E-3,-9.594272E-4,3.012272E-4,-1.8118466E-3,-6.3478258E-3],"categories":[],"categories_nodes":[],"categories_segments":[],"categories_sizes":[],"default_left":[0,0,0,0,0,0,0,0,0,0,0,0,0,0,0],"id":0,"left_children":[1,3,5,7,9,11,13,-1,-1,-1,-1,-1,-1,-1,-1],"loss_changes":[7.7166084E1,4.776297E1,1.6239552E1,9.277361E0,3.7546127E1,9.356567E0,9.789858E0,0E0,0E0,0E0,0E0,0E0,0E0,0E0,0E0],"parents":[2147483647,0,0,1,1,2,2,3,3,4,4,5,5,6,6],"right_children":[2,4,6,8,10,12,14,-1,-1,-1,-1,-1,-1,-1,-1],"split_conditions":[4.37E-1,4.5E0,6.6E0,1.154E2,5.52E-1,1.2059E1,1.6E1,-2.254902E-3,4.3731777E-4,-2.8505393E-3,-7.5664334E-3,-9.594272E-4,3.012272E-4,-1.8118466E-3,-6.3478258E-3],"split_indices":[3,1092,77,1016,55,993,51,0,0,0,0,0,0,0,0],"split_type":[0,0,0,0,0,0,0,0,0,0,0,0,0,0,0],"sum_hessian":[4.092E3,1.3595E3,2.7325E3,6.795E2,6.8E2,2.39E3,3.425E2,5.09E2,1.705E2,3.235E2,3.565E2,1.0465E3,1.3435E3,2.86E2,5.65E1],"tree_param":{"num_deleted":"0","num_feature":"1093","num_nodes":"15","size_leaf_vector":"1"}},{"base_weights":[1.512338E-1,3.4582874E-1,5.4325957E-2,1.5797208E-1,5.330396E-1,2.5094103E-2,2.576419E-1,2.254902E-3,-4.3731777E-4,2.8505393E-3,7.5664334E-3,9.594272E-4,-3.012272E-4,1.8118466E-3,6.3478258E-3],"categories":[],"categories_nodes":[],"categories_segments":[],"categories_sizes":[],"default_left":[0,0,0,0,0,0,0,0,0,0,0,0,0,0,0],"id":1,"left_children":[1,3,5,7,9,11,13,-1,-1,-1,-1,-1,-1,-1,-1],"loss_changes":[7.7166084E1,4.776297E1,1.6239552E1,9.277361E0,3.7546127E1,9.356567E0,9.789858E0,0E0,0E0,0E0,0E0,0E0,0E0,0E0,0E0],"parents":[2147483647,0,0,1,1,2,2,3,3,4,4,5,5,6,6],"right_children":[2,4,6,8,10,12,14,-1,-1,-1,-1,-1,-1,-1,-1],"split_conditions":[4.37E-1,4.5E0,6.6E0,1.154E2,5.52E-1,1.2059E1,1.6E1,2.254902E-3,-4.3731777E-4,2.8505393E-3,7.5664334E-3,9.594272E-4,-3.012272E-4,1.8118466E-3,6.3478258E-3],"split_indices":[3,1092,77,1016,55,993,51,0,0,0,0,0,0,0,0],"split_type":[0,0,0,0,0,0,0,0,0,0,0,0,0,0,0],"sum_hessian":[4.092E3,1.3595E3,2.7325E3,6.795E2,6.8E2,2.39E3,3.425E2,5.09E2,1.705E2,3.235E2,3.565E2,1.0465E3,1.3435E3,2.86E2,5.65E1],"tree_param":{"num_deleted":"0","num_feature":"1093","num_nodes":"15","size_leaf_vector":"1"}},{"base_weights":[-1.4972775E-1,-3.4238595E-1,-5.3786024E-2,-1.5639561E-1,-5.277425E-1,-2.4843471E-2,-2.5509164E-1,-2.232408E-3,4.329696E-4,-2.8221447E-3,-7.4914102E-3,-9.498432E-4,2.9821708E-4,-1.793797E-3,-6.2857014E-3],"categories":[],"categories_nodes":[],"categories_segments":[],"categories_sizes":[],"default_left":[0,0,0,0,0,0,0,0,0,0,0,0,0,0,0],"id":2,"left_children":[1,3,5,7,9,11,13,-1,-1,-1,-1,-1,-1,-1,-1],"loss_changes":[7.563588E1,4.6819168E1,1.5919825E1,9.093279E0,3.6806183E1,9.170549E0,9.600233E0,0E0,0E0,0E0,0E0,0E0,0E0,0E0,0E0],"parents":[2147483647,0,0,1,1,2,2,3,3,4,4,5,5,6,6],"right_children":[2,4,6,8,10,12,14,-1,-1,-1,-1,-1,-1,-1,-1],"split_conditions":[4.37E-1,4.5E0,6.6E0,1.154E2,5.52E-1,1.2059E1,1.6E1,-2.232408E-3,4.329696E-4,-2.8221447E-3,-7.4914102E-3,-9.498432E-4,2.9821708E-4,-1.793797E-3,-6.2857014E-3],"split_indices":[3,1092,77,1016,55,993,51,0,0,0,0,0,0,0,0],"split_type":[0,0,0,0,0,0,0,0,0,0,0,0,0,0,0],"sum_hessian":[4.09197E3,1.3594744E3,2.7324956E3,6.7949744E2,6.799769E2,2.389999E3,3.424968E2,5.0899744E2,1.7049997E2,3.2349738E2,3.5647958E2,1.046499E3,1.3434999E3,2.8599905E2,5.6497723E1],"tree_param":{"num_deleted":"0","num_feature":"1093","num_nodes":"15","size_leaf_vector":"1"}},{"base_weights":[1.4972773E-1,3.423859E-1,5.3786036E-2,1.5639558E-1,5.2774245E-1,2.4843467E-2,2.5509173E-1,2.2324077E-3,-4.3297047E-4,2.8221447E-3,7.491409E-3,9.4984204E-4,-2.9821618E-4,1.7937982E-3,6.2857014E-3],"categories":[],"categories_nodes":[],"categories_segments":[],"categories_sizes":[],"default_left":[0,0,0,0,0,0,0,0,0,0,0,0,0,0,0],"id":3,"left_children":[1,3,5,7,9,11,13,-1,-1,-1,-1,-1,-1,-1,-1],"loss_changes":[7.563585E1,4.6819183E1,1.591984E1,9.093281E0,3.6806152E1,9.17052E0,9.600227E0,0E0,0E0,0E0,0E0,0E0,0E0,0E0,0E0],"parents":[2147483647,0,0,1,1,2,2,3,3,4,4,5,5,6,6],"right_children":[2,4,6,8,10,12,14,-1,-1,-1,-1,-1,-1,-1,-1],"split_conditions":[4.37E-1,4.5E0,6.6E0,1.154E2,5.52E-1,1.2059E1,1.6E1,2.2324077E-3,-4.3297047E-4,2.8221447E-3,7.491409E-3,9.4984204E-4,-2.9821618E-4,1.7937982E-3,6.2857014E-3],"split_indices":[3,1092,77,1016,55,993,51,0,0,0,0,0,0,0,0],"split_type":[0,0,0,0,0,0,0,0,0,0,0,0,0,0,0],"sum_hessian":[4.0919702E3,1.3594744E3,2.7324958E3,6.794974E2,6.79977E2,2.389999E3,3.424968E2,5.089974E2,1.7049995E2,3.2349738E2,3.564796E2,1.046499E3,1.3434999E3,2.8599905E2,5.6497723E1],"tree_param":{"num_deleted":"0","num_feature":"1093","num_nodes":"15","size_leaf_vector":"1"}},{"base_weights":[-1.4823884E-1,-3.3899006E-1,-5.3251635E-2,-1.5483609E-1,-5.2253276E-1,-2.459536E-2,-2.5257134E-1,-2.2101616E-3,4.2866656E-4,-2.794077E-3,-7.4179643E-3,-9.403562E-4,2.9523674E-4,-1.7759393E-3,-6.2246704E-3],"categories":[],"categories_nodes":[],"categories_segments":[],"categories_sizes":[],"default_left":[0,0,0,0,0,0,0,0,0,0,0,0,0,0,0],"id":4,"left_children":[1,3,5,7,9,11,13,-1,-1,-1,-1,-1,-1,-1,-1],"loss_changes":[7.414054E1,4.5900726E1,1.5606785E1,8.912989E0,3.6090973E1,8.988234E0,9.4156685E0,0E0,0E0,0E0,0E0,0E0,0E0,0E0,0E0],"parents":[2147483647,0,0,1,1,2,2,3,3,4,4,5,5,6,6],"right_children":[2,4,6,8,10,12,14,-1,-1,-1,-1,-1,-1,-1,-1],"split_conditions":[4.37E-1,4.5E0,6.6E0,1.154E2,5.52E-1,1.2059E1,1.6E1,-2.2101616E-3,4.2866656E-4,-2.794077E-3,-7.4179643E-3,-9.403562E-4,2.9523674E-4,-1.7759393E-3,-6.2246704E-3],"split_indices":[3,1092,77,1016,55,993,51,0,0,0,0,0,0,0,0],"split_type":[0,0,0,0,0,0,0,0,0,0,0,0,0,0,0],"sum_hessian":[4.0918813E3,1.3593984E3,2.732483E3,6.794896E2,6.799088E2,2.3899956E3,3.4248727E2,5.0898975E2,1.7049986E2,3.234896E2,3.564192E2,1.0464962E3,1.3434995E3,2.8599628E2,5.6490982E1],"tree_param":{"num_deleted":"0","num_feature":"1093","num_nodes":"15","size_leaf_vector":"1"}},{"base_weights":[1.482388E-1,3.389901E-1,5.3251546E-2,1.5483612E-1,5.225328E-1,2.4595257E-2,2.5257134E-1,2.2101616E-3,-4.2866537E-4,2.7940779E-3,7.4179643E-3,9.4035506E-4,-2.9523764E-4,1.7759393E-3,6.2246704E-3],"categories":[],"categories_nodes":[],"categories_segments":[],"categories_sizes":[],"default_left":[0,0,0,0,0,0,0,0,0,0,0,0,0,0,0],"id":5,"left_children":[1,3,5,7,9,11,13,-1,-1,-1,-1,-1,-1,-1,-1],"loss_changes":[7.414062E1,4.590074E1,1.5606802E1,8.912981E0,3.6090942E1,8.988231E0,9.41567E0,0E0,0E0,0E0,0E0,0E0,0E0,0E0,0E0],"parents":[2147483647,0,0,1,1,2,2,3,3,4,4,5,5,6,6],"right_children":[2,4,6,8,10,12,14,-1,-1,-1,-1,-1,-1,-1,-1],"split_conditions":[4.37E-1,4.5E0,6.6E0,1.154E2,5.52E-1,1.2059E1,1.6E1,2.2101616E-3,-4.2866537E-4,2.7940779E-3,7.4179643E-3,9.4035506E-4,-2.9523764E-4,1.7759393E-3,6.2246704E-3],"split_indices":[3,1092,77,1016,55,993,51,0,0,0,0,0,0,0,0],"split_type":[0,0,0,0,0,0,0,0,0,0,0,0,0,0,0],"sum_hessian":[4.0918813E3,1.3593984E3,2.732483E3,6.794896E2,6.7990875E2,2.3899956E3,3.4248727E2,5.0898975E2,1.7049986E2,3.234896E2,3.564192E2,1.0464962E3,1.3434994E3,2.8599628E2,5.6490986E1],"tree_param":{"num_deleted":"0","num_feature":"1093","num_nodes":"15","size_leaf_vector":"1"}},{"base_weights":[-1.4676678E-1,-3.3564E-1,-5.2722655E-2,-1.532932E-1,-5.1740813E-1,-2.4349686E-2,-2.5008035E-1,-2.188157E-3,4.2440518E-4,-2.766332E-3,-7.346041E-3,-9.309659E-4,2.9228744E-4,-1.7582694E-3,-6.1646984E-3],"categories":[],"categories_nodes":[],"categories_segments":[],"categories_sizes":[],"default_left":[0,0,0,0,0,0,0,0,0,0,0,0,0,0,0],"id":6,"left_children":[1,3,5,7,9,11,13,-1,-1,-1,-1,-1,-1,-1,-1],"loss_changes":[7.267918E1,4.500673E1,1.530027E1,8.736379E0,3.5399277E1,8.809578E0,9.235987E0,0E0,0E0,0E0,0E0,0E0,0E0,0E0,0E0],"parents":[2147483647,0,0,1,1,2,2,3,3,4,4,5,5,6,6],"right_children":[2,4,6,8,10,12,14,-1,-1,-1,-1,-1,-1,-1,-1],"split_conditions":[4.37E-1,4.5E0,6.6E0,1.154E2,5.52E-1,1.2059E1,1.6E1,-2.188157E-3,4.2440518E-4,-2.766332E-3,-7.346041E-3,-9.309659E-4,2.9228744E-4,-1.7582694E-3,-6.1646984E-3],"split_indices":[3,1092,77,1016,55,993,51,0,0,0,0,0,0,0,0],"split_type":[0,0,0,0,0,0,0,0,0,0,0,0,0,0,0],"sum_hessian":[4.0917356E3,1.3592737E3,2.7324622E3,6.7947687E2,6.7979675E2,2.3899905E3,3.4247165E2,5.0897714E2,1.7049971E2,3.234768E2,3.5631998E2,1.0464915E3,1.3434989E3,2.8599173E2,5.647991E1],"tree_param":{"num_deleted":"0","num_feature":"1093","num_nodes":"15","size_leaf_vector":"1"}},{"base_weights":[1.4676675E-1,3.3564E-1,5.2722618E-2,1.532932E-1,5.1740813E-1,2.4349647E-2,2.5008035E-1,2.188157E-3,-4.244049E-4,2.766332E-3,7.346041E-3,9.3096495E-4,-2.9228744E-4,1.758269E-3,6.1647E-3],"categories":[],"categories_nodes":[],"categories_segments":[],"categories_sizes":[],"default_left":[0,0,0,0,0,0,0,0,0,0,0,0,0,0,0],"id":7,"left_children":[1,3,5,7,9,11,13,-1,-1,-1,-1,-1,-1,-1,-1],"loss_changes":[7.267919E1,4.500673E1,1.5300276E1,8.736378E0,3.5399277E1,8.809566E0,9.235991E0,0E0,0E0,0E0,0E0,0E0,0E0,0E0,0E0],"parents":[2147483647,0,0,1,1,2,2,3,3,4,4,5,5,6,6],"right_children":[2,4,6,8,10,12,14,-1,-1,-1,-1,-1,-1,-1,-1],"split_conditions":[4.37E-1,4.5E0,6.6E0,1.154E2,5.52E-1,1.2059E1,1.6E1,2.188157E-3,-4.244049E-4,2.766332E-3,7.346041E-3,9.3096495E-4,-2.9228744E-4,1.758269E-3,6.1647E-3],"split_indices":[3,1092,77,1016,55,993,51,0,0,0,0,0,0,0,0],"split_type":[0,0,0,0,0,0,0,0,0,0,0,0,0,0,0],"sum_hessian":[4.0917358E3,1.3592737E3,2.7324622E3,6.7947687E2,6.7979675E2,2.3899905E3,3.4247162E2,5.0897714E2,1.7049971E2,3.234768E2,3.5631998E2,1.0464916E3,1.3434989E3,2.8599173E2,5.647991E1],"tree_param":{"num_deleted":"0","num_feature":"1093","num_nodes":"15","size_leaf_vector":"1"}},{"base_weights":[-1.4531139E-1,-3.323348E-1,-5.219913E-2,-1.5176688E-1,-5.123659E-1,-2.4106523E-2,-2.4761838E-1,-2.166393E-3,4.2018542E-4,-2.7389037E-3,-7.2755856E-3,2.3495874E-3,-3.8259954E-4,-1.7407867E-3,-6.105755E-3],"categories":[],"categories_nodes":[],"categories_segments":[],"categories_sizes":[],"default_left":[0,0,0,0,0,0,0,0,0,0,0,0,0,0,0],"id":8,"left_children":[1,3,5,7,9,11,13,-1,-1,-1,-1,-1,-1,-1,-1],"loss_changes":[7.125074E1,4.4136215E1,1.5000132E1,8.56338E0,3.4730057E1,8.775916E0,9.060995E0,0E0,0E0,0E0,0E0,0E0,0E0,0E0,0E0],"parents":[2147483647,0,0,1,1,2,2,3,3,4,4,5,5,6,6],"right_children":[2,4,6,8,10,12,14,-1,-1,-1,-1,-1,-1,-1,-1],"split_conditions":[4.37E-1,4.5E0,6.6E0,1.154E2,5.52E-1,3.91E-1,1.6E1,-2.166393E-3,4.2018542E-4,-2.7389037E-3,-7.2755856E-3,2.3495874E-3,-3.8259954E-4,-1.7407867E-3,-6.105755E-3],"split_indices":[3,1092,77,1016,55,637,51,0,0,0,0,0,0,0,0],"split_type":[0,0,0,0,0,0,0,0,0,0,0,0,0,0,0],"sum_hessian":[4.0915347E3,1.3591017E3,2.732433E3,6.794593E2,6.7964233E2,2.3899832E3,3.4245004E2,5.089598E2,1.704995E2,3.2345917E2,3.5618317E2,1.229991E2,2.2669841E3,2.859854E2,5.6464638E1],"tree_param":{"num_deleted":"0","num_feature":"1093","num_nodes":"15","size_leaf_vector":"1"}},{"base_weights":[1.453114E-1,3.323348E-1,5.2199163E-2,1.5176685E-1,5.123659E-1,2.4106571E-2,2.4761829E-1,2.166393E-3,-4.2018632E-4,2.7389037E-3,7.2755856E-3,-2.3495867E-3,3.826E-4,1.7407858E-3,6.105755E-3],"categories":[],"categories_nodes":[],"categories_segments":[],"categories_sizes":[],"default_left":[0,0,0,0,0,0,0,0,0,0,0,0,0,0,0],"id":9,"left_children":[1,3,5,7,9,11,13,-1,-1,-1,-1,-1,-1,-1,-1],"loss_changes":[7.125073E1,4.4136185E1,1.5000112E1,8.563387E0,3.4730072E1,8.775916E0,9.061001E0,0E0,0E0,0E0,0E0,0E0,0E0,0E0,0E0],"parents":[2147483647,0,0,1,1,2,2,3,3,4,4,5,5,6,6],"right_children":[2,4,6,8,10,12,14,-1,-1,-1,-1,-1,-1,-1,-1],"split_conditions":[4.37E-1,4.5E0,6.6E0,1.154E2,5.52E-1,3.91E-1,1.6E1,2.166393E-3,-4.2018632E-4,2.7389037E-3,7.2755856E-3,-2.3495867E-3,3.826E-4,1.7407858E-3,6.105755E-3],"split_indices":[3,1092,77,1016,55,637,51,0,0,0,0,0,0,0,0],"split_type":[0,0,0,0,0,0,0,0,0,0,0,0,0,0,0],"sum_hessian":[4.091535E3,1.3591016E3,2.7324333E3,6.794593E2,6.7964233E2,2.3899832E3,3.4245007E2,5.089598E2,1.7049948E2,3.2345917E2,3.5618314E2,1.229991E2,2.2669841E3,2.859854E2,5.6464638E1],"tree_param":{"num_deleted":"0","num_feature":"1093","num_nodes":"15","size_leaf_vector":"1"}},{"base_weights":[-1.4387143E-1,-3.290733E-1,-5.1679827E-2,-1.5025671E-1,-5.0740373E-1,-2.386461E-2,-2.4518473E-1,-2.1448648E-3,4.1600963E-4,-2.7117867E-3,-7.2065475E-3,-9.193235E-4,2.918391E-4,-1.7234877E-3,-6.0478067E-3],"categories":[],"categories_nodes":[],"categories_segments":[],"categories_sizes":[],"default_left":[0,0,0,0,0,0,0,0,0,0,0,0,0,0,0],"id":10,"left_children":[1,3,5,7,9,11,13,-1,-1,-1,-1,-1,-1,-1,-1],"loss_changes":[6.985493E1,4.3288345E1,1.4706371E1,8.3939295E0,3.408223E1,8.636259E0,8.890524E0,0E0,0E0,0E0,0E0,0E0,0E0,0E0,0E0],"parents":[2147483647,0,0,1,1,2,2,3,3,4,4,5,5,6,6],"right_children":[2,4,6,8,10,12,14,-1,-1,-1,-1,-1,-1,-1,-1],"split_conditions":[4.37E-1,4.5E0,6.6E0,1.154E2,5.52E-1,1.2059E1,1.6E1,-2.1448648E-3,4.1600963E-4,-2.7117867E-3,-7.2065475E-3,-9.193235E-4,2.918391E-4,-1.7234877E-3,-6.0478067E-3],"split_indices":[3,1092,77,1016,55,993,51,0,0,0,0,0,0,0,0],"split_type":[0,0,0,0,0,0,0,0,0,0,0,0,0,0,0],"sum_hessian":[4.0912876E3,1.3588838E3,2.7324038E3,6.794371E2,6.7944666E2,2.3899812E3,3.4242273E2,5.0893784E2,1.7049922E2,3.2343686E2,3.5600983E2,1.0464828E3,1.3434983E3,2.8597745E2,5.6445286E1],"tree_param":{"num_deleted":"0","num_feature":"1093","num_nodes":"15","size_leaf_vector":"1"}},{"base_weights":[1.4387146E-1,3.290733E-1,5.167986E-2,1.5025674E-1,5.0740373E-1,2.386466E-2,2.4518463E-1,2.1448648E-3,-4.1600876E-4,2.7117867E-3,7.2065475E-3,9.193232E-4,-2.9183796E-4,1.7234866E-3,6.0478067E-3],"categories":[],"categories_nodes":[],"categories_segments":[],"categories_sizes":[],"default_left":[0,0,0,0,0,0,0,0,0,0,0,0,0,0,0],"id":11,"left_children":[1,3,5,7,9,11,13,-1,-1,-1,-1,-1,-1,-1,-1],"loss_changes":[6.9854935E1,4.3288345E1,1.4706352E1,8.393925E0,3.408223E1,8.63624E0,8.89053E0,0E0,0E0,0E0,0E0,0E0,0E0,0E0,0E0],"parents":[2147483647,0,0,1,1,2,2,3,3,4,4,5,5,6,6],"right_children":[2,4,6,8,10,12,14,-1,-1,-1,-1,-1,-1,-1,-1],"split_conditions":[4.37E-1,4.5E0,6.6E0,1.154E2,5.52E-1,1.2059E1,1.6E1,2.1448648E-3,-4.1600876E-4,2.7117867E-3,7.2065475E-3,9.193232E-4,-2.9183796E-4,1.7234866E-3,6.0478067E-3],"split_indices":[3,1092,77,1016,55,993,51,0,0,0,0,0,0,0,0],"split_type":[0,0,0,0,0,0,0,0,0,0,0,0,0,0,0],"sum_hessian":[4.0912876E3,1.3588838E3,2.7324038E3,6.794371E2,6.7944666E2,2.389981E3,3.4242273E2,5.0893784E2,1.7049922E2,3.2343686E2,3.5600983E2,1.0464827E3,1.3434983E3,2.8597745E2,5.6445286E1],"tree_param":{"num_deleted":"0","num_feature":"1093","num_nodes":"15","size_leaf_vector":"1"}},{"base_weights":[-1.4244847E-1,-3.2585457E-1,-5.1166978E-2,-1.4876258E-1,-5.0251937E-1,-2.3626393E-2,-2.4277891E-1,-2.1235687E-3,4.1187427E-4,-2.6849764E-3,-7.1388762E-3,2.328912E-3,-3.7640767E-4,-1.7063695E-3,-5.9908223E-3],"categories":[],"categories_nodes":[],"categories_segments":[],"categories_sizes":[],"default_left":[0,0,0,0,0,0,0,0,0,0,0,0,0,0,0],"id":12,"left_children":[1,3,5,7,9,11,13,-1,-1,-1,-1,-1,-1,-1,-1],"loss_changes":[6.848959E1,4.246225E1,1.4418499E1,8.227924E0,3.345482E1,8.604153E0,8.724413E0,0E0,0E0,0E0,0E0,0E0,0E0,0E0,0E0],"parents":[2147483647,0,0,1,1,2,2,3,3,4,4,5,5,6,6],"right_children":[2,4,6,8,10,12,14,-1,-1,-1,-1,-1,-1,-1,-1],"split_conditions":[4.37E-1,4.5E0,6.6E0,1.154E2,5.52E-1,3.91E-1,1.6E1,-2.1235687E-3,4.1187427E-4,-2.6849764E-3,-7.1388762E-3,2.328912E-3,-3.7640767E-4,-1.7063695E-3,-5.9908223E-3],"split_indices":[3,1092,77,1016,55,637,51,0,0,0,0,0,0,0,0],"split_type":[0,0,0,0,0,0,0,0,0,0,0,0,0,0,0],"sum_hessian":[4.090983E3,1.3586213E3,2.7323616E3,6.794102E2,6.792111E2,2.3899717E3,3.4238983E2,5.0891135E2,1.7049889E2,3.2340994E2,3.5580115E2,1.2299872E2,2.266973E3,2.8596783E2,5.642199E1],"tree_param":{"num_deleted":"0","num_feature":"1093","num_nodes":"15","size_leaf_vector":"1"}},{"base_weights":[1.4244847E-1,3.258546E-1,5.1166978E-2,1.487626E-1,5.0251937E-1,2.3626378E-2,2.42779E-1,2.1235687E-3,-4.1187336E-4,2.6849767E-3,7.1388762E-3,-2.3289116E-3,3.764075E-4,1.7063706E-3,5.9908223E-3],"categories":[],"categories_nodes":[],"categories_segments":[],"categories_sizes":[],"default_left":[0,0,0,0,0,0,0,0,0,0,0,0,0,0,0],"id":13,"left_children":[1,3,5,7,9,11,13,-1,-1,-1,-1,-1,-1,-1,-1],"loss_changes":[6.84896E1,4.246225E1,1.4418512E1,8.227917E0,3.3454803E1,8.604149E0,8.724405E0,0E0,0E0,0E0,0E0,0E0,0E0,0E0,0E0],"parents":[2147483647,0,0,1,1,2,2,3,3,4,4,5,5,6,6],"right_children":[2,4,6,8,10,12,14,-1,-1,-1,-1,-1,-1,-1,-1],"split_conditions":[4.37E-1,4.5E0,6.6E0,1.154E2,5.52E-1,3.91E-1,1.6E1,2.1235687E-3,-4.1187336E-4,2.6849767E-3,7.1388762E-3,-2.3289116E-3,3.764075E-4,1.7063706E-3,5.9908223E-3],"split_indices":[3,1092,77,1016,55,637,51,0,0,0,0,0,0,0,0],"split_type":[0,0,0,0,0,0,0,0,0,0,0,0,0,0,0],"sum_hessian":[4.090983E3,1.3586213E3,2.7323616E3,6.794102E2,6.792111E2,2.3899717E3,3.4238983E2,5.0891135E2,1.7049889E2,3.2340997E2,3.5580115E2,1.2299871E2,2.266973E3,2.8596783E2,5.6421986E1],"tree_param":{"num_deleted":"0","num_feature":"1093","num_nodes":"15","size_leaf_vector":"1"}},{"base_weights":[-1.4104044E-1,-3.2267764E-1,-5.065823E-2,-1.4728421E-1,-4.9771056E-1,-2.3389338E-2,-2.4040073E-1,-2.1025015E-3,4.0778052E-4,-2.6584673E-3,-7.0725265E-3,-9.078491E-4,2.91346E-4,-1.2172885E-3,-4.52194E-3],"categories":[],"categories_nodes":[],"categories_segments":[],"categories_sizes":[],"default_left":[0,0,0,0,0,0,0,0,0,0,0,0,0,0,0],"id":14,"left_children":[1,3,5,7,9,11,13,-1,-1,-1,-1,-1,-1,-1,-1],"loss_changes":[6.715508E1,4.165718E1,1.4136752E1,8.065294E0,3.2846878E1,8.466384E0,8.57472E0,0E0,0E0,0E0,0E0,0E0,0E0,0E0,0E0],"parents":[2147483647,0,0,1,1,2,2,3,3,4,4,5,5,6,6],"right_children":[2,4,6,8,10,12,14,-1,-1,-1,-1,-1,-1,-1,-1],"split_conditions":[4.37E-1,4.5E0,6.6E0,1.154E2,5.52E-1,1.2059E1,5E0,-2.1025015E-3,4.0778052E-4,-2.6584673E-3,-7.0725265E-3,-9.078491E-4,2.91346E-4,-1.2172885E-3,-4.52194E-3],"split_indices":[3,1092,77,1016,55,993,1092,0,0,0,0,0,0,0,0],"split_type":[0,0,0,0,0,0,0,0,0,0,0,0,0,0,0],"sum_hessian":[4.0906348E3,1.358316E3,2.7323188E3,6.793791E2,6.7893695E2,2.3899673E3,3.423515E2,5.0888058E2,1.7049849E2,3.2337866E2,3.5555826E2,1.0464705E3,1.3434968E3,2.2042043E2,1.21931076E2],"tree_param":{"num_deleted":"0","num_feature":"1093","num_nodes":"15","size_leaf_vector":"1"}},{"base_weights":[1.4104043E-1,3.226777E-1,5.0658185E-2,1.4728428E-1,4.977106E-1,2.3389298E-2,2.4040064E-1,2.1025024E-3,-4.077802E-4,2.6584673E-3,7.0725274E-3,9.0784824E-4,-2.9134602E-4,1.2172877E-3,4.521939E-3],"categories":[],"categories_nodes":[],"categories_segments":[],"categories_sizes":[],"default_left":[0,0,0,0,0,0,0,0,0,0,0,0,0,0,0],"id":15,"left_children":[1,3,5,7,9,11,13,-1,-1,-1,-1,-1,-1,-1,-1],"loss_changes":[6.7155136E1,4.1657166E1,1.4136748E1,8.065297E0,3.2846863E1,8.466373E0,8.57472E0,0E0,0E0,0E0,0E0,0E0,0E0,0E0,0E0],"parents":[2147483647,0,0,1,1,2,2,3,3,4,4,5,5,6,6],"right_children":[2,4,6,8,10,12,14,-1,-1,-1,-1,-1,-1,-1,-1],"split_conditions":[4.37E-1,4.5E0,6.6E0,1.154E2,5.52E-1,1.2059E1,5E0,2.1025024E-3,-4.077802E-4,2.6584673E-3,7.0725274E-3,9.0784824E-4,-2.9134602E-4,1.2172877E-3,4.521939E-3],"split_indices":[3,1092,77,1016,55,993,1092,0,0,0,0,0,0,0,0],"split_type":[0,0,0,0,0,0,0,0,0,0,0,0,0,0,0],"sum_hessian":[4.0906348E3,1.3583159E3,2.7323188E3,6.79379E2,6.789369E2,2.3899673E3,3.423515E2,5.0888055E2,1.7049849E2,3.2337866E2,3.5555823E2,1.0464705E3,1.3434968E3,2.2042043E2,1.2193108E2],"tree_param":{"num_deleted":"0","num_feature":"1093","num_nodes":"15","size_leaf_vector":"1"}},{"base_weights":[-1.39648E-1,-3.1954166E-1,-5.0154794E-2,-1.4582151E-1,-4.9297523E-1,-2.3155797E-2,-2.3803659E-1,-1.6511595E-3,4.532477E-3,-2.6322543E-3,-7.007454E-3,2.1470948E-3,-3.7988918E-4,-1.6667577E-3,-5.907406E-3],"categories":[],"categories_nodes":[],"categories_segments":[],"categories_sizes":[],"default_left":[0,0,0,0,0,0,0,0,0,0,0,0,0,0,0],"id":16,"left_children":[1,3,5,7,9,11,13,-1,-1,-1,-1,-1,-1,-1,-1],"loss_changes":[6.584997E1,4.087236E1,1.3859348E1,7.9387293E0,3.2257553E1,8.44413E0,8.542603E0,0E0,0E0,0E0,0E0,0E0,0E0,0E0,0E0],"parents":[2147483647,0,0,1,1,2,2,3,3,4,4,5,5,6,6],"right_children":[2,4,6,8,10,12,14,-1,-1,-1,-1,-1,-1,-1,-1],"split_conditions":[4.37E-1,4.5E0,6.6E0,7.238E0,5.52E-1,3.93E-1,1.6E1,-1.6511595E-3,4.532477E-3,-2.6322543E-3,-7.007454E-3,2.1470948E-3,-3.7988918E-4,-1.6667577E-3,-5.907406E-3],"split_indices":[3,1092,77,539,55,637,51,0,0,0,0,0,0,0,0],"split_type":[0,0,0,0,0,0,0,0,0,0,0,0,0,0,0],"sum_hessian":[4.090243E3,1.3579688E3,2.732274E3,6.7934357E2,6.786252E2,2.3899558E3,3.4231827E2,6.588482E2,2.0495384E1,3.233431E2,3.552821E2,1.3949686E2,2.250459E3,2.859384E2,5.637989E1],"tree_param":{"num_deleted":"0","num_feature":"1093","num_nodes":"15","size_leaf_vector":"1"}},{"base_weights":[1.3964804E-1,3.195417E-1,5.0154798E-2,1.4582163E-1,4.9297523E-1,2.3155795E-2,2.3803663E-1,1.6511607E-3,-4.5324755E-3,2.632254E-3,7.007454E-3,-2.1470953E-3,3.7988918E-4,1.6667582E-3,5.907406E-3],"categories":[],"categories_nodes":[],"categories_segments":[],"categories_sizes":[],"default_left":[0,0,0,0,0,0,0,0,0,0,0,0,0,0,0],"id":17,"left_children":[1,3,5,7,9,11,13,-1,-1,-1,-1,-1,-1,-1,-1],"loss_changes":[6.584998E1,4.087233E1,1.3859353E1,7.9387283E0,3.225757E1,8.444133E0,8.542601E0,0E0,0E0,0E0,0E0,0E0,0E0,0E0,0E0],"parents":[2147483647,0,0,1,1,2,2,3,3,4,4,5,5,6,6],"right_children":[2,4,6,8,10,12,14,-1,-1,-1,-1,-1,-1,-1,-1],"split_conditions":[4.37E-1,4.5E0,6.6E0,7.238E0,5.52E-1,3.93E-1,1.6E1,1.6511607E-3,-4.5324755E-3,2.632254E-3,7.007454E-3,-2.1470953E-3,3.7988918E-4,1.6667582E-3,5.907406E-3],"split_indices":[3,1092,77,539,55,637,51,0,0,0,0,0,0,0,0],"split_type":[0,0,0,0,0,0,0,0,0,0,0,0,0,0,0],"sum_hessian":[4.0902427E3,1.3579688E3,2.732274E3,6.7934357E2,6.786252E2,2.3899558E3,3.4231827E2,6.588482E2,2.0495384E1,3.2334308E2,3.552821E2,1.3949686E2,2.250459E3,2.859384E2,5.637989E1],"tree_param":{"num_deleted":"0","num_feature":"1093","num_nodes":"15","size_leaf_vector":"1"}},{"base_weights":[-1.3826938E-1,-3.164393E-1,-4.9656376E-2,-1.443648E-1,-4.8831135E-1,-2.2923555E-2,-2.3571107E-1,-2.0671145E-3,4.1815697E-4,-2.6063335E-3,-6.9436138E-3,-8.965533E-4,2.9082203E-4,-1.1835976E-3,-4.4521275E-3],"categories":[],"categories_nodes":[],"categories_segments":[],"categories_sizes":[],"default_left":[0,0,0,0,0,0,0,0,0,0,0,0,0,0,0],"id":18,"left_children":[1,3,5,7,9,11,13,-1,-1,-1,-1,-1,-1,-1,-1],"loss_changes":[6.457077E1,4.0109665E1,1.3588998E1,7.9055805E0,3.1686005E1,8.300247E0,8.386723E0,0E0,0E0,0E0,0E0,0E0,0E0,0E0,0E0],"parents":[2147483647,0,0,1,1,2,2,3,3,4,4,5,5,6,6],"right_children":[2,4,6,8,10,12,14,-1,-1,-1,-1,-1,-1,-1,-1],"split_conditions":[4.37E-1,4.5E0,6.6E0,1.154E2,5.52E-1,1.2059E1,5E0,-2.0671145E-3,4.1815697E-4,-2.6063335E-3,-6.9436138E-3,-8.965533E-4,2.9082203E-4,-1.1835976E-3,-4.4521275E-3],"split_indices":[3,1092,77,1016,55,993,1092,0,0,0,0,0,0,0,0],"split_type":[0,0,0,0,0,0,0,0,0,0,0,0,0,0,0],"sum_hessian":[4.0898147E3,1.3575942E3,2.7322205E3,6.79317E2,6.7827716E2,2.3899495E3,3.4227094E2,5.0881787E2,1.7049916E2,3.2330338E2,3.5497382E2,1.046455E3,1.3434945E3,2.2038716E2,1.2188377E2],"tree_param":{"num_deleted":"0","num_feature":"1093","num_nodes":"15","size_leaf_vector":"1"}},{"base_weights":[1.3826944E-1,3.164393E-1,4.965645E-2,1.4436477E-1,4.8831138E-1,2.2923635E-2,2.3571111E-1,2.0671145E-3,-4.1815723E-4,2.6063346E-3,6.9436138E-3,8.965535E-4,-2.9082084E-4,1.1835983E-3,4.4521275E-3],"categories":[],"categories_nodes":[],"categories_segments":[],"categories_sizes":[],"default_left":[0,0,0,0,0,0,0,0,0,0,0,0,0,0,0],"id":19,"left_children":[1,3,5,7,9,11,13,-1,-1,-1,-1,-1,-1,-1,-1],"loss_changes":[6.457074E1,4.010968E1,1.3588992E1,7.9055805E0,3.168599E1,8.300233E0,8.386721E0,0E0,0E0,0E0,0E0,0E0,0E0,0E0,0E0],"parents":[2147483647,0,0,1,1,2,2,3,3,4,4,5,5,6,6],"right_children":[2,4,6,8,10,12,14,-1,-1,-1,-1,-1,-1,-1,-1],"split_conditions":[4.37E-1,4.5E0,6.6E0,1.154E2,5.52E-1,1.2059E1,5E0,2.0671145E-3,-4.1815723E-4,2.6063346E-3,6.9436138E-3,8.965535E-4,-2.9082084E-4,1.1835983E-3,4.4521275E-3],"split_indices":[3,1092,77,1016,55,993,1092,0,0,0,0,0,0,0,0],"split_type":[0,0,0,0,0,0,0,0,0,0,0,0,0,0,0],"sum_hessian":[4.0898147E3,1.3575942E3,2.7322205E3,6.79317E2,6.7827716E2,2.3899495E3,3.4227094E2,5.0881784E2,1.7049918E2,3.2330338E2,3.5497382E2,1.0464551E3,1.3434945E3,2.2038716E2,1.2188377E2],"tree_param":{"num_deleted":"0","num_feature":"1093","num_nodes":"15","size_leaf_vector":"1"}},{"base_weights":[-1.3690738E-1,-3.1338218E-1,-4.916314E-2,-1.4293252E-1,-4.8371688E-1,-2.2694716E-2,-2.3339926E-1,-1.6204214E-3,4.5024264E-3,-2.5807002E-3,-6.8809655E-3,2.2896864E-3,-3.6443854E-4,-1.628044E-3,-5.8261324E-3],"categories":[],"categories_nodes":[],"categories_segments":[],"categories_sizes":[],"default_left":[0,0,0,0,0,0,0,0,0,0,0,0,0,0,0],"id":20,"left_children":[1,3,5,7,9,11,13,-1,-1,-1,-1,-1,-1,-1,-1],"loss_changes":[6.3321968E1,3.936325E1,1.3322819E1,7.784113E0,3.1131409E1,8.281352E0,8.366667E0,0E0,0E0,0E0,0E0,0E0,0E0,0E0,0E0],"parents":[2147483647,0,0,1,1,2,2,3,3,4,4,5,5,6,6],"right_children":[2,4,6,8,10,12,14,-1,-1,-1,-1,-1,-1,-1,-1],"split_conditions":[4.37E-1,4.5E0,6.6E0,7.238E0,5.52E-1,3.91E-1,1.6E1,-1.6204214E-3,4.5024264E-3,-2.5807002E-3,-6.8809655E-3,2.2896864E-3,-3.6443854E-4,-1.628044E-3,-5.8261324E-3],"split_indices":[3,1092,77,539,55,637,51,0,0,0,0,0,0,0,0],"split_type":[0,0,0,0,0,0,0,0,0,0,0,0,0,0,0],"sum_hessian":[4.0893337E3,1.3571688E3,2.7321648E3,6.792748E2,6.7789404E2,2.389936E3,3.422288E2,6.587785E2,2.0496262E1,3.2325964E2,3.5463443E2,1.2299474E2,2.2669412E3,2.858994E2,5.6329403E1],"tree_param":{"num_deleted":"0","num_feature":"1093","num_nodes":"15","size_leaf_vector":"1"}},{"base_weights":[1.3690735E-1,3.1338218E-1,4.91631E-2,1.429325E-1,4.8371693E-1,2.2694673E-2,2.3339924E-1,1.6204212E-3,-4.5024264E-3,2.5807011E-3,6.8809655E-3,-2.289686E-3,3.6443808E-4,1.6280437E-3,5.8261314E-3],"categories":[],"categories_nodes":[],"categories_segments":[],"categories_sizes":[],"default_left":[0,0,0,0,0,0,0,0,0,0,0,0,0,0,0],"id":21,"left_children":[1,3,5,7,9,11,13,-1,-1,-1,-1,-1,-1,-1,-1],"loss_changes":[6.3322006E1,3.936325E1,1.3322821E1,7.784111E0,3.1131409E1,8.281346E0,8.366667E0,0E0,0E0,0E0,0E0,0E0,0E0,0E0,0E0],"parents":[2147483647,0,0,1,1,2,2,3,3,4,4,5,5,6,6],"right_children":[2,4,6,8,10,12,14,-1,-1,-1,-1,-1,-1,-1,-1],"split_conditions":[4.37E-1,4.5E0,6.6E0,7.238E0,5.52E-1,3.91E-1,1.6E1,1.6204212E-3,-4.5024264E-3,2.5807011E-3,6.8809655E-3,-2.289686E-3,3.6443808E-4,1.6280437E-3,5.8261314E-3],"split_indices":[3,1092,77,539,55,637,51,0,0,0,0,0,0,0,0],"split_type":[0,0,0,0,0,0,0,0,0,0,0,0,0,0,0],"sum_hessian":[4.0893335E3,1.3571688E3,2.7321648E3,6.792748E2,6.7789404E2,2.389936E3,3.422288E2,6.5877856E2,2.0496264E1,3.2325964E2,3.5463443E2,1.2299474E2,2.2669412E3,2.8589938E2,5.63294E1],"tree_param":{"num_deleted":"0","num_feature":"1093","num_nodes":"15","size_leaf_vector":"1"}},{"base_weights":[-1.355587E-1,-4.082781E-1,-7.971236E-2,-1.964304E-1,-6.364578E-1,-4.0753532E-2,-2.5877303E-1,-1.5871378E-3,-7.58473E-3,-6.8330495E-3,1.5507779E-3,-1.1735604E-3,5.055997E-5,-1.1668606E-3,-4.7260304E-3],"categories":[],"categories_nodes":[],"categories_segments":[],"categories_sizes":[],"default_left":[0,0,0,0,0,0,0,0,0,0,0,0,0,0,0],"id":22,"left_children":[1,3,5,7,9,11,13,-1,-1,-1,-1,-1,-1,-1,-1],"loss_changes":[6.225695E1,3.3466217E1,2.3679337E1,7.549062E0,1.2495132E1,9.792004E0,1.8376175E1,0E0,0E0,0E0,0E0,0E0,0E0,0E0,0E0],"parents":[2147483647,0,0,1,1,2,2,3,3,4,4,5,5,6,6],"right_children":[2,4,6,8,10,12,14,-1,-1,-1,-1,-1,-1,-1,-1],"split_conditions":[-5E0,5E0,5.4E0,8.62E-1,2.6E1,4.379E0,5E0,-1.5871378E-3,-7.58473E-3,-6.8330495E-3,1.5507779E-3,-1.1735604E-3,5.055997E-5,-1.1668606E-3,-4.7260304E-3],"split_indices":[25,1092,77,482,80,397,1092,0,0,0,0,0,0,0,0],"split_type":[0,0,0,0,0,0,0,0,0,0,0,0,0,0,0],"sum_hessian":[4.088819E3,6.939041E2,3.394915E3,3.6079443E2,3.3310965E2,2.7892715E3,6.0564343E2,3.3930716E2,2.148726E1,3.1462524E2,1.8484419E1,1.043228E3,1.7460435E3,3.6479086E2,2.4085258E2],"tree_param":{"num_deleted":"0","num_feature":"1093","num_nodes":"15","size_leaf_vector":"1"}},{"base_weights":[1.3555868E-1,4.082781E-1,7.971235E-2,1.964304E-1,6.364578E-1,4.075353E-2,2.58773E-1,1.587138E-3,7.58473E-3,6.8330495E-3,-1.5507777E-3,1.1735604E-3,-5.0560022E-5,1.1668601E-3,4.726031E-3],"categories":[],"categories_nodes":[],"categories_segments":[],"categories_sizes":[],"default_left":[0,0,0,0,0,0,0,0,0,0,0,0,0,0,0],"id":23,"left_children":[1,3,5,7,9,11,13,-1,-1,-1,-1,-1,-1,-1,-1],"loss_changes":[6.225695E1,3.34662E1,2.3679337E1,7.549059E0,1.2495163E1,9.792004E0,1.8376186E1,0E0,0E0,0E0,0E0,0E0,0E0,0E0,0E0],"parents":[2147483647,0,0,1,1,2,2,3,3,4,4,5,5,6,6],"right_children":[2,4,6,8,10,12,14,-1,-1,-1,-1,-1,-1,-1,-1],"split_conditions":[-5E0,5E0,5.4E0,8.62E-1,2.6E1,4.379E0,5E0,1.587138E-3,7.58473E-3,6.8330495E-3,-1.5507777E-3,1.1735604E-3,-5.0560022E-5,1.1668601E-3,4.726031E-3],"split_indices":[25,1092,77,482,80,397,1092,0,0,0,0,0,0,0,0],"split_type":[0,0,0,0,0,0,0,0,0,0,0,0,0,0,0],"sum_hessian":[4.088819E3,6.939041E2,3.3949148E3,3.607944E2,3.3310968E2,2.7892715E3,6.0564343E2,3.3930716E2,2.148726E1,3.1462524E2,1.848442E1,1.043228E3,1.7460435E3,3.6479086E2,2.4085257E2],"tree_param":{"num_deleted":"0","num_feature":"1093","num_nodes":"15","size_leaf_vector":"1"}},{"base_weights":[-1.3422312E-1,-3.0795777E-1,-4.788997E-2,-1.4035721E-1,-4.7561902E-1,-2.1918582E-2,-2.2872418E-1,-2.0207034E-3,4.387949E-4,-2.5311064E-3,-6.7747384E-3,-8.830725E-4,2.9383472E-4,-1.5890034E-3,-5.7446444E-3],"categories":[],"categories_nodes":[],"categories_segments":[],"categories_sizes":[],"default_left":[0,0,0,0,0,0,0,0,0,0,0,0,0,0,0],"id":24,"left_children":[1,3,5,7,9,11,13,-1,-1,-1,-1,-1,-1,-1,-1],"loss_changes":[6.1322075E1,3.8074722E1,1.2830735E1,7.7427673E0,3.0286316E1,8.145763E0,8.19191E0,0E0,0E0,0E0,0E0,0E0,0E0,0E0,0E0],"parents":[2147483647,0,0,1,1,2,2,3,3,4,4,5,5,6,6],"right_children":[2,4,6,8,10,12,14,-1,-1,-1,-1,-1,-1,-1,-1],"split_conditions":[4.37E-1,4.5E0,6.6E0,1.154E2,5.52E-1,2.747E0,1.6E1,-2.0207034E-3,4.387949E-4,-2.5311064E-3,-6.7747384E-3,-8.830725E-4,2.9383472E-4,-1.5890034E-3,-5.7446444E-3],"split_indices":[3,1092,77,1016,55,539,51,0,0,0,0,0,0,0,0],"split_type":[0,0,0,0,0,0,0,0,0,0,0,0,0,0,0],"sum_hessian":[4.0883787E3,1.3563424E3,2.7320364E3,6.7921277E2,6.7712964E2,2.3899177E3,3.4211853E2,5.0871384E2,1.704989E2,3.2315915E2,3.5397046E2,1.0414642E3,1.3484535E3,2.8584952E2,5.6269028E1],"tree_param":{"num_deleted":"0","num_feature":"1093","num_nodes":"15","size_leaf_vector":"1"}},{"base_weights":[1.3422309E-1,3.0795774E-1,4.7889948E-2,1.4035723E-1,4.75619E-1,2.1918543E-2,2.2872427E-1,2.0207034E-3,-4.387948E-4,2.5311054E-3,6.774739E-3,8.830721E-4,-2.9383507E-4,1.5890044E-3,5.744645E-3],"categories":[],"categories_nodes":[],"categories_segments":[],"categories_sizes":[],"default_left":[0,0,0,0,0,0,0,0,0,0,0,0,0,0,0],"id":25,"left_children":[1,3,5,7,9,11,13,-1,-1,-1,-1,-1,-1,-1,-1],"loss_changes":[6.1322075E1,3.8074722E1,1.28307495E1,7.7427664E0,3.0286331E1,8.145761E0,8.19191E0,0E0,0E0,0E0,0E0,0E0,0E0,0E0,0E0],"parents":[2147483647,0,0,1,1,2,2,3,3,4,4,5,5,6,6],"right_children":[2,4,6,8,10,12,14,-1,-1,-1,-1,-1,-1,-1,-1],"split_conditions":[4.37E-1,4.5E0,6.6E0,1.154E2,5.52E-1,2.747E0,1.6E1,2.0207034E-3,-4.387948E-4,2.5311054E-3,6.774739E-3,8.830721E-4,-2.9383507E-4,1.5890044E-3,5.744645E-3],"split_indices":[3,1092,77,1016,55,539,51,0,0,0,0,0,0,0,0],"split_type":[0,0,0,0,0,0,0,0,0,0,0,0,0,0,0],"sum_hessian":[4.0883787E3,1.3563424E3,2.7320364E3,6.7921277E2,6.7712964E2,2.3899177E3,3.4211853E2,5.0871384E2,1.704989E2,3.2315915E2,3.5397046E2,1.0414642E3,1.3484535E3,2.858495E2,5.6269028E1],"tree_param":{"num_deleted":"0","num_feature":"1093","num_nodes":"15","size_leaf_vector":"1"}},{"base_weights":[-1.3290519E-1,-4.0129802E-1,-7.798664E-2,-1.9289356E-1,-6.260927E-1,-3.9700903E-2,-2.5402617E-1,-1.5553203E-3,-7.498921E-3,-6.7245895E-3,1.5587114E-3,-1.1548767E-3,5.61946E-5,-4.0483547E-4,-3.9271642E-3],"categories":[],"categories_nodes":[],"categories_segments":[],"categories_sizes":[],"default_left":[0,0,0,0,0,0,0,0,0,0,0,0,0,0,0],"id":26,"left_children":[1,3,5,7,9,11,13,-1,-1,-1,-1,-1,-1,-1,-1],"loss_changes":[6.023633E1,3.2405502E1,2.287488E1,7.410981E0,1.2198822E1,9.5838585E0,1.7942371E1,0E0,0E0,0E0,0E0,0E0,0E0,0E0,0E0],"parents":[2147483647,0,0,1,1,2,2,3,3,4,4,5,5,6,6],"right_children":[2,4,6,8,10,12,14,-1,-1,-1,-1,-1,-1,-1,-1],"split_conditions":[-5E0,5E0,5.4E0,8.62E-1,2.6E1,4.379E0,3.5E0,-1.5553203E-3,-7.498921E-3,-6.7245895E-3,1.5587114E-3,-1.1548767E-3,5.61946E-5,-4.0483547E-4,-3.9271642E-3],"split_indices":[25,1092,77,482,80,397,1092,0,0,0,0,0,0,0,0],"split_type":[0,0,0,0,0,0,0,0,0,0,0,0,0,0,0],"sum_hessian":[4.0877847E3,6.9329083E2,3.394494E3,3.6072504E2,3.3256583E2,2.7891292E3,6.0536475E2,3.3924863E2,2.1476385E1,3.1408243E2,1.8483376E1,1.0431605E3,1.7459686E3,2.3886856E2,3.664962E2],"tree_param":{"num_deleted":"0","num_feature":"1093","num_nodes":"15","size_leaf_vector":"1"}},{"base_weights":[1.3290519E-1,4.0129802E-1,7.798664E-2,1.9289349E-1,6.260927E-1,3.9700896E-2,2.5402623E-1,1.5553195E-3,7.498921E-3,6.72459E-3,-1.5587114E-3,1.1548765E-3,-5.6194684E-5,4.04836E-4,3.9271647E-3],"categories":[],"categories_nodes":[],"categories_segments":[],"categories_sizes":[],"default_left":[0,0,0,0,0,0,0,0,0,0,0,0,0,0,0],"id":27,"left_children":[1,3,5,7,9,11,13,-1,-1,-1,-1,-1,-1,-1,-1],"loss_changes":[6.0236343E1,3.2405518E1,2.2874893E1,7.410983E0,1.2198822E1,9.58386E0,1.7942371E1,0E0,0E0,0E0,0E0,0E0,0E0,0E0,0E0],"parents":[2147483647,0,0,1,1,2,2,3,3,4,4,5,5,6,6],"right_children":[2,4,6,8,10,12,14,-1,-1,-1,-1,-1,-1,-1,-1],"split_conditions":[-5E0,5E0,5.4E0,8.62E-1,2.6E1,4.379E0,3.5E0,1.5553195E-3,7.498921E-3,6.72459E-3,-1.5587114E-3,1.1548765E-3,-5.6194684E-5,4.04836E-4,3.9271647E-3],"split_indices":[25,1092,77,482,80,397,1092,0,0,0,0,0,0,0,0],"split_type":[0,0,0,0,0,0,0,0,0,0,0,0,0,0,0],"sum_hessian":[4.0877847E3,6.9329083E2,3.394494E3,3.6072504E2,3.3256583E2,2.7891292E3,6.0536475E2,3.3924863E2,2.1476387E1,3.1408246E2,1.8483376E1,1.0431605E3,1.7459686E3,2.3886856E2,3.664962E2],"tree_param":{"num_deleted":"0","num_feature":"1093","num_nodes":"15","size_leaf_vector":"1"}},{"base_weights":[-1.315976E-1,-3.0267096E-1,-4.66423E-2,-1.378116E-1,-4.677809E-1,-2.11676E-2,-2.240831E-1,-1.5673218E-3,4.49204E-3,-2.4825907E-3,-6.6727577E-3,2.1224665E-3,-3.5723724E-4,-1.549886E-3,-5.665835E-3],"categories":[],"categories_nodes":[],"categories_segments":[],"categories_sizes":[],"default_left":[0,0,0,0,0,0,0,0,0,0,0,0,0,0,0],"id":28,"left_children":[1,3,5,7,9,11,13,-1,-1,-1,-1,-1,-1,-1,-1],"loss_changes":[5.940325E1,3.6856308E1,1.2348606E1,7.6243553E0,2.9493988E1,8.130913E0,8.029053E0,0E0,0E0,0E0,0E0,0E0,0E0,0E0,0E0],"parents":[2147483647,0,0,1,1,2,2,3,3,4,4,5,5,6,6],"right_children":[2,4,6,8,10,12,14,-1,-1,-1,-1,-1,-1,-1,-1],"split_conditions":[4.37E-1,4.5E0,6.6E0,7.238E0,5.52E-1,3.93E-1,1.6E1,-1.5673218E-3,4.49204E-3,-2.4825907E-3,-6.6727577E-3,2.1224665E-3,-3.5723724E-4,-1.549886E-3,-5.665835E-3],"split_indices":[3,1092,77,539,55,637,51,0,0,0,0,0,0,0,0],"split_type":[0,0,0,0,0,0,0,0,0,0,0,0,0,0,0],"sum_hessian":[4.0872783E3,1.3553882E3,2.7318901E3,6.7912665E2,6.762615E2,2.3898982E3,3.4199197E2,6.586308E2,2.0495884E1,3.2303833E2,3.532231E2,1.3949231E2,2.2504058E3,2.8579044E2,5.620154E1],"tree_param":{"num_deleted":"0","num_feature":"1093","num_nodes":"15","size_leaf_vector":"1"}},{"base_weights":[1.3159758E-1,3.02671E-1,4.664227E-2,1.3781163E-1,4.6778086E-1,2.1167561E-2,2.2408311E-1,1.5673222E-3,-4.49204E-3,2.4825907E-3,6.672757E-3,-2.1224662E-3,3.5723677E-4,1.5498864E-3,5.6658345E-3],"categories":[],"categories_nodes":[],"categories_segments":[],"categories_sizes":[],"default_left":[0,0,0,0,0,0,0,0,0,0,0,0,0,0,0],"id":29,"left_children":[1,3,5,7,9,11,13,-1,-1,-1,-1,-1,-1,-1,-1],"loss_changes":[5.940325E1,3.6856293E1,1.2348614E1,7.624358E0,2.9493988E1,8.130908E0,8.029049E0,0E0,0E0,0E0,0E0,0E0,0E0,0E0,0E0],"parents":[2147483647,0,0,1,1,2,2,3,3,4,4,5,5,6,6],"right_children":[2,4,6,8,10,12,14,-1,-1,-1,-1,-1,-1,-1,-1],"split_conditions":[4.37E-1,4.5E0,6.6E0,7.238E0,5.52E-1,3.93E-1,1.6E1,1.5673222E-3,-4.49204E-3,2.4825907E-3,6.672757E-3,-2.1224662E-3,3.5723677E-4,1.5498864E-3,5.6658345E-3],"split_indices":[3,1092,77,539,55,637,51,0,0,0,0,0,0,0,0],"split_type":[0,0,0,0,0,0,0,0,0,0,0,0,0,0,0],"sum_hessian":[4.0872783E3,1.3553882E3,2.7318901E3,6.791267E2,6.762615E2,2.3898982E3,3.4199197E2,6.586308E2,2.0495884E1,3.2303833E2,3.532231E2,1.3949231E2,2.2504058E3,2.8579044E2,5.6201546E1],"tree_param":{"num_deleted":"0","num_feature":"1093","num_nodes":"15","size_leaf_vector":"1"}},{"base_weights":[-1.3030578E-1,-3.9450112E-1,-7.62933E-2,-1.8945129E-1,-6.160482E-1,-3.867501E-2,-2.4934272E-1,-1.5243419E-3,-7.416346E-3,-6.6196164E-3,1.5664665E-3,3.459739E-4,-8.509093E-4,-1.1086102E-3,-4.5807646E-3],"categories":[],"categories_nodes":[],"categories_segments":[],"categories_sizes":[],"default_left":[0,0,0,0,0,0,0,0,0,0,0,0,0,0,0],"id":30,"left_children":[1,3,5,7,9,11,13,-1,-1,-1,-1,-1,-1,-1,-1],"loss_changes":[5.829966E1,3.1391907E1,2.2091413E1,7.2791862E0,1.1915459E1,9.491666E0,1.7467777E1,0E0,0E0,0E0,0E0,0E0,0E0,0E0,0E0],"parents":[2147483647,0,0,1,1,2,2,3,3,4,4,5,5,6,6],"right_children":[2,4,6,8,10,12,14,-1,-1,-1,-1,-1,-1,-1,-1],"split_conditions":[-5E0,5E0,5.4E0,8.62E-1,2.6E1,1.041E2,5E0,-1.5243419E-3,-7.416346E-3,-6.6196164E-3,1.5664665E-3,3.459739E-4,-8.509093E-4,-1.1086102E-3,-4.5807646E-3],"split_indices":[25,1092,77,482,80,381,1092,0,0,0,0,0,0,0,0],"split_type":[0,0,0,0,0,0,0,0,0,0,0,0,0,0,0],"sum_hessian":[4.0866235E3,6.925919E2,3.3940317E3,3.606513E2,3.3194064E2,2.7889749E3,6.050569E2,3.3918893E2,2.1462397E1,3.1345828E2,1.8482355E1,1.0816816E3,1.7072932E3,3.646594E2,2.4039748E2],"tree_param":{"num_deleted":"0","num_feature":"1093","num_nodes":"15","size_leaf_vector":"1"}},{"base_weights":[1.3030577E-1,3.945011E-1,7.6293305E-2,1.8945129E-1,6.1604816E-1,3.8675006E-2,2.4934277E-1,1.5243416E-3,7.416346E-3,6.6196164E-3,-1.5664672E-3,-3.459739E-4,8.509093E-4,1.1086107E-3,4.5807646E-3],"categories":[],"categories_nodes":[],"categories_segments":[],"categories_sizes":[],"default_left":[0,0,0,0,0,0,0,0,0,0,0,0,0,0,0],"id":31,"left_children":[1,3,5,7,9,11,13,-1,-1,-1,-1,-1,-1,-1,-1],"loss_changes":[5.829963E1,3.1391922E1,2.2091427E1,7.2791862E0,1.1915466E1,9.491666E0,1.7467773E1,0E0,0E0,0E0,0E0,0E0,0E0,0E0,0E0],"parents":[2147483647,0,0,1,1,2,2,3,3,4,4,5,5,6,6],"right_children":[2,4,6,8,10,12,14,-1,-1,-1,-1,-1,-1,-1,-1],"split_conditions":[-5E0,5E0,5.4E0,8.62E-1,2.6E1,1.041E2,5E0,1.5243416E-3,7.416346E-3,6.6196164E-3,-1.5664672E-3,-3.459739E-4,8.509093E-4,1.1086107E-3,4.5807646E-3],"split_indices":[25,1092,77,482,80,381,1092,0,0,0,0,0,0,0,0],"split_type":[0,0,0,0,0,0,0,0,0,0,0,0,0,0,0],"sum_hessian":[4.0866238E3,6.92592E2,3.3940317E3,3.6065134E2,3.319406E2,2.7889749E3,6.050568E2,3.3918893E2,2.1462397E1,3.1345825E2,1.8482357E1,1.0816816E3,1.7072932E3,3.6465936E2,2.4039748E2],"tree_param":{"num_deleted":"0","num_feature":"1093","num_nodes":"15","size_leaf_vector":"1"}},{"base_weights":[-1.2902635E-1,-2.9744992E-1,-4.5447484E-2,-1.3529524E-1,-4.6006683E-1,-2.0453868E-2,-2.1960896E-1,-1.9636955E-3,4.6959447E-4,-2.4346483E-3,-6.5729376E-3,-8.6483295E-4,3.1000306E-4,-1.5125689E-3,-5.5883536E-3],"categories":[],"categories_nodes":[],"categories_segments":[],"categories_sizes":[],"default_left":[0,0,0,0,0,0,0,0,0,0,0,0,0,0,0],"id":32,"left_children":[1,3,5,7,9,11,13,-1,-1,-1,-1,-1,-1,-1,-1],"loss_changes":[5.7518364E1,3.5676445E1,1.1890831E1,7.5788383E0,2.8730545E1,8.12564E0,7.8650494E0,0E0,0E0,0E0,0E0,0E0,0E0,0E0,0E0],"parents":[2147483647,0,0,1,1,2,2,3,3,4,4,5,5,6,6],"right_children":[2,4,6,8,10,12,14,-1,-1,-1,-1,-1,-1,-1,-1],"split_conditions":[4.37E-1,4.5E0,6.6E0,1.154E2,5.52E-1,1.2059E1,1.6E1,-1.9636955E-3,4.6959447E-4,-2.4346483E-3,-6.5729376E-3,-8.6483295E-4,3.1000306E-4,-1.5125689E-3,-5.5883536E-3],"split_indices":[3,1092,77,1016,55,993,51,0,0,0,0,0,0,0,0],"split_type":[0,0,0,0,0,0,0,0,0,0,0,0,0,0,0],"sum_hessian":[4.0860437E3,1.3543245E3,2.7317192E3,6.790433E2,6.752811E2,2.3898706E3,3.418488E2,5.0854892E2,1.7049438E2,3.2289746E2,3.5238364E2,1.046391E3,1.3434795E3,2.8572318E2,5.6125603E1],"tree_param":{"num_deleted":"0","num_feature":"1093","num_nodes":"15","size_leaf_vector":"1"}},{"base_weights":[1.2902634E-1,2.974499E-1,4.5447476E-2,1.3529521E-1,4.6006683E-1,2.0453857E-2,2.1960896E-1,1.9636953E-3,-4.69595E-4,2.4346483E-3,6.572937E-3,8.648331E-4,-3.1000335E-4,1.5125689E-3,5.5883536E-3],"categories":[],"categories_nodes":[],"categories_segments":[],"categories_sizes":[],"default_left":[0,0,0,0,0,0,0,0,0,0,0,0,0,0,0],"id":33,"left_children":[1,3,5,7,9,11,13,-1,-1,-1,-1,-1,-1,-1,-1],"loss_changes":[5.7518364E1,3.5676437E1,1.1890833E1,7.5788383E0,2.873053E1,8.125646E0,7.8650475E0,0E0,0E0,0E0,0E0,0E0,0E0,0E0,0E0],"parents":[2147483647,0,0,1,1,2,2,3,3,4,4,5,5,6,6],"right_children":[2,4,6,8,10,12,14,-1,-1,-1,-1,-1,-1,-1,-1],"split_conditions":[4.37E-1,4.5E0,6.6E0,1.154E2,5.52E-1,1.2059E1,1.6E1,1.9636953E-3,-4.69595E-4,2.4346483E-3,6.572937E-3,8.648331E-4,-3.1000335E-4,1.5125689E-3,5.5883536E-3],"split_indices":[3,1092,77,1016,55,993,51,0,0,0,0,0,0,0,0],"split_type":[0,0,0,0,0,0,0,0,0,0,0,0,0,0,0],"sum_hessian":[4.0860437E3,1.3543245E3,2.7317192E3,6.790433E2,6.752811E2,2.3898706E3,3.418488E2,5.0854892E2,1.7049438E2,3.2289746E2,3.5238364E2,1.046391E3,1.3434796E3,2.8572318E2,5.6125603E1],"tree_param":{"num_deleted":"0","num_feature":"1093","num_nodes":"15","size_leaf_vector":"1"}},{"base_weights":[-1.2776402E-1,-3.8785574E-1,-7.464305E-2,-2.2249693E-1,-6.559746E-1,-3.7675403E-2,-2.447872E-1,-8.9903054E-4,-3.2858443E-3,-7.098613E-3,3.7605476E-4,-1.1277533E-3,7.231959E-5,-3.626234E-4,-3.804127E-3],"categories":[],"categories_nodes":[],"categories_segments":[],"categories_sizes":[],"default_left":[0,0,0,0,0,0,0,0,0,0,0,0,0,0,0],"id":34,"left_children":[1,3,5,7,9,11,13,-1,-1,-1,-1,-1,-1,-1,-1],"loss_changes":[5.642881E1,3.0569946E1,2.134165E1,6.019514E0,9.8849945E0,9.409523E0,1.7116402E1,0E0,0E0,0E0,0E0,0E0,0E0,0E0,0E0],"parents":[2147483647,0,0,1,1,2,2,3,3,4,4,5,5,6,6],"right_children":[2,4,6,8,10,12,14,-1,-1,-1,-1,-1,-1,-1,-1],"split_conditions":[-5E0,6E0,5.4E0,1.6568E1,2.4E1,4.379E0,3.5E0,-8.9903054E-4,-3.2858443E-3,-7.098613E-3,3.7605476E-4,-1.1277533E-3,7.231959E-5,-3.626234E-4,-3.804127E-3],"split_indices":[25,1092,77,895,79,397,1092,0,0,0,0,0,0,0,0],"split_type":[0,0,0,0,0,0,0,0,0,0,0,0,0,0,0],"sum_hessian":[4.0853076E3,6.9180066E2,3.3935068E3,4.2903116E2,2.627695E2,2.7887988E3,6.0470795E2,1.9151405E2,2.3751712E2,2.4380406E2,1.8965445E1,1.0430178E3,1.745781E3,2.3880754E2,3.6590042E2],"tree_param":{"num_deleted":"0","num_feature":"1093","num_nodes":"15","size_leaf_vector":"1"}},{"base_weights":[1.2776403E-1,3.878557E-1,7.464307E-2,2.2249691E-1,6.5597457E-1,3.7675418E-2,2.4478723E-1,8.990304E-4,3.2858443E-3,7.0986114E-3,-3.7605476E-4,1.1277534E-3,-7.2319504E-5,3.6262342E-4,3.8041275E-3],"categories":[],"categories_nodes":[],"categories_segments":[],"categories_sizes":[],"default_left":[0,0,0,0,0,0,0,0,0,0,0,0,0,0,0],"id":35,"left_children":[1,3,5,7,9,11,13,-1,-1,-1,-1,-1,-1,-1,-1],"loss_changes":[5.6428787E1,3.0569923E1,2.1341654E1,6.019518E0,9.8849945E0,9.409524E0,1.7116413E1,0E0,0E0,0E0,0E0,0E0,0E0,0E0,0E0],"parents":[2147483647,0,0,1,1,2,2,3,3,4,4,5,5,6,6],"right_children":[2,4,6,8,10,12,14,-1,-1,-1,-1,-1,-1,-1,-1],"split_conditions":[-5E0,6E0,5.4E0,1.6568E1,2.4E1,4.379E0,3.5E0,8.990304E-4,3.2858443E-3,7.0986114E-3,-3.7605476E-4,1.1277534E-3,-7.2319504E-5,3.6262342E-4,3.8041275E-3],"split_indices":[25,1092,77,895,79,397,1092,0,0,0,0,0,0,0,0],"split_type":[0,0,0,0,0,0,0,0,0,0,0,0,0,0,0],"sum_hessian":[4.0853076E3,6.9180066E2,3.3935068E3,4.2903116E2,2.627695E2,2.7887988E3,6.0470795E2,1.9151405E2,2.375171E2,2.4380406E2,1.8965445E1,1.0430178E3,1.745781E3,2.3880754E2,3.6590042E2],"tree_param":{"num_deleted":"0","num_feature":"1093","num_nodes":"15","size_leaf_vector":"1"}},{"base_weights":[-1.2650988E-1,-2.9240063E-1,-4.4252194E-2,-1.3268682E-1,-4.5279315E-1,-1.9736411E-2,-2.1516094E-1,-1.5142631E-3,4.4838446E-3,-2.390983E-3,-6.4778742E-3,2.1147614E-3,-3.415587E-4,-1.4751583E-3,-5.513115E-3],"categories":[],"categories_nodes":[],"categories_segments":[],"categories_sizes":[],"default_left":[0,0,0,0,0,0,0,0,0,0,0,0,0,0,0],"id":36,"left_children":[1,3,5,7,9,11,13,-1,-1,-1,-1,-1,-1,-1,-1],"loss_changes":[5.5739517E1,3.462954E1,1.1444909E1,7.471694E0,2.7981659E1,7.9781547E0,7.711089E0,0E0,0E0,0E0,0E0,0E0,0E0,0E0,0E0],"parents":[2147483647,0,0,1,1,2,2,3,3,4,4,5,5,6,6],"right_children":[2,4,6,8,10,12,14,-1,-1,-1,-1,-1,-1,-1,-1],"split_conditions":[4.37E-1,4.5E0,6.6E0,7.238E0,5.52E-1,3.93E-1,1.6E1,-1.5142631E-3,4.4838446E-3,-2.390983E-3,-6.4778742E-3,2.1147614E-3,-3.415587E-4,-1.4751583E-3,-5.513115E-3],"split_indices":[3,1092,77,539,55,637,51,0,0,0,0,0,0,0,0],"split_type":[0,0,0,0,0,0,0,0,0,0,0,0,0,0,0],"sum_hessian":[4.0846897E3,1.3531696E3,2.73152E3,6.789349E2,6.742347E2,2.3898296E3,3.4169055E2,6.584397E2,2.049521E1,3.2275388E2,3.5148077E2,1.3948915E2,2.2503403E3,2.856473E2,5.6043255E1],"tree_param":{"num_deleted":"0","num_feature":"1093","num_nodes":"15","size_leaf_vector":"1"}},{"base_weights":[1.2650988E-1,2.9240063E-1,4.4252194E-2,1.3268684E-1,4.5279315E-1,1.973641E-2,2.1516094E-1,1.5142632E-3,-4.4838446E-3,2.3909826E-3,6.477875E-3,-2.1147612E-3,3.415587E-4,1.4751586E-3,5.513115E-3],"categories":[],"categories_nodes":[],"categories_segments":[],"categories_sizes":[],"default_left":[0,0,0,0,0,0,0,0,0,0,0,0,0,0,0],"id":37,"left_children":[1,3,5,7,9,11,13,-1,-1,-1,-1,-1,-1,-1,-1],"loss_changes":[5.5739502E1,3.4629547E1,1.1444909E1,7.471695E0,2.7981659E1,7.978154E0,7.71109E0,0E0,0E0,0E0,0E0,0E0,0E0,0E0,0E0],"parents":[2147483647,0,0,1,1,2,2,3,3,4,4,5,5,6,6],"right_children":[2,4,6,8,10,12,14,-1,-1,-1,-1,-1,-1,-1,-1],"split_conditions":[4.37E-1,4.5E0,6.6E0,7.238E0,5.52E-1,3.93E-1,1.6E1,1.5142632E-3,-4.4838446E-3,2.3909826E-3,6.477875E-3,-2.1147612E-3,3.415587E-4,1.4751586E-3,5.513115E-3],"split_indices":[3,1092,77,539,55,637,51,0,0,0,0,0,0,0,0],"split_type":[0,0,0,0,0,0,0,0,0,0,0,0,0,0,0],"sum_hessian":[4.0846895E3,1.3531696E3,2.73152E3,6.789349E2,6.742346E2,2.3898296E3,3.4169055E2,6.584397E2,2.049521E1,3.2275388E2,3.5148077E2,1.3948915E2,2.2503403E3,2.856473E2,5.604325E1],"tree_param":{"num_deleted":"0","num_feature":"1093","num_nodes":"15","size_leaf_vector":"1"}},{"base_weights":[-1.2527187E-1,-2.896276E-1,-4.381325E-2,-1.313658E-1,-4.4869736E-1,-1.9538425E-2,-2.1308379E-1,-1.9182728E-3,4.899604E-4,-2.3676893E-3,-6.4234007E-3,-8.518348E-4,3.118684E-4,-1.016219E-3,-4.1259453E-3],"categories":[],"categories_nodes":[],"categories_segments":[],"categories_sizes":[],"default_left":[0,0,0,0,0,0,0,0,0,0,0,0,0,0,0],"id":38,"left_children":[1,3,5,7,9,11,13,-1,-1,-1,-1,-1,-1,-1,-1],"loss_changes":[5.4676872E1,3.4014732E1,1.1223389E1,7.423478E0,2.753276E1,7.963746E0,7.5768538E0,0E0,0E0,0E0,0E0,0E0,0E0,0E0,0E0],"parents":[2147483647,0,0,1,1,2,2,3,3,4,4,5,5,6,6],"right_children":[2,4,6,8,10,12,14,-1,-1,-1,-1,-1,-1,-1,-1],"split_conditions":[4.37E-1,4.5E0,6.6E0,1.154E2,5.52E-1,2.747E0,5E0,-1.9182728E-3,4.899604E-4,-2.3676893E-3,-6.4234007E-3,-8.518348E-4,3.118684E-4,-1.016219E-3,-4.1259453E-3],"split_indices":[3,1092,77,1016,55,539,1092,0,0,0,0,0,0,0,0],"split_type":[0,0,0,0,0,0,0,0,0,0,0,0,0,0,0],"sum_hessian":[4.083911E3,1.3524906E3,2.7314204E3,6.788824E2,6.736082E2,2.389816E3,3.416044E2,5.0839352E2,1.7048885E2,3.2268008E2,3.5092813E2,1.0414132E3,1.3484027E3,2.2013155E2,1.2147287E2],"tree_param":{"num_deleted":"0","num_feature":"1093","num_nodes":"15","size_leaf_vector":"1"}},{"base_weights":[1.2527187E-1,2.896276E-1,4.381325E-2,1.313658E-1,4.486974E-1,1.9538416E-2,2.1308383E-1,1.9182728E-3,-4.899608E-4,2.367689E-3,6.423401E-3,8.518347E-4,-3.1186853E-4,1.0162195E-3,4.125946E-3],"categories":[],"categories_nodes":[],"categories_segments":[],"categories_sizes":[],"default_left":[0,0,0,0,0,0,0,0,0,0,0,0,0,0,0],"id":39,"left_children":[1,3,5,7,9,11,13,-1,-1,-1,-1,-1,-1,-1,-1],"loss_changes":[5.4676872E1,3.4014732E1,1.1223396E1,7.423479E0,2.7532776E1,7.963747E0,7.5768557E0,0E0,0E0,0E0,0E0,0E0,0E0,0E0,0E0],"parents":[2147483647,0,0,1,1,2,2,3,3,4,4,5,5,6,6],"right_children":[2,4,6,8,10,12,14,-1,-1,-1,-1,-1,-1,-1,-1],"split_conditions":[4.37E-1,4.5E0,6.6E0,1.154E2,5.52E-1,2.747E0,5E0,1.9182728E-3,-4.899608E-4,2.367689E-3,6.423401E-3,8.518347E-4,-3.1186853E-4,1.0162195E-3,4.125946E-3],"split_indices":[3,1092,77,1016,55,539,1092,0,0,0,0,0,0,0,0],"split_type":[0,0,0,0,0,0,0,0,0,0,0,0,0,0,0],"sum_hessian":[4.083911E3,1.3524906E3,2.7314204E3,6.788824E2,6.736082E2,2.389816E3,3.416044E2,5.083935E2,1.7048885E2,3.2268008E2,3.5092813E2,1.0414132E3,1.3484027E3,2.2013155E2,1.2147286E2],"tree_param":{"num_deleted":"0","num_feature":"1093","num_nodes":"15","size_leaf_vector":"1"}},{"base_weights":[-1.24048114E-1,-3.7853312E-1,-7.215472E-2,-2.1657571E-1,-6.41956E-1,-3.6100592E-2,-2.3823641E-1,-8.5028645E-4,-3.2185193E-3,-6.952591E-3,4.1365201E-4,3.629599E-4,-8.1966765E-4,-3.3827673E-4,-3.7136446E-3],"categories":[],"categories_nodes":[],"categories_segments":[],"categories_sizes":[],"default_left":[0,0,0,0,0,0,0,0,0,0,0,0,0,0,0],"id":40,"left_children":[1,3,5,7,9,11,13,-1,-1,-1,-1,-1,-1,-1,-1],"loss_changes":[5.390772E1,2.9363342E1,2.0311958E1,5.924019E0,9.599884E0,9.265546E0,1.645433E1,0E0,0E0,0E0,0E0,0E0,0E0,0E0,0E0],"parents":[2147483647,0,0,1,1,2,2,3,3,4,4,5,5,6,6],"right_children":[2,4,6,8,10,12,14,-1,-1,-1,-1,-1,-1,-1,-1],"split_conditions":[-5E0,6E0,5.4E0,1.6568E1,2.4E1,1.041E2,3.5E0,-8.5028645E-4,-3.2185193E-3,-6.952591E-3,4.1365201E-4,3.629599E-4,-8.1966765E-4,-3.3827673E-4,-3.7136446E-3],"split_indices":[25,1092,77,895,79,381,1092,0,0,0,0,0,0,0,0],"split_type":[0,0,0,0,0,0,0,0,0,0,0,0,0,0,0],"sum_hessian":[4.0831033E3,6.905168E2,3.3925864E3,4.2874088E2,2.6177594E2,2.788465E3,6.0412146E2,1.9139388E2,2.37347E2,2.4281726E2,1.8958664E1,1.0815391E3,1.7069259E3,2.3876646E2,3.6535498E2],"tree_param":{"num_deleted":"0","num_feature":"1093","num_nodes":"15","size_leaf_vector":"1"}},{"base_weights":[1.2404809E-1,3.7853312E-1,7.21547E-2,2.1657574E-1,6.41956E-1,3.6100566E-2,2.3823638E-1,8.5028645E-4,3.21852E-3,6.952591E-3,-4.13652E-4,-3.6296027E-4,8.196675E-4,3.3827624E-4,3.7136443E-3],"categories":[],"categories_nodes":[],"categories_segments":[],"categories_sizes":[],"default_left":[0,0,0,0,0,0,0,0,0,0,0,0,0,0,0],"id":41,"left_children":[1,3,5,7,9,11,13,-1,-1,-1,-1,-1,-1,-1,-1],"loss_changes":[5.390773E1,2.9363335E1,2.031196E1,5.9240227E0,9.599884E0,9.26555E0,1.645433E1,0E0,0E0,0E0,0E0,0E0,0E0,0E0,0E0],"parents":[2147483647,0,0,1,1,2,2,3,3,4,4,5,5,6,6],"right_children":[2,4,6,8,10,12,14,-1,-1,-1,-1,-1,-1,-1,-1],"split_conditions":[-5E0,6E0,5.4E0,1.6568E1,2.4E1,1.041E2,3.5E0,8.5028645E-4,3.21852E-3,6.952591E-3,-4.13652E-4,-3.6296027E-4,8.196675E-4,3.3827624E-4,3.7136443E-3],"split_indices":[25,1092,77,895,79,381,1092,0,0,0,0,0,0,0,0],"split_type":[0,0,0,0,0,0,0,0,0,0,0,0,0,0,0],"sum_hessian":[4.0831033E3,6.905168E2,3.3925864E3,4.2874088E2,2.6177594E2,2.788465E3,6.0412146E2,1.9139388E2,2.37347E2,2.4281726E2,1.8958662E1,1.0815392E3,1.7069259E3,2.3876646E2,3.6535498E2],"tree_param":{"num_deleted":"0","num_feature":"1093","num_nodes":"15","size_leaf_vector":"1"}},{"base_weights":[-1.22832894E-1,-2.8470513E-1,-4.2676754E-2,-1.2879558E-1,-4.416582E-1,-1.8870154E-2,-2.0876344E-1,-1.4736073E-3,4.4660387E-3,-2.3248722E-3,-6.3324105E-3,-8.4234244E-4,3.2062308E-4,-1.4188912E-3,-5.416929E-3],"categories":[],"categories_nodes":[],"categories_segments":[],"categories_sizes":[],"default_left":[0,0,0,0,0,0,0,0,0,0,0,0,0,0,0],"id":42,"left_children":[1,3,5,7,9,11,13,-1,-1,-1,-1,-1,-1,-1,-1],"loss_changes":[5.2970207E1,3.3031723E1,1.0799134E1,7.3272524E0,2.6839325E1,7.9619856E0,7.547242E0,0E0,0E0,0E0,0E0,0E0,0E0,0E0,0E0],"parents":[2147483647,0,0,1,1,2,2,3,3,4,4,5,5,6,6],"right_children":[2,4,6,8,10,12,14,-1,-1,-1,-1,-1,-1,-1,-1],"split_conditions":[4.37E-1,4.5E0,6.6E0,7.238E0,5.52E-1,1.2059E1,1.6E1,-1.4736073E-3,4.4660387E-3,-2.3248722E-3,-6.3324105E-3,-8.4234244E-4,3.2062308E-4,-1.4188912E-3,-5.416929E-3],"split_indices":[3,1092,77,539,55,993,51,0,0,0,0,0,0,0,0],"split_type":[0,0,0,0,0,0,0,0,0,0,0,0,0,0,0],"sum_hessian":[4.0824014E3,1.3511843E3,2.731217E3,6.787588E2,6.7242554E2,2.389783E3,3.4143408E2,6.582639E2,2.0494862E1,3.2251538E2,3.499102E2,1.046327E3,1.3434559E3,2.8551077E2,5.5923313E1],"tree_param":{"num_deleted":"0","num_feature":"1093","num_nodes":"15","size_leaf_vector":"1"}},{"base_weights":[1.2283288E-1,2.8470513E-1,4.2676743E-2,1.2879561E-1,4.4165814E-1,1.8870141E-2,2.0876342E-1,1.4736075E-3,-4.466038E-3,2.324872E-3,6.33241E-3,8.423424E-4,-3.2062322E-4,1.418891E-3,5.416929E-3],"categories":[],"categories_nodes":[],"categories_segments":[],"categories_sizes":[],"default_left":[0,0,0,0,0,0,0,0,0,0,0,0,0,0,0],"id":43,"left_children":[1,3,5,7,9,11,13,-1,-1,-1,-1,-1,-1,-1,-1],"loss_changes":[5.2970207E1,3.3031708E1,1.0799135E1,7.3272524E0,2.6839325E1,7.9619856E0,7.547241E0,0E0,0E0,0E0,0E0,0E0,0E0,0E0,0E0],"parents":[2147483647,0,0,1,1,2,2,3,3,4,4,5,5,6,6],"right_children":[2,4,6,8,10,12,14,-1,-1,-1,-1,-1,-1,-1,-1],"split_conditions":[4.37E-1,4.5E0,6.6E0,7.238E0,5.52E-1,1.2059E1,1.6E1,1.4736075E-3,-4.466038E-3,2.324872E-3,6.33241E-3,8.423424E-4,-3.2062322E-4,1.418891E-3,5.416929E-3],"split_indices":[3,1092,77,539,55,993,51,0,0,0,0,0,0,0,0],"split_type":[0,0,0,0,0,0,0,0,0,0,0,0,0,0,0],"sum_hessian":[4.0824014E3,1.3511843E3,2.731217E3,6.787588E2,6.7242554E2,2.389783E3,3.4143408E2,6.582639E2,2.0494862E1,3.2251538E2,3.499102E2,1.046327E3,1.3434559E3,2.8551077E2,5.5923313E1],"tree_param":{"num_deleted":"0","num_feature":"1093","num_nodes":"15","size_leaf_vector":"1"}},{"base_weights":[-1.216342E-1,-3.7226275E-1,-7.058854E-2,-2.126383E-1,-6.325229E-1,-3.5158094E-2,-2.3389882E-1,-8.2253345E-4,-3.170107E-3,-6.8538217E-3,4.301771E-4,-1.0951936E-3,9.304461E-5,-3.2194357E-4,-3.6539E-3],"categories":[],"categories_nodes":[],"categories_segments":[],"categories_sizes":[],"default_left":[0,0,0,0,0,0,0,0,0,0,0,0,0,0,0],"id":44,"left_children":[1,3,5,7,9,11,13,-1,-1,-1,-1,-1,-1,-1,-1],"loss_changes":[5.22036E1,2.8554146E1,1.962403E1,5.819399E0,9.385834E0,9.223144E0,1.6026405E1,0E0,0E0,0E0,0E0,0E0,0E0,0E0,0E0],"parents":[2147483647,0,0,1,1,2,2,3,3,4,4,5,5,6,6],"right_children":[2,4,6,8,10,12,14,-1,-1,-1,-1,-1,-1,-1,-1],"split_conditions":[-5E0,6E0,5.4E0,1.6568E1,2.4E1,4.379E0,3.5E0,-8.2253345E-4,-3.170107E-3,-6.8538217E-3,4.301771E-4,-1.0951936E-3,9.304461E-5,-3.2194357E-4,-3.6539E-3],"split_indices":[25,1092,77,895,79,397,1092,0,0,0,0,0,0,0,0],"split_type":[0,0,0,0,0,0,0,0,0,0,0,0,0,0,0],"sum_hessian":[4.081532E3,6.895627E2,3.3919692E3,4.28543E2,2.610197E2,2.7882656E3,6.0370374E2,1.9132385E2,2.3721915E2,2.4206427E2,1.8955452E1,1.0427905E3,1.745475E3,2.3873485E2,3.649689E2],"tree_param":{"num_deleted":"0","num_feature":"1093","num_nodes":"15","size_leaf_vector":"1"}},{"base_weights":[1.216342E-1,3.7226275E-1,7.058854E-2,2.1263832E-1,6.3252294E-1,3.515809E-2,2.3389883E-1,8.2253374E-4,3.1701066E-3,6.8538217E-3,-4.3017775E-4,1.0951936E-3,-9.3044655E-5,3.2194372E-4,3.6539002E-3],"categories":[],"categories_nodes":[],"categories_segments":[],"categories_sizes":[],"default_left":[0,0,0,0,0,0,0,0,0,0,0,0,0,0,0],"id":45,"left_children":[1,3,5,7,9,11,13,-1,-1,-1,-1,-1,-1,-1,-1],"loss_changes":[5.2203598E1,2.8554153E1,1.962403E1,5.819395E0,9.385834E0,9.223145E0,1.602641E1,0E0,0E0,0E0,0E0,0E0,0E0,0E0,0E0],"parents":[2147483647,0,0,1,1,2,2,3,3,4,4,5,5,6,6],"right_children":[2,4,6,8,10,12,14,-1,-1,-1,-1,-1,-1,-1,-1],"split_conditions":[-5E0,6E0,5.4E0,1.6568E1,2.4E1,4.379E0,3.5E0,8.2253374E-4,3.1701066E-3,6.8538217E-3,-4.3017775E-4,1.0951936E-3,-9.3044655E-5,3.2194372E-4,3.6539002E-3],"split_indices":[25,1092,77,895,79,397,1092,0,0,0,0,0,0,0,0],"split_type":[0,0,0,0,0,0,0,0,0,0,0,0,0,0,0],"sum_hessian":[4.081532E3,6.895627E2,3.3919692E3,4.2854297E2,2.610197E2,2.7882656E3,6.0370374E2,1.9132385E2,2.3721913E2,2.4206427E2,1.8955452E1,1.0427905E3,1.7454751E3,2.3873485E2,3.6496887E2],"tree_param":{"num_deleted":"0","num_feature":"1093","num_nodes":"15","size_leaf_vector":"1"}},{"base_weights":[-1.20444424E-1,-2.7991796E-1,-4.1549835E-2,-1.2630849E-1,-4.348188E-1,-1.8199148E-2,-2.0454493E-1,-1.8615922E-3,5.214225E-4,-2.2833697E-3,-6.24423E-3,2.2657171E-3,-3.1573663E-4,-1.3835069E-3,-5.3457962E-3],"categories":[],"categories_nodes":[],"categories_segments":[],"categories_sizes":[],"default_left":[0,0,0,0,0,0,0,0,0,0,0,0,0,0,0],"id":46,"left_children":[1,3,5,7,9,11,13,-1,-1,-1,-1,-1,-1,-1,-1],"loss_changes":[5.134364E1,3.208641E1,1.0394295E1,7.2685213E0,2.6172585E1,7.833672E0,7.4027805E0,0E0,0E0,0E0,0E0,0E0,0E0,0E0,0E0],"parents":[2147483647,0,0,1,1,2,2,3,3,4,4,5,5,6,6],"right_children":[2,4,6,8,10,12,14,-1,-1,-1,-1,-1,-1,-1,-1],"split_conditions":[4.37E-1,4.5E0,6.6E0,1.154E2,5.52E-1,3.91E-1,1.6E1,-1.8615922E-3,5.214225E-4,-2.2833697E-3,-6.24423E-3,2.2657171E-3,-3.1573663E-4,-1.3835069E-3,-5.3457962E-3],"split_indices":[3,1092,77,1016,55,637,51,0,0,0,0,0,0,0,0],"split_type":[0,0,0,0,0,0,0,0,0,0,0,0,0,0,0],"sum_hessian":[4.080776E3,1.3498035E3,2.7309724E3,6.786383E2,6.711652E2,2.389731E3,3.4124133E2,5.0816217E2,1.704761E2,3.2233826E2,3.4882693E2,1.2298614E2,2.2667449E3,2.8541547E2,5.5825874E1],"tree_param":{"num_deleted":"0","num_feature":"1093","num_nodes":"15","size_leaf_vector":"1"}},{"base_weights":[1.20444424E-1,2.7991796E-1,4.1549835E-2,1.263085E-1,4.3481877E-1,1.8199136E-2,2.0454502E-1,1.8615923E-3,-5.214226E-4,2.2833697E-3,6.2442296E-3,-2.2657171E-3,3.157365E-4,1.3835079E-3,5.3457962E-3],"categories":[],"categories_nodes":[],"categories_segments":[],"categories_sizes":[],"default_left":[0,0,0,0,0,0,0,0,0,0,0,0,0,0,0],"id":47,"left_children":[1,3,5,7,9,11,13,-1,-1,-1,-1,-1,-1,-1,-1],"loss_changes":[5.1343636E1,3.2086403E1,1.0394304E1,7.2685223E0,2.6172562E1,7.83367E0,7.4027786E0,0E0,0E0,0E0,0E0,0E0,0E0,0E0,0E0],"parents":[2147483647,0,0,1,1,2,2,3,3,4,4,5,5,6,6],"right_children":[2,4,6,8,10,12,14,-1,-1,-1,-1,-1,-1,-1,-1],"split_conditions":[4.37E-1,4.5E0,6.6E0,1.154E2,5.52E-1,3.91E-1,1.6E1,1.8615923E-3,-5.214226E-4,2.2833697E-3,6.2442296E-3,-2.2657171E-3,3.157365E-4,1.3835079E-3,5.3457962E-3],"split_indices":[3,1092,77,1016,55,637,51,0,0,0,0,0,0,0,0],"split_type":[0,0,0,0,0,0,0,0,0,0,0,0,0,0,0],"sum_hessian":[4.080776E3,1.3498035E3,2.7309724E3,6.786383E2,6.7116516E2,2.389731E3,3.4124133E2,5.0816217E2,1.704761E2,3.223383E2,3.488269E2,1.2298614E2,2.2667449E3,2.8541547E2,5.582588E1],"tree_param":{"num_deleted":"0","num_feature":"1093","num_nodes":"15","size_leaf_vector":"1"}},{"base_weights":[-1.19271256E-1,-3.6612526E-1,-6.90597E-2,-2.08762E-1,-6.233687E-1,-3.423976E-2,-2.2966257E-1,-7.95056E-4,-3.1226026E-3,-6.7581264E-3,4.4637252E-4,3.7346952E-4,-7.9597184E-4,-9.869395E-4,-4.280266E-3],"categories":[],"categories_nodes":[],"categories_segments":[],"categories_sizes":[],"default_left":[0,0,0,0,0,0,0,0,0,0,0,0,0,0,0],"id":48,"left_children":[1,3,5,7,9,11,13,-1,-1,-1,-1,-1,-1,-1,-1],"loss_changes":[5.0556526E1,2.7782654E1,1.8962576E1,5.7186146E0,9.18103E0,9.059006E0,1.5656071E1,0E0,0E0,0E0,0E0,0E0,0E0,0E0,0E0],"parents":[2147483647,0,0,1,1,2,2,3,3,4,4,5,5,6,6],"right_children":[2,4,6,8,10,12,14,-1,-1,-1,-1,-1,-1,-1,-1],"split_conditions":[-5E0,6E0,5.4E0,1.6568E1,2.4E1,1.041E2,5E0,-7.95056E-4,-3.1226026E-3,-6.7581264E-3,4.4637252E-4,3.7346952E-4,-7.9597184E-4,-9.869395E-4,-4.280266E-3],"split_indices":[25,1092,77,895,79,381,1092,0,0,0,0,0,0,0,0],"split_type":[0,0,0,0,0,0,0,0,0,0,0,0,0,0,0],"sum_hessian":[4.0798484E3,6.885336E2,3.3913147E3,4.2832587E2,2.602078E2,2.788056E3,6.032587E2,1.912485E2,2.3707735E2,2.4125557E2,1.8952236E1,1.0814313E3,1.7066248E3,3.642575E2,2.3900119E2],"tree_param":{"num_deleted":"0","num_feature":"1093","num_nodes":"15","size_leaf_vector":"1"}},{"base_weights":[1.19271256E-1,3.661253E-1,6.905969E-2,2.0876202E-1,6.2336874E-1,3.4239758E-2,2.2966257E-1,7.9505605E-4,3.1226026E-3,6.758127E-3,-4.4637275E-4,-3.7346932E-4,7.959716E-4,9.869399E-4,4.2802654E-3],"categories":[],"categories_nodes":[],"categories_segments":[],"categories_sizes":[],"default_left":[0,0,0,0,0,0,0,0,0,0,0,0,0,0,0],"id":49,"left_children":[1,3,5,7,9,11,13,-1,-1,-1,-1,-1,-1,-1,-1],"loss_changes":[5.055653E1,2.7782654E1,1.8962572E1,5.7186165E0,9.181046E0,9.059E0,1.5656067E1,0E0,0E0,0E0,0E0,0E0,0E0,0E0,0E0],"parents":[2147483647,0,0,1,1,2,2,3,3,4,4,5,5,6,6],"right_children":[2,4,6,8,10,12,14,-1,-1,-1,-1,-1,-1,-1,-1],"split_conditions":[-5E0,6E0,5.4E0,1.6568E1,2.4E1,1.041E2,5E0,7.9505605E-4,3.1226026E-3,6.758127E-3,-4.4637275E-4,-3.7346932E-4,7.959716E-4,9.869399E-4,4.2802654E-3],"split_indices":[25,1092,77,895,79,381,1092,0,0,0,0,0,0,0,0],"split_type":[0,0,0,0,0,0,0,0,0,0,0,0,0,0,0],"sum_hessian":[4.0798484E3,6.885337E2,3.3913147E3,4.2832587E2,2.6020782E2,2.788056E3,6.032587E2,1.912485E2,2.3707735E2,2.4125557E2,1.8952236E1,1.0814313E3,1.7066248E3,3.642575E2,2.3900119E2],"tree_param":{"num_deleted":"0","num_feature":"1093","num_nodes":"15","size_leaf_vector":"1"}},{"base_weights":[-1.181065E-1,-2.7519223E-1,-4.0471856E-2,-1.238677E-1,-4.2806512E-1,-1.7562905E-2,-2.0047645E-1,-1.4225543E-3,4.456676E-3,-2.2422303E-3,-6.1575877E-3,-8.258003E-4,3.2674958E-4,1.1994343E-3,-2.6739873E-3],"categories":[],"categories_nodes":[],"categories_segments":[],"categories_sizes":[],"default_left":[0,0,0,0,0,0,0,0,0,0,0,0,0,0,0],"id":50,"left_children":[1,3,5,7,9,11,13,-1,-1,-1,-1,-1,-1,-1,-1],"loss_changes":[4.97461E1,3.1161232E1,1.0009703E1,7.1794157E0,2.5527252E1,7.811438E0,7.3664618E0,0E0,0E0,0E0,0E0,0E0,0E0,0E0,0E0],"parents":[2147483647,0,0,1,1,2,2,3,3,4,4,5,5,6,6],"right_children":[2,4,6,8,10,12,14,-1,-1,-1,-1,-1,-1,-1,-1],"split_conditions":[4.37E-1,4.5E0,6.6E0,7.238E0,5.52E-1,2.747E0,7.3E-2,-1.4225543E-3,4.456676E-3,-2.2422303E-3,-6.1575877E-3,-8.258003E-4,3.2674958E-4,1.1994343E-3,-2.6739873E-3],"split_indices":[3,1092,77,539,55,539,668,0,0,0,0,0,0,0,0],"split_type":[0,0,0,0,0,0,0,0,0,0,0,0,0,0,0],"sum_hessian":[4.0790352E3,1.3483145E3,2.7307207E3,6.784985E2,6.6981604E2,2.389683E3,3.4103748E2,6.580047E2,2.0493773E1,3.2214716E2,3.4766888E2,1.0413452E3,1.348338E3,5.8785194E1,2.822523E2],"tree_param":{"num_deleted":"0","num_feature":"1093","num_nodes":"15","size_leaf_vector":"1"}},{"base_weights":[1.1810652E-1,2.7519223E-1,4.0471885E-2,1.2386771E-1,4.2806512E-1,1.7562933E-2,2.0047651E-1,1.4225544E-3,-4.4566756E-3,2.2422303E-3,6.157587E-3,8.258005E-4,-3.2674923E-4,-1.1994336E-3,2.673988E-3],"categories":[],"categories_nodes":[],"categories_segments":[],"categories_sizes":[],"default_left":[0,0,0,0,0,0,0,0,0,0,0,0,0,0,0],"id":51,"left_children":[1,3,5,7,9,11,13,-1,-1,-1,-1,-1,-1,-1,-1],"loss_changes":[4.974609E1,3.1161217E1,1.00097065E1,7.1794157E0,2.552726E1,7.8114367E0,7.366461E0,0E0,0E0,0E0,0E0,0E0,0E0,0E0,0E0],"parents":[2147483647,0,0,1,1,2,2,3,3,4,4,5,5,6,6],"right_children":[2,4,6,8,10,12,14,-1,-1,-1,-1,-1,-1,-1,-1],"split_conditions":[4.37E-1,4.5E0,6.6E0,7.238E0,5.52E-1,2.747E0,7.3E-2,1.4225544E-3,-4.4566756E-3,2.2422303E-3,6.157587E-3,8.258005E-4,-3.2674923E-4,-1.1994336E-3,2.673988E-3],"split_indices":[3,1092,77,539,55,539,668,0,0,0,0,0,0,0,0],"split_type":[0,0,0,0,0,0,0,0,0,0,0,0,0,0,0],"sum_hessian":[4.0790352E3,1.3483145E3,2.7307207E3,6.784984E2,6.6981604E2,2.389683E3,3.4103748E2,6.5800464E2,2.0493773E1,3.2214716E2,3.4766888E2,1.0413452E3,1.348338E3,5.8785194E1,2.8225226E2],"tree_param":{"num_deleted":"0","num_feature":"1093","num_nodes":"15","size_leaf_vector":"1"}},{"base_weights":[-1.169546E-1,-3.6014688E-1,-6.7556165E-2,-1.7018674E-1,-5.678875E-1,-3.333795E-2,-2.2549129E-1,-1.334368E-3,-7.197542E-3,-6.1241267E-3,1.7045605E-3,-1.0697992E-3,1.0691556E-4,-2.8379034E-4,-3.5425096E-3],"categories":[],"categories_nodes":[],"categories_segments":[],"categories_sizes":[],"default_left":[0,0,0,0,0,0,0,0,0,0,0,0,0,0,0],"id":52,"left_children":[1,3,5,7,9,11,13,-1,-1,-1,-1,-1,-1,-1,-1],"loss_changes":[4.897921E1,2.7071213E1,1.8321844E1,7.1957684E0,1.0900726E1,9.04376E0,1.5314556E1,0E0,0E0,0E0,0E0,0E0,0E0,0E0,0E0],"parents":[2147483647,0,0,1,1,2,2,3,3,4,4,5,5,6,6],"right_children":[2,4,6,8,10,12,14,-1,-1,-1,-1,-1,-1,-1,-1],"split_conditions":[-5E0,5E0,5.4E0,8.62E-1,2.6E1,4.379E0,3.5E0,-1.334368E-3,-7.197542E-3,-6.1241267E-3,1.7045605E-3,-1.0697992E-3,1.0691556E-4,-2.8379034E-4,-3.5425096E-3],"split_indices":[25,1092,77,482,80,397,1092,0,0,0,0,0,0,0,0],"split_type":[0,0,0,0,0,0,0,0,0,0,0,0,0,0,0],"sum_hessian":[4.0781006E3,6.874486E2,3.390652E3,3.6004184E2,3.2740674E2,2.7878481E3,6.028039E2,3.386396E2,2.140225E1,3.0894653E2,1.846023E1,1.0426029E3,1.7452452E3,2.3866422E2,3.6413968E2],"tree_param":{"num_deleted":"0","num_feature":"1093","num_nodes":"15","size_leaf_vector":"1"}},{"base_weights":[1.1695461E-1,3.6014688E-1,6.7556165E-2,1.7018677E-1,5.678874E-1,3.3337954E-2,2.2549129E-1,1.3343683E-3,7.1975426E-3,6.1241267E-3,-1.7045599E-3,1.0697991E-3,-1.0691543E-4,2.8379017E-4,3.5425096E-3],"categories":[],"categories_nodes":[],"categories_segments":[],"categories_sizes":[],"default_left":[0,0,0,0,0,0,0,0,0,0,0,0,0,0,0],"id":53,"left_children":[1,3,5,7,9,11,13,-1,-1,-1,-1,-1,-1,-1,-1],"loss_changes":[4.8979214E1,2.707119E1,1.8321842E1,7.1957664E0,1.0900742E1,9.0437565E0,1.531456E1,0E0,0E0,0E0,0E0,0E0,0E0,0E0,0E0],"parents":[2147483647,0,0,1,1,2,2,3,3,4,4,5,5,6,6],"right_children":[2,4,6,8,10,12,14,-1,-1,-1,-1,-1,-1,-1,-1],"split_conditions":[-5E0,5E0,5.4E0,8.62E-1,2.6E1,4.379E0,3.5E0,1.3343683E-3,7.1975426E-3,6.1241267E-3,-1.7045599E-3,1.0697991E-3,-1.0691543E-4,2.8379017E-4,3.5425096E-3],"split_indices":[25,1092,77,482,80,397,1092,0,0,0,0,0,0,0,0],"split_type":[0,0,0,0,0,0,0,0,0,0,0,0,0,0,0],"sum_hessian":[4.0781006E3,6.8744855E2,3.390652E3,3.6004184E2,3.2740674E2,2.7878481E3,6.028039E2,3.386396E2,2.140225E1,3.089465E2,1.846023E1,1.0426029E3,1.7452452E3,2.3866422E2,3.6413968E2],"tree_param":{"num_deleted":"0","num_feature":"1093","num_nodes":"15","size_leaf_vector":"1"}},{"base_weights":[-1.1581449E-1,-2.705949E-1,-3.940079E-2,-1.2163246E-1,-4.213741E-1,-1.6933545E-2,-1.9640665E-1,-1.808828E-3,5.4937677E-4,-2.1997313E-3,-6.073456E-3,-8.161786E-4,3.3464978E-4,-1.3096782E-3,-5.2349702E-3],"categories":[],"categories_nodes":[],"categories_segments":[],"categories_sizes":[],"default_left":[0,0,0,0,0,0,0,0,0,0,0,0,0,0,0],"id":54,"left_children":[1,3,5,7,9,11,13,-1,-1,-1,-1,-1,-1,-1,-1],"loss_changes":[4.822404E1,3.0219986E1,9.631933E0,7.1173887E0,2.493824E1,7.7961836E0,7.248416E0,0E0,0E0,0E0,0E0,0E0,0E0,0E0,0E0],"parents":[2147483647,0,0,1,1,2,2,3,3,4,4,5,5,6,6],"right_children":[2,4,6,8,10,12,14,-1,-1,-1,-1,-1,-1,-1,-1],"split_conditions":[4.37E-1,4.5E0,6.6E0,1.154E2,5.52E-1,1.2059E1,1.6E1,-1.808828E-3,5.4937677E-4,-2.1997313E-3,-6.073456E-3,-8.161786E-4,3.3464978E-4,-1.3096782E-3,-5.2349702E-3],"split_indices":[3,1092,77,1016,55,993,51,0,0,0,0,0,0,0,0],"split_type":[0,0,0,0,0,0,0,0,0,0,0,0,0,0,0],"sum_hessian":[4.077236E3,1.346758E3,2.730478E3,6.783693E2,6.6838873E2,2.3896338E3,3.4084427E2,5.079095E2,1.7045985E2,3.2193094E2,3.464578E2,1.0462272E3,1.3434066E3,2.851888E2,5.5655453E1],"tree_param":{"num_deleted":"0","num_feature":"1093","num_nodes":"15","size_leaf_vector":"1"}},{"base_weights":[1.1581448E-1,2.705949E-1,3.9400764E-2,1.2163247E-1,4.213741E-1,1.6933512E-2,1.9640669E-1,1.808828E-3,-5.4937653E-4,2.1997315E-3,6.073456E-3,8.161783E-4,-3.3465016E-4,1.3096785E-3,5.2349707E-3],"categories":[],"categories_nodes":[],"categories_segments":[],"categories_sizes":[],"default_left":[0,0,0,0,0,0,0,0,0,0,0,0,0,0,0],"id":55,"left_children":[1,3,5,7,9,11,13,-1,-1,-1,-1,-1,-1,-1,-1],"loss_changes":[4.8224056E1,3.0219994E1,9.63194E0,7.1173887E0,2.4938232E1,7.796184E0,7.248416E0,0E0,0E0,0E0,0E0,0E0,0E0,0E0,0E0],"parents":[2147483647,0,0,1,1,2,2,3,3,4,4,5,5,6,6],"right_children":[2,4,6,8,10,12,14,-1,-1,-1,-1,-1,-1,-1,-1],"split_conditions":[4.37E-1,4.5E0,6.6E0,1.154E2,5.52E-1,1.2059E1,1.6E1,1.808828E-3,-5.4937653E-4,2.1997315E-3,6.073456E-3,8.161783E-4,-3.3465016E-4,1.3096785E-3,5.2349707E-3],"split_indices":[3,1092,77,1016,55,993,51,0,0,0,0,0,0,0,0],"split_type":[0,0,0,0,0,0,0,0,0,0,0,0,0,0,0],"sum_hessian":[4.077236E3,1.346758E3,2.730478E3,6.783693E2,6.6838873E2,2.3896338E3,3.4084427E2,5.0790945E2,1.7045985E2,3.2193094E2,3.464578E2,1.0462273E3,1.3434066E3,2.851888E2,5.5655453E1],"tree_param":{"num_deleted":"0","num_feature":"1093","num_nodes":"15","size_leaf_vector":"1"}},{"base_weights":[-1.1468983E-1,-3.5428545E-1,-6.6094026E-2,-2.0105734E-1,-6.0615426E-1,-3.246323E-2,-2.2143243E-1,-7.2590774E-4,-3.0396476E-3,-6.579817E-3,4.941707E-4,-1.0536553E-3,1.1121612E-4,-9.359851E-4,-4.1555404E-3],"categories":[],"categories_nodes":[],"categories_segments":[],"categories_sizes":[],"default_left":[0,0,0,0,0,0,0,0,0,0,0,0,0,0,0],"id":56,"left_children":[1,3,5,7,9,11,13,-1,-1,-1,-1,-1,-1,-1,-1],"loss_changes":[4.7448956E1,2.640274E1,1.7707546E1,5.6469364E0,8.848381E0,8.861825E0,1.4932461E1,0E0,0E0,0E0,0E0,0E0,0E0,0E0,0E0],"parents":[2147483647,0,0,1,1,2,2,3,3,4,4,5,5,6,6],"right_children":[2,4,6,8,10,12,14,-1,-1,-1,-1,-1,-1,-1,-1],"split_conditions":[-5E0,6E0,5.4E0,1.6568E1,2.4E1,4.379E0,5E0,-7.2590774E-4,-3.0396476E-3,-6.579817E-3,4.941707E-4,-1.0536553E-3,1.1121612E-4,-9.359851E-4,-4.1555404E-3],"split_indices":[25,1092,77,895,79,397,1092,0,0,0,0,0,0,0,0],"split_type":[0,0,0,0,0,0,0,0,0,0,0,0,0,0,0],"sum_hessian":[4.0762124E3,6.862838E2,3.3899285E3,4.2781473E2,2.584691E2,2.7876177E3,6.0231085E2,1.9103621E2,2.367785E2,2.3952902E2,1.894008E1,1.042485E3,1.7451327E3,3.6405423E2,2.3825662E2],"tree_param":{"num_deleted":"0","num_feature":"1093","num_nodes":"15","size_leaf_vector":"1"}},{"base_weights":[1.1468982E-1,3.5428545E-1,6.6094026E-2,2.0105731E-1,6.061543E-1,3.2463223E-2,2.2143243E-1,7.259074E-4,3.0396476E-3,6.5798173E-3,-4.9417134E-4,1.0536555E-3,-1.1121642E-4,9.359854E-4,4.15554E-3],"categories":[],"categories_nodes":[],"categories_segments":[],"categories_sizes":[],"default_left":[0,0,0,0,0,0,0,0,0,0,0,0,0,0,0],"id":57,"left_children":[1,3,5,7,9,11,13,-1,-1,-1,-1,-1,-1,-1,-1],"loss_changes":[4.7448967E1,2.640274E1,1.770755E1,5.6469364E0,8.848396E0,8.861833E0,1.4932453E1,0E0,0E0,0E0,0E0,0E0,0E0,0E0,0E0],"parents":[2147483647,0,0,1,1,2,2,3,3,4,4,5,5,6,6],"right_children":[2,4,6,8,10,12,14,-1,-1,-1,-1,-1,-1,-1,-1],"split_conditions":[-5E0,6E0,5.4E0,1.6568E1,2.4E1,4.379E0,5E0,7.259074E-4,3.0396476E-3,6.5798173E-3,-4.9417134E-4,1.0536555E-3,-1.1121642E-4,9.359854E-4,4.15554E-3],"split_indices":[25,1092,77,895,79,397,1092,0,0,0,0,0,0,0,0],"split_type":[0,0,0,0,0,0,0,0,0,0,0,0,0,0,0],"sum_hessian":[4.0762124E3,6.862838E2,3.3899285E3,4.278147E2,2.5846912E2,2.7876177E3,6.0231085E2,1.9103621E2,2.3677849E2,2.3952902E2,1.894008E1,1.042485E3,1.7451327E3,3.6405423E2,2.3825662E2],"tree_param":{"num_deleted":"0","num_feature":"1093","num_nodes":"15","size_leaf_vector":"1"}},{"base_weights":[-1.1357255E-1,-2.6609668E-1,-3.8356453E-2,-1.1932677E-1,-4.1495377E-1,-1.6312165E-2,-1.9250454E-1,-1.3753521E-3,4.442995E-3,-2.1606523E-3,-5.991606E-3,-2.4865833E-3,-2.462078E-5,1.2436346E-3,-2.5875058E-3],"categories":[],"categories_nodes":[],"categories_segments":[],"categories_sizes":[],"default_left":[0,0,0,0,0,0,0,0,0,0,0,0,0,0,0],"id":58,"left_children":[1,3,5,7,9,11,13,-1,-1,-1,-1,-1,-1,-1,-1],"loss_changes":[4.6754307E1,2.9360176E1,9.277672E0,7.0317335E0,2.434031E1,7.692274E0,7.203204E0,0E0,0E0,0E0,0E0,0E0,0E0,0E0,0E0],"parents":[2147483647,0,0,1,1,2,2,3,3,4,4,5,5,6,6],"right_children":[2,4,6,8,10,12,14,-1,-1,-1,-1,-1,-1,-1,-1],"split_conditions":[4.37E-1,4.5E0,6.6E0,7.238E0,5.52E-1,3.13E-1,7.3E-2,-1.3753521E-3,4.442995E-3,-2.1606523E-3,-5.991606E-3,-2.4865833E-3,-2.462078E-5,1.2436346E-3,-2.5875058E-3],"split_indices":[3,1092,77,539,55,62,668,0,0,0,0,0,0,0,0],"split_type":[0,0,0,0,0,0,0,0,0,0,0,0,0,0,0],"sum_hessian":[4.0753088E3,1.3451201E3,2.7301887E3,6.7821564E2,6.669044E2,2.3895688E3,3.4061975E2,6.5772327E2,2.0492355E1,3.2171783E2,3.4518658E2,1.3347453E2,2.2560945E3,5.874646E1,2.818733E2],"tree_param":{"num_deleted":"0","num_feature":"1093","num_nodes":"15","size_leaf_vector":"1"}},{"base_weights":[1.13572575E-1,2.6609668E-1,3.8356483E-2,1.19326755E-1,4.149538E-1,1.6312197E-2,1.9250454E-1,1.3753519E-3,-4.442995E-3,2.1606523E-3,5.991606E-3,2.4865835E-3,2.46211E-5,-1.2436345E-3,2.5875058E-3],"categories":[],"categories_nodes":[],"categories_segments":[],"categories_sizes":[],"default_left":[0,0,0,0,0,0,0,0,0,0,0,0,0,0,0],"id":59,"left_children":[1,3,5,7,9,11,13,-1,-1,-1,-1,-1,-1,-1,-1],"loss_changes":[4.6754295E1,2.9360168E1,9.277668E0,7.0317345E0,2.4340324E1,7.6922736E0,7.203204E0,0E0,0E0,0E0,0E0,0E0,0E0,0E0,0E0],"parents":[2147483647,0,0,1,1,2,2,3,3,4,4,5,5,6,6],"right_children":[2,4,6,8,10,12,14,-1,-1,-1,-1,-1,-1,-1,-1],"split_conditions":[4.37E-1,4.5E0,6.6E0,7.238E0,5.52E-1,3.13E-1,7.3E-2,1.3753519E-3,-4.442995E-3,2.1606523E-3,5.991606E-3,2.4865835E-3,2.46211E-5,-1.2436345E-3,2.5875058E-3],"split_indices":[3,1092,77,539,55,62,668,0,0,0,0,0,0,0,0],"split_type":[0,0,0,0,0,0,0,0,0,0,0,0,0,0,0],"sum_hessian":[4.0753086E3,1.3451201E3,2.7301887E3,6.7821564E2,6.669044E2,2.3895688E3,3.4061975E2,6.5772327E2,2.0492353E1,3.2171783E2,3.4518658E2,1.3347453E2,2.2560942E3,5.874646E1,2.818733E2],"tree_param":{"num_deleted":"0","num_feature":"1093","num_nodes":"15","size_leaf_vector":"1"}},{"base_weights":[-1.1246766E-1,-3.4854922E-1,-6.465821E-2,-1.9742046E-1,-5.9774554E-1,-3.1604838E-2,-2.1744457E-1,-7.008772E-4,-2.994554E-3,-6.4922944E-3,5.090933E-4,3.919506E-4,-7.647013E-4,-2.4790148E-4,-3.435767E-3],"categories":[],"categories_nodes":[],"categories_segments":[],"categories_sizes":[],"default_left":[0,0,0,0,0,0,0,0,0,0,0,0,0,0,0],"id":60,"left_children":[1,3,5,7,9,11,13,-1,-1,-1,-1,-1,-1,-1,-1],"loss_changes":[4.5975014E1,2.572039E1,1.7114046E1,5.5471554E0,8.666199E0,8.86023E0,1.463974E1,0E0,0E0,0E0,0E0,0E0,0E0,0E0,0E0],"parents":[2147483647,0,0,1,1,2,2,3,3,4,4,5,5,6,6],"right_children":[2,4,6,8,10,12,14,-1,-1,-1,-1,-1,-1,-1,-1],"split_conditions":[-5E0,6E0,5.4E0,1.6568E1,2.4E1,1.041E2,3.5E0,-7.008772E-4,-2.994554E-3,-6.4922944E-3,5.090933E-4,3.919506E-4,-7.647013E-4,-2.4790148E-4,-3.435767E-3],"split_indices":[25,1092,77,895,79,381,1092,0,0,0,0,0,0,0,0],"split_type":[0,0,0,0,0,0,0,0,0,0,0,0,0,0,0],"sum_hessian":[4.0742937E3,6.850833E2,3.3892104E3,4.275697E2,2.5751364E2,2.7873992E3,6.018112E2,1.9095616E2,2.3661354E2,2.3857684E2,1.8936802E1,1.0812513E3,1.7061478E3,2.3858801E2,3.6322324E2],"tree_param":{"num_deleted":"0","num_feature":"1093","num_nodes":"15","size_leaf_vector":"1"}},{"base_weights":[1.12467654E-1,3.4854925E-1,6.46582E-2,1.9742051E-1,5.9774554E-1,3.1604834E-2,2.1744455E-1,7.0087734E-4,2.9945546E-3,6.4922944E-3,-5.09093E-4,-3.9195095E-4,7.6470134E-4,2.4790148E-4,3.4357666E-3],"categories":[],"categories_nodes":[],"categories_segments":[],"categories_sizes":[],"default_left":[0,0,0,0,0,0,0,0,0,0,0,0,0,0,0],"id":61,"left_children":[1,3,5,7,9,11,13,-1,-1,-1,-1,-1,-1,-1,-1],"loss_changes":[4.5975025E1,2.5720375E1,1.7114044E1,5.547159E0,8.666199E0,8.860237E0,1.4639738E1,0E0,0E0,0E0,0E0,0E0,0E0,0E0,0E0],"parents":[2147483647,0,0,1,1,2,2,3,3,4,4,5,5,6,6],"right_children":[2,4,6,8,10,12,14,-1,-1,-1,-1,-1,-1,-1,-1],"split_conditions":[-5E0,6E0,5.4E0,1.6568E1,2.4E1,1.041E2,3.5E0,7.0087734E-4,2.9945546E-3,6.4922944E-3,-5.09093E-4,-3.9195095E-4,7.6470134E-4,2.4790148E-4,3.4357666E-3],"split_indices":[25,1092,77,895,79,381,1092,0,0,0,0,0,0,0,0],"split_type":[0,0,0,0,0,0,0,0,0,0,0,0,0,0,0],"sum_hessian":[4.0742937E3,6.850833E2,3.3892104E3,4.275697E2,2.5751364E2,2.7873992E3,6.018112E2,1.9095615E2,2.3661354E2,2.3857684E2,1.8936802E1,1.0812513E3,1.7061478E3,2.3858803E2,3.6322324E2],"tree_param":{"num_deleted":"0","num_feature":"1093","num_nodes":"15","size_leaf_vector":"1"}},{"base_weights":[-1.1137255E-1,-2.6165426E-1,-3.7348453E-2,-1.1699196E-1,-4.0868068E-1,-1.573225E-2,-1.8859532E-1,-1.7565793E-3,5.7740585E-4,-1.4846083E-3,-5.4627596E-3,2.268472E-3,-2.8988658E-4,-1.2389511E-3,-5.128561E-3],"categories":[],"categories_nodes":[],"categories_segments":[],"categories_sizes":[],"default_left":[0,0,0,0,0,0,0,0,0,0,0,0,0,0,0],"id":62,"left_children":[1,3,5,7,9,11,13,-1,-1,-1,-1,-1,-1,-1,-1],"loss_changes":[4.531527E1,2.8547089E1,8.92548E0,6.9711266E0,2.37781E1,7.693852E0,7.099077E0,0E0,0E0,0E0,0E0,0E0,0E0,0E0,0E0],"parents":[2147483647,0,0,1,1,2,2,3,3,4,4,5,5,6,6],"right_children":[2,4,6,8,10,12,14,-1,-1,-1,-1,-1,-1,-1,-1],"split_conditions":[4.37E-1,4.5E0,6.6E0,1.154E2,4.49E-1,3.91E-1,1.6E1,-1.7565793E-3,5.7740585E-4,-1.4846083E-3,-5.4627596E-3,2.268472E-3,-2.8988658E-4,-1.2389511E-3,-5.128561E-3],"split_indices":[3,1092,77,1016,55,637,51,0,0,0,0,0,0,0,0],"split_type":[0,0,0,0,0,0,0,0,0,0,0,0,0,0,0],"sum_hessian":[4.0733562E3,1.3434288E3,2.7299272E3,6.7806384E2,6.6536505E2,2.389521E3,3.4040634E2,5.0762488E2,1.7043895E2,2.308539E2,4.3451117E2,1.2298071E2,2.2665403E3,2.8493497E2,5.5471394E1],"tree_param":{"num_deleted":"0","num_feature":"1093","num_nodes":"15","size_leaf_vector":"1"}},{"base_weights":[1.11372545E-1,2.6165423E-1,3.734845E-2,1.1699197E-1,4.0868065E-1,1.5732242E-2,1.8859532E-1,1.7565793E-3,-5.774053E-4,1.4846077E-3,5.4627596E-3,-2.2684718E-3,2.898865E-4,1.2389509E-3,5.128561E-3],"categories":[],"categories_nodes":[],"categories_segments":[],"categories_sizes":[],"default_left":[0,0,0,0,0,0,0,0,0,0,0,0,0,0,0],"id":63,"left_children":[1,3,5,7,9,11,13,-1,-1,-1,-1,-1,-1,-1,-1],"loss_changes":[4.5315266E1,2.8547081E1,8.925482E0,6.971122E0,2.3778114E1,7.6938505E0,7.099079E0,0E0,0E0,0E0,0E0,0E0,0E0,0E0,0E0],"parents":[2147483647,0,0,1,1,2,2,3,3,4,4,5,5,6,6],"right_children":[2,4,6,8,10,12,14,-1,-1,-1,-1,-1,-1,-1,-1],"split_conditions":[4.37E-1,4.5E0,6.6E0,1.154E2,4.49E-1,3.91E-1,1.6E1,1.7565793E-3,-5.774053E-4,1.4846077E-3,5.4627596E-3,-2.2684718E-3,2.898865E-4,1.2389509E-3,5.128561E-3],"split_indices":[3,1092,77,1016,55,637,51,0,0,0,0,0,0,0,0],"split_type":[0,0,0,0,0,0,0,0,0,0,0,0,0,0,0],"sum_hessian":[4.0733562E3,1.3434288E3,2.7299272E3,6.780638E2,6.6536505E2,2.389521E3,3.4040634E2,5.0762485E2,1.7043895E2,2.308539E2,4.3451117E2,1.2298071E2,2.2665403E3,2.8493497E2,5.5471394E1],"tree_param":{"num_deleted":"0","num_feature":"1093","num_nodes":"15","size_leaf_vector":"1"}},{"base_weights":[-1.1029167E-1,-3.4283358E-1,-6.3275255E-2,-1.9379365E-1,-5.893899E-1,-3.078002E-2,-2.1359965E-1,-6.7527895E-4,-2.9501172E-3,-6.3132527E-3,1.8725009E-3,-1.0304154E-3,1.2418393E-4,-2.3431274E-4,-3.382538E-3],"categories":[],"categories_nodes":[],"categories_segments":[],"categories_sizes":[],"default_left":[0,0,0,0,0,0,0,0,0,0,0,0,0,0,0],"id":64,"left_children":[1,3,5,7,9,11,13,-1,-1,-1,-1,-1,-1,-1,-1],"loss_changes":[4.451263E1,2.5050758E1,1.6550339E1,5.4540043E0,8.505135E0,8.704777E0,1.4269524E1,0E0,0E0,0E0,0E0,0E0,0E0,0E0,0E0],"parents":[2147483647,0,0,1,1,2,2,3,3,4,4,5,5,6,6],"right_children":[2,4,6,8,10,12,14,-1,-1,-1,-1,-1,-1,-1,-1],"split_conditions":[-5E0,6E0,5.4E0,1.6568E1,2.5E1,4.379E0,3.5E0,-6.7527895E-4,-2.9501172E-3,-6.3132527E-3,1.8725009E-3,-1.0304154E-3,1.2418393E-4,-2.3431274E-4,-3.382538E-3],"split_indices":[25,1092,77,895,80,397,1092,0,0,0,0,0,0,0,0],"split_type":[0,0,0,0,0,0,0,0,0,0,0,0,0,0,0],"sum_hessian":[4.0722795E3,6.838221E2,3.3884575E3,4.2730692E2,2.5651514E2,2.7871675E3,6.0129004E2,1.908704E2,2.3643652E2,2.4355147E2,1.296367E1,1.0422781E3,1.7448893E3,2.385515E2,3.6273856E2],"tree_param":{"num_deleted":"0","num_feature":"1093","num_nodes":"15","size_leaf_vector":"1"}},{"base_weights":[1.1029166E-1,3.4283355E-1,6.3275255E-2,1.9379362E-1,5.8939E-1,3.0780012E-2,2.1359967E-1,6.752789E-4,2.9501165E-3,6.3132537E-3,-1.8725009E-3,1.0304154E-3,-1.2418402E-4,2.3431299E-4,3.382538E-3],"categories":[],"categories_nodes":[],"categories_segments":[],"categories_sizes":[],"default_left":[0,0,0,0,0,0,0,0,0,0,0,0,0,0,0],"id":65,"left_children":[1,3,5,7,9,11,13,-1,-1,-1,-1,-1,-1,-1,-1],"loss_changes":[4.4512634E1,2.5050766E1,1.6550343E1,5.4540005E0,8.505135E0,8.704777E0,1.4269524E1,0E0,0E0,0E0,0E0,0E0,0E0,0E0,0E0],"parents":[2147483647,0,0,1,1,2,2,3,3,4,4,5,5,6,6],"right_children":[2,4,6,8,10,12,14,-1,-1,-1,-1,-1,-1,-1,-1],"split_conditions":[-5E0,6E0,5.4E0,1.6568E1,2.5E1,4.379E0,3.5E0,6.752789E-4,2.9501165E-3,6.3132537E-3,-1.8725009E-3,1.0304154E-3,-1.2418402E-4,2.3431299E-4,3.382538E-3],"split_indices":[25,1092,77,895,80,397,1092,0,0,0,0,0,0,0,0],"split_type":[0,0,0,0,0,0,0,0,0,0,0,0,0,0,0],"sum_hessian":[4.0722795E3,6.838221E2,3.3884575E3,4.2730695E2,2.5651514E2,2.7871675E3,6.0129004E2,1.908704E2,2.3643652E2,2.4355147E2,1.296367E1,1.0422781E3,1.7448894E3,2.385515E2,3.6273856E2],"tree_param":{"num_deleted":"0","num_feature":"1093","num_nodes":"15","size_leaf_vector":"1"}},{"base_weights":[-1.0921853E-1,-2.573365E-1,-3.6346413E-2,-1.1475141E-1,-4.0255803E-1,-1.51452E-2,-1.8479264E-1,-1.3279055E-3,4.4324696E-3,-2.0792678E-3,-5.8391606E-3,-2.7607766E-4,2.4232867E-3,1.2859936E-3,-2.5038342E-3],"categories":[],"categories_nodes":[],"categories_segments":[],"categories_sizes":[],"default_left":[0,0,0,0,0,0,0,0,0,0,0,0,0,0,0],"id":66,"left_children":[1,3,5,7,9,11,13,-1,-1,-1,-1,-1,-1,-1,-1],"loss_changes":[4.394577E1,2.7756111E1,8.591102E0,6.8924694E0,2.334452E1,7.677141E0,7.0449934E0,0E0,0E0,0E0,0E0,0E0,0E0,0E0,0E0],"parents":[2147483647,0,0,1,1,2,2,3,3,4,4,5,5,6,6],"right_children":[2,4,6,8,10,12,14,-1,-1,-1,-1,-1,-1,-1,-1],"split_conditions":[4.37E-1,4.5E0,6.6E0,7.238E0,5.52E-1,1.0766E2,7.3E-2,-1.3279055E-3,4.4324696E-3,-2.0792678E-3,-5.8391606E-3,-2.7607766E-4,2.4232867E-3,1.2859936E-3,-2.5038342E-3],"split_indices":[3,1092,77,539,55,669,668,0,0,0,0,0,0,0,0],"split_type":[0,0,0,0,0,0,0,0,0,0,0,0,0,0,0],"sum_hessian":[4.0713052E3,1.3416898E3,2.7296152E3,6.778934E2,6.637964E2,2.3894536E3,3.401617E2,6.574027E2,2.0490685E1,3.2121686E2,3.4257956E2,2.2799878E3,1.0946597E2,5.870575E1,2.8145596E2],"tree_param":{"num_deleted":"0","num_feature":"1093","num_nodes":"15","size_leaf_vector":"1"}},{"base_weights":[1.0921852E-1,2.573365E-1,3.6346417E-2,1.1475139E-1,4.02558E-1,1.5145204E-2,1.8479264E-1,1.3279052E-3,-4.4324696E-3,2.0792675E-3,5.8391606E-3,2.7607768E-4,-2.4232867E-3,-1.2859936E-3,2.5038342E-3],"categories":[],"categories_nodes":[],"categories_segments":[],"categories_sizes":[],"default_left":[0,0,0,0,0,0,0,0,0,0,0,0,0,0,0],"id":67,"left_children":[1,3,5,7,9,11,13,-1,-1,-1,-1,-1,-1,-1,-1],"loss_changes":[4.394576E1,2.7756119E1,8.591104E0,6.8924694E0,2.3344528E1,7.6771407E0,7.0449934E0,0E0,0E0,0E0,0E0,0E0,0E0,0E0,0E0],"parents":[2147483647,0,0,1,1,2,2,3,3,4,4,5,5,6,6],"right_children":[2,4,6,8,10,12,14,-1,-1,-1,-1,-1,-1,-1,-1],"split_conditions":[4.37E-1,4.5E0,6.6E0,7.238E0,5.52E-1,1.0766E2,7.3E-2,1.3279052E-3,-4.4324696E-3,2.0792675E-3,5.8391606E-3,2.7607768E-4,-2.4232867E-3,-1.2859936E-3,2.5038342E-3],"split_indices":[3,1092,77,539,55,669,668,0,0,0,0,0,0,0,0],"split_type":[0,0,0,0,0,0,0,0,0,0,0,0,0,0,0],"sum_hessian":[4.0713052E3,1.3416898E3,2.7296152E3,6.778934E2,6.637964E2,2.3894536E3,3.401617E2,6.574027E2,2.0490685E1,3.2121686E2,3.4257953E2,2.2799875E3,1.0946597E2,5.870575E1,2.8145596E2],"tree_param":{"num_deleted":"0","num_feature":"1093","num_nodes":"15","size_leaf_vector":"1"}},{"base_weights":[-1.0815681E-1,-3.373515E-1,-6.1894637E-2,-1.572766E-1,-5.366011E-1,-2.9960485E-2,-2.0974238E-1,-1.2079293E-3,-7.0405146E-3,-5.8022933E-3,1.766717E-3,4.0073163E-4,-7.434522E-4,-8.6152036E-4,-3.982092E-3],"categories":[],"categories_nodes":[],"categories_segments":[],"categories_sizes":[],"default_left":[0,0,0,0,0,0,0,0,0,0,0,0,0,0,0],"id":68,"left_children":[1,3,5,7,9,11,13,-1,-1,-1,-1,-1,-1,-1,-1],"loss_changes":[4.314642E1,2.4440376E1,1.599307E1,7.1053944E0,1.0187233E1,8.669069E0,1.3982235E1,0E0,0E0,0E0,0E0,0E0,0E0,0E0,0E0],"parents":[2147483647,0,0,1,1,2,2,3,3,4,4,5,5,6,6],"right_children":[2,4,6,8,10,12,14,-1,-1,-1,-1,-1,-1,-1,-1],"split_conditions":[-5E0,5E0,5.4E0,8.62E-1,2.6E1,1.041E2,5E0,-1.2079293E-3,-7.0405146E-3,-5.8022933E-3,1.766717E-3,4.0073163E-4,-7.434522E-4,-8.6152036E-4,-3.982092E-3],"split_indices":[25,1092,77,482,80,381,1092,0,0,0,0,0,0,0,0],"split_type":[0,0,0,0,0,0,0,0,0,0,0,0,0,0,0],"sum_hessian":[4.070218E3,6.825245E2,3.3876936E3,3.5945285E2,3.2307162E2,2.7869363E3,6.007574E2,3.381131E2,2.1339743E1,3.0462537E2,1.8446266E1,1.0811353E3,1.705801E3,3.6370724E2,2.3705016E2],"tree_param":{"num_deleted":"0","num_feature":"1093","num_nodes":"15","size_leaf_vector":"1"}},{"base_weights":[1.081568E-1,3.373515E-1,6.1894625E-2,1.5727662E-1,5.366011E-1,2.9960465E-2,2.0974241E-1,1.2079296E-3,7.0405146E-3,5.8022933E-3,-1.7667168E-3,-4.00732E-4,7.4345217E-4,8.6152053E-4,3.9820923E-3],"categories":[],"categories_nodes":[],"categories_segments":[],"categories_sizes":[],"default_left":[0,0,0,0,0,0,0,0,0,0,0,0,0,0,0],"id":69,"left_children":[1,3,5,7,9,11,13,-1,-1,-1,-1,-1,-1,-1,-1],"loss_changes":[4.314642E1,2.4440369E1,1.5993078E1,7.1053934E0,1.0187233E1,8.669074E0,1.3982235E1,0E0,0E0,0E0,0E0,0E0,0E0,0E0,0E0],"parents":[2147483647,0,0,1,1,2,2,3,3,4,4,5,5,6,6],"right_children":[2,4,6,8,10,12,14,-1,-1,-1,-1,-1,-1,-1,-1],"split_conditions":[-5E0,5E0,5.4E0,8.62E-1,2.6E1,1.041E2,5E0,1.2079296E-3,7.0405146E-3,5.8022933E-3,-1.7667168E-3,-4.00732E-4,7.4345217E-4,8.6152053E-4,3.9820923E-3],"split_indices":[25,1092,77,482,80,381,1092,0,0,0,0,0,0,0,0],"split_type":[0,0,0,0,0,0,0,0,0,0,0,0,0,0,0],"sum_hessian":[4.070218E3,6.825245E2,3.3876936E3,3.5945285E2,3.2307162E2,2.7869363E3,6.007574E2,3.381131E2,2.1339743E1,3.0462537E2,1.8446268E1,1.0811353E3,1.705801E3,3.6370724E2,2.3705016E2],"tree_param":{"num_deleted":"0","num_feature":"1093","num_nodes":"15","size_leaf_vector":"1"}},{"base_weights":[-1.0710719E-1,-2.530535E-1,-3.539442E-2,-1.1267853E-1,-3.9635563E-1,-9.900452E-2,1.3599376E-2,2.485204E-3,-1.404836E-3,-2.039538E-3,-5.7623773E-3,-1.0711896E-3,8.215781E-3,-2.5702195E-4,1.4373236E-3],"categories":[],"categories_nodes":[],"categories_segments":[],"categories_sizes":[],"default_left":[0,0,0,0,0,0,0,0,0,0,0,0,0,0,0],"id":70,"left_children":[1,3,5,7,9,11,13,-1,-1,-1,-1,-1,-1,-1,-1],"loss_changes":[4.2590527E1,2.6928017E1,8.510439E0,6.851636E0,2.2832573E1,8.96302E0,7.8965383E0,0E0,0E0,0E0,0E0,0E0,0E0,0E0,0E0],"parents":[2147483647,0,0,1,1,2,2,3,3,4,4,5,5,6,6],"right_children":[2,4,6,8,10,12,14,-1,-1,-1,-1,-1,-1,-1,-1],"split_conditions":[4.37E-1,4.5E0,2.747E0,2.22E-1,5.52E-1,4.273E0,1.5756E1,2.485204E-3,-1.404836E-3,-2.039538E-3,-5.7623773E-3,-1.0711896E-3,8.215781E-3,-2.5702195E-4,1.4373236E-3],"split_indices":[3,1092,539,997,55,1034,305,0,0,0,0,0,0,0,0],"split_type":[0,0,0,0,0,0,0,0,0,0,0,0,0,0,0],"sum_hessian":[4.0691904E3,1.339855E3,2.7293354E3,6.777427E2,6.621123E2,1.1870858E3,1.5422496E3,4.7876034E1,6.2986664E2,3.2095398E2,3.4115833E2,1.1775897E3,9.496175E0,1.18513E3,3.571196E2],"tree_param":{"num_deleted":"0","num_feature":"1093","num_nodes":"15","size_leaf_vector":"1"}},{"base_weights":[1.0710718E-1,2.530535E-1,3.5394404E-2,1.1267852E-1,3.9635563E-1,9.900451E-2,-1.3599391E-2,-2.485204E-3,1.4048358E-3,2.039538E-3,5.7623773E-3,1.0711894E-3,-8.215781E-3,2.570218E-4,-1.4373237E-3],"categories":[],"categories_nodes":[],"categories_segments":[],"categories_sizes":[],"default_left":[0,0,0,0,0,0,0,0,0,0,0,0,0,0,0],"id":71,"left_children":[1,3,5,7,9,11,13,-1,-1,-1,-1,-1,-1,-1,-1],"loss_changes":[4.2590527E1,2.6928017E1,8.510439E0,6.851635E0,2.2832565E1,8.963018E0,7.8965387E0,0E0,0E0,0E0,0E0,0E0,0E0,0E0,0E0],"parents":[2147483647,0,0,1,1,2,2,3,3,4,4,5,5,6,6],"right_children":[2,4,6,8,10,12,14,-1,-1,-1,-1,-1,-1,-1,-1],"split_conditions":[4.37E-1,4.5E0,2.747E0,2.22E-1,5.52E-1,4.273E0,1.5756E1,-2.485204E-3,1.4048358E-3,2.039538E-3,5.7623773E-3,1.0711894E-3,-8.215781E-3,2.570218E-4,-1.4373237E-3],"split_indices":[3,1092,539,997,55,1034,305,0,0,0,0,0,0,0,0],"split_type":[0,0,0,0,0,0,0,0,0,0,0,0,0,0,0],"sum_hessian":[4.0691904E3,1.339855E3,2.7293354E3,6.777427E2,6.621123E2,1.1870858E3,1.5422496E3,4.7876034E1,6.2986664E2,3.2095398E2,3.4115833E2,1.1775897E3,9.496176E0,1.18513E3,3.571196E2],"tree_param":{"num_deleted":"0","num_feature":"1093","num_nodes":"15","size_leaf_vector":"1"}},{"base_weights":[-1.060636E-1,-3.319963E-1,-6.0540315E-2,-1.8670772E-1,-5.739638E-1,-2.8987657E-2,-2.067252E-1,-6.4770516E-4,-2.915656E-3,-6.2471787E-3,5.767565E-4,-1.0051623E-3,1.3768671E-4,-8.389098E-4,-3.9361278E-3],"categories":[],"categories_nodes":[],"categories_segments":[],"categories_sizes":[],"default_left":[0,0,0,0,0,0,0,0,0,0,0,0,0,0,0],"id":72,"left_children":[1,3,5,7,9,11,13,-1,-1,-1,-1,-1,-1,-1,-1],"loss_changes":[4.1831863E1,2.3874748E1,1.5621092E1,5.450001E0,8.225388E0,8.526967E0,1.3770134E1,0E0,0E0,0E0,0E0,0E0,0E0,0E0,0E0],"parents":[2147483647,0,0,1,1,2,2,3,3,4,4,5,5,6,6],"right_children":[2,4,6,8,10,12,14,-1,-1,-1,-1,-1,-1,-1,-1],"split_conditions":[-5E0,6E0,5.4E0,7.5E-2,2.4E1,4.379E0,1.4E1,-6.4770516E-4,-2.915656E-3,-6.2471787E-3,5.767565E-4,-1.0051623E-3,1.3768671E-4,-8.389098E-4,-3.9361278E-3],"split_indices":[25,1092,77,875,79,397,51,0,0,0,0,0,0,0,0],"split_type":[0,0,0,0,0,0,0,0,0,0,0,0,0,0,0],"sum_hessian":[4.0681445E3,6.8117426E2,3.3869702E3,4.2672208E2,2.5445221E2,2.7866877E3,6.0028253E2,1.9804132E2,2.2868076E2,2.3553706E2,1.8915144E1,1.0420518E3,1.7446359E3,3.630876E2,2.3719495E2],"tree_param":{"num_deleted":"0","num_feature":"1093","num_nodes":"15","size_leaf_vector":"1"}},{"base_weights":[1.0606362E-1,3.3199632E-1,6.0540326E-2,1.8670775E-1,5.739638E-1,2.8987667E-2,2.067252E-1,6.477056E-4,2.9156562E-3,6.2471796E-3,-5.7675684E-4,1.0051623E-3,-1.3768657E-4,8.3890994E-4,3.936128E-3],"categories":[],"categories_nodes":[],"categories_segments":[],"categories_sizes":[],"default_left":[0,0,0,0,0,0,0,0,0,0,0,0,0,0,0],"id":73,"left_children":[1,3,5,7,9,11,13,-1,-1,-1,-1,-1,-1,-1,-1],"loss_changes":[4.183187E1,2.3874748E1,1.5621093E1,5.4500027E0,8.225388E0,8.526964E0,1.3770138E1,0E0,0E0,0E0,0E0,0E0,0E0,0E0,0E0],"parents":[2147483647,0,0,1,1,2,2,3,3,4,4,5,5,6,6],"right_children":[2,4,6,8,10,12,14,-1,-1,-1,-1,-1,-1,-1,-1],"split_conditions":[-5E0,6E0,5.4E0,7.5E-2,2.4E1,4.379E0,1.4E1,6.477056E-4,2.9156562E-3,6.2471796E-3,-5.7675684E-4,1.0051623E-3,-1.3768657E-4,8.3890994E-4,3.936128E-3],"split_indices":[25,1092,77,875,79,397,51,0,0,0,0,0,0,0,0],"split_type":[0,0,0,0,0,0,0,0,0,0,0,0,0,0,0],"sum_hessian":[4.0681445E3,6.8117426E2,3.3869702E3,4.2672208E2,2.5445221E2,2.7866877E3,6.0028253E2,1.9804132E2,2.2868076E2,2.3553706E2,1.8915146E1,1.0420518E3,1.7446359E3,3.630876E2,2.3719495E2],"tree_param":{"num_deleted":"0","num_feature":"1093","num_nodes":"15","size_leaf_vector":"1"}},{"base_weights":[-1.05034E-1,-2.4880892E-1,-3.4481823E-2,-1.10389635E-1,-3.904485E-1,-1.13208726E-1,4.886096E-3,-1.684959E-3,6.253368E-4,-2.0036814E-3,-5.687872E-3,-1.9768646E-3,-6.344454E-5,1.1893184E-4,-5.2083004E-3],"categories":[],"categories_nodes":[],"categories_segments":[],"categories_sizes":[],"default_left":[0,0,0,0,0,0,0,0,0,0,0,0,0,0,0],"id":74,"left_children":[1,3,5,7,9,11,13,-1,-1,-1,-1,-1,-1,-1,-1],"loss_changes":[4.1256817E1,2.620845E1,8.462083E0,6.8288774E0,2.2306519E1,8.215296E0,6.7141967E0,0E0,0E0,0E0,0E0,0E0,0E0,0E0,0E0],"parents":[2147483647,0,0,1,1,2,2,3,3,4,4,5,5,6,6],"right_children":[2,4,6,8,10,12,14,-1,-1,-1,-1,-1,-1,-1,-1],"split_conditions":[4.37E-1,4.5E0,-5.5E0,1.154E2,5.52E-1,1.075E2,8.5E0,-1.684959E-3,6.253368E-4,-2.0036814E-3,-5.687872E-3,-1.9768646E-3,-6.344454E-5,1.1893184E-4,-5.2083004E-3],"split_indices":[3,1092,872,1016,55,24,376,0,0,0,0,0,0,0,0],"split_type":[0,0,0,0,0,0,0,0,0,0,0,0,0,0,0],"sum_hessian":[4.0671082E3,1.3379786E3,2.7291296E3,6.775817E2,6.6039685E2,9.0915344E2,1.8199761E3,5.0718225E2,1.7039948E2,3.2070285E2,3.3969403E2,5.0728638E2,4.0186707E2,1.7970018E3,2.297424E1],"tree_param":{"num_deleted":"0","num_feature":"1093","num_nodes":"15","size_leaf_vector":"1"}},{"base_weights":[1.05034E-1,2.4880894E-1,3.448182E-2,1.1038964E-1,3.9044854E-1,1.13208726E-1,-4.886102E-3,1.6849592E-3,-6.253368E-4,2.0036818E-3,5.6878724E-3,1.9768646E-3,6.3444524E-5,-1.189319E-4,5.2083004E-3],"categories":[],"categories_nodes":[],"categories_segments":[],"categories_sizes":[],"default_left":[0,0,0,0,0,0,0,0,0,0,0,0,0,0,0],"id":75,"left_children":[1,3,5,7,9,11,13,-1,-1,-1,-1,-1,-1,-1,-1],"loss_changes":[4.1256824E1,2.620845E1,8.462083E0,6.8288784E0,2.2306519E1,8.215295E0,6.714196E0,0E0,0E0,0E0,0E0,0E0,0E0,0E0,0E0],"parents":[2147483647,0,0,1,1,2,2,3,3,4,4,5,5,6,6],"right_children":[2,4,6,8,10,12,14,-1,-1,-1,-1,-1,-1,-1,-1],"split_conditions":[4.37E-1,4.5E0,-5.5E0,1.154E2,5.52E-1,1.075E2,8.5E0,1.6849592E-3,-6.253368E-4,2.0036818E-3,5.6878724E-3,1.9768646E-3,6.3444524E-5,-1.189319E-4,5.2083004E-3],"split_indices":[3,1092,872,1016,55,24,376,0,0,0,0,0,0,0,0],"split_type":[0,0,0,0,0,0,0,0,0,0,0,0,0,0,0],"sum_hessian":[4.0671082E3,1.3379786E3,2.7291296E3,6.775817E2,6.6039685E2,9.0915344E2,1.8199761E3,5.0718225E2,1.7039948E2,3.2070285E2,3.39694E2,5.0728638E2,4.0186707E2,1.7970018E3,2.297424E1],"tree_param":{"num_deleted":"0","num_feature":"1093","num_nodes":"15","size_leaf_vector":"1"}},{"base_weights":[-1.0401657E-1,-3.2671425E-1,-5.92267E-2,-1.8332356E-1,-5.664029E-1,-2.809504E-2,-2.0356794E-1,-3.232412E-3,-9.225636E-4,-6.0778903E-3,1.8989515E-3,4.116908E-4,-7.1997655E-4,-1.8597477E-4,-3.252436E-3],"categories":[],"categories_nodes":[],"categories_segments":[],"categories_sizes":[],"default_left":[0,0,0,0,0,0,0,0,0,0,0,0,0,0,0],"id":76,"left_children":[1,3,5,7,9,11,13,-1,-1,-1,-1,-1,-1,-1,-1],"loss_changes":[4.0547344E1,2.3294098E1,1.5215013E1,5.416548E0,8.0765E0,8.479194E0,1.3515463E1,0E0,0E0,0E0,0E0,0E0,0E0,0E0,0E0],"parents":[2147483647,0,0,1,1,2,2,3,3,4,4,5,5,6,6],"right_children":[2,4,6,8,10,12,14,-1,-1,-1,-1,-1,-1,-1,-1],"split_conditions":[-5E0,6E0,5.4E0,1.218E0,2.5E1,1.041E2,3.5E0,-3.232412E-3,-9.225636E-4,-6.0778903E-3,1.8989515E-3,4.116908E-4,-7.1997655E-4,-1.8597477E-4,-3.252436E-3],"split_indices":[25,1092,77,391,80,381,1092,0,0,0,0,0,0,0,0],"split_type":[0,0,0,0,0,0,0,0,0,0,0,0,0,0,0],"sum_hessian":[4.065999E3,6.797836E2,3.3862153E3,4.2643762E2,2.5334602E2,2.78643E3,5.997852E2,1.6712051E2,